{"Radius":0.0,"Agent":{"StateSize":12,"ActionSize":9,"BatchSize":64,"Epsilon":0.0996820918179746,"EpsilonDecay":0.995,"EpsilonMin":0.1,"Gamma":0.99,"LearningRate":0.001,"TargetUpdateFrequency":1000,"TrainingSteps":1417,"UsePrioritizedReplay":false,"UseDoubleDQN":false,"AverageLoss":52236.11637281673,"AverageQValue":175.70885258027903,"MetricsUpdateCount":140,"QNetwork":{"Layers":[{"LastInputs":[28.008525848388672,26.82889747619629,26.829084396362305,26.829299926757812,26.82910919189453,26.828920364379883,26.828712463378906,26.828506469726562,26.828689575195312,28.85133541140683,0.025300851091742516,0.8510729074478149],"InputSize":12,"OutputSize":12},{"Weights":[[0.19776405766048039,0.0060609715325059405,0.1893589638107931,-0.09719197601992152,-0.2740580921077391,0.003557016472654481,-0.22042301223085026,-0.13408606689662728,-0.18110494822450676,-0.015417367304715691,-0.07816224508329284,0.21048750443905123],[-0.07048535249117484,0.15413048906140647,-0.05358165960947927,-0.03983890390331698,0.1607180941151506,0.00243628306472178,-0.08910487372373978,-0.19505144023816662,-0.2453130934433706,0.18879053639703355,0.12277129644647164,0.009743292710416424],[-0.15877449970175236,-0.21872764712967965,-0.5089869168144582,-0.28641204194562686,-0.10588588897508297,-0.054366542768998855,-0.16466869411896645,-0.4906499684292794,-0.3606609461520987,-0.11111543226347281,0.016969979830111767,0.12380713900559964],[0.052674821165042074,0.012004601156890171,-0.15792100843651188,0.06193325212729328,-0.4211273088604668,-0.12112634410348566,-0.29228417540755686,-0.0811666975032124,-0.36247346368073063,-0.0779992547787983,0.02140934461219234,-0.2756785317617693],[-0.2519515987600593,-0.06379869666074624,-0.004777575104526112,0.2563149924196008,-0.22616974053220948,-0.21058931537481063,0.07915994893046388,-0.23006538418798092,-0.2611245122098545,0.07234447491924972,-0.26135285334750014,-0.27136821215920853],[-0.023717331286173045,-0.21921196979645294,-0.27522309976979753,0.0801067279541115,-0.018299533970916604,0.0742251744535607,-0.03374409466401559,-0.1476345518533984,-0.19449952988156388,-0.18179592456104424,-0.15180567168988376,-0.22719633718339238],[-0.21635751933851402,-0.13555087872753724,0.14205767408420134,-0.22776323758359393,-0.04872064389302701,0.148398185997808,0.26319856201714076,-0.13664083654347728,-0.13219281616078932,0.16152930583824673,-0.2630913605842887,0.049698546274766726],[-0.11172530382114643,0.0392369515171206,0.12471031239900561,0.003702790748192422,0.08238183019349317,-0.12697975947239135,-0.2889856970051893,-0.10993248515014145,-0.10882153162056708,0.03677903439084007,0.16435994540899596,-0.1847230587471998],[0.1358912408721549,-0.001867834856144516,-0.24811914148347738,-0.19525023392034294,-0.06257854986501565,-0.19767594334322502,-0.14402021262028786,0.22374031189610932,-0.11922413815032733,-0.08878027950130597,0.020194139994369392,-0.12404421250711585],[0.1643503055872797,0.17138622460527844,-0.04329203505185881,-0.2838720738615701,0.07197356993704261,-0.27776366758077475,-0.2885571473372236,0.03744264546102697,-0.2638424759665322,0.22173006092293607,-0.03476109803747344,0.23719237494969356],[-0.306799704035992,-0.3297055631217791,-0.1234493294158292,-0.228778174012426,-0.1272137544194941,-0.15370517560311425,-0.35832536259090253,-0.07454289001010189,-0.11017167100119904,-0.4083386604878467,0.09689105015208326,0.0015890062733811394],[-0.22690563950264125,0.26317862984924667,-0.17704570619617574,-0.13816981923311256,0.15581153653136623,-0.07823200612789279,-0.21042132604890956,-0.13445276485992463,0.22473028473805773,0.009451161751229464,0.23334603075848404,-0.2785517721544491],[-0.1268829401771393,-0.25204186464641587,-0.1775908185313657,0.09497957772601728,-0.027634410442539347,0.024249112346221343,-0.2572040923749165,0.08897139011963648,-0.13795531855009568,0.24114594697379751,0.2620112314876258,0.1746940928822288],[0.27148868293131007,0.22864334686427704,-0.1821329090760317,-0.1907294695573072,-0.13510141317931332,-0.2584573633084857,0.07001810560538264,0.10723980321817224,0.21396466853011792,-0.2522999965725797,-0.07791487769385123,0.20146229776926894],[-0.1274437478468603,-0.14615090905446568,-0.12350180858526243,0.09903454676432374,-0.27429146101216567,0.04724110691819518,-0.21746310583353634,-0.1431334926402993,0.05586625808672173,-0.23051474347789716,0.014020447612728693,-0.18784251274947406],[0.15304218021076257,0.050505860048329826,-0.2633531262296737,-0.13974947789150716,0.10863886774940984,-0.2733142193590342,-0.2373847048781268,-0.088813992568097,-0.10940126556998385,-0.03132163191609428,-0.22705361837440463,0.1002476016635927],[-0.20545518890701753,-0.04569197527992882,0.24737544074768245,-0.23962379551403964,-0.1983743984626531,-0.23412677236049317,-0.18290331251714478,-0.1065095943281946,-0.10760581509911399,-0.17988101863161643,0.09030784654441858,0.2771982071951949],[-0.291442515261358,-0.5025091142775572,-0.4278238050698602,-0.23602303245113782,-0.2624305360069974,-0.24116226074716623,-0.2249958265020871,-0.10780326494575176,-0.6218963228207923,-0.6268309164197157,-0.028303677084402887,-0.28153777115473616],[-0.1965497437953752,-0.08695470599258384,0.0470656690778365,-0.07742777862193538,0.013914441878983734,0.007948657692180287,-0.12335438483307343,-0.25943089009085685,0.21999404595117042,-0.16554519372818416,0.2626535141765559,0.21983683789990827],[-0.07734711476397317,-0.07857882357842674,-0.07652525435214048,-0.1684667870133192,0.18992860099171974,-0.13800673030755492,-0.24600471278323993,-0.06568673632657902,0.10670355698965482,-0.013231801926273315,-0.16979024893136893,0.21304021580574858],[-0.2319124932723281,-0.06937024672967673,-0.1991884425501902,-0.08746978151632223,-0.4094823857629783,-0.5823616336629709,-0.38408640666870353,-0.07975599859565341,-0.4864066431422889,-0.48618502602951347,-0.08163422121655302,-0.034721267893817145],[-0.09921074482151301,-0.3415283265304033,0.14278544045839467,-0.23073951768261441,0.0523782688255012,-0.2019021111752577,0.12472188832745643,-0.10400078118661422,-0.368216913357856,0.014002631690781475,0.2734096744756056,-0.04107219842171626],[0.04178207725975877,0.09298565983236141,0.08779470164025237,-0.144243084960016,0.10782199234973039,-0.2676169676411092,-0.06920746129308827,0.2280761017569484,-0.24973518457651106,-0.20713303575894387,-0.15570359913069673,-0.23467611454649326],[-0.07076586318616183,0.25151311939406873,0.16801114003362713,-0.06815955525372995,-0.08246471634012477,0.23315645528978315,0.007508149884809014,-0.23222694752045975,-0.235055163545282,-0.0030150700921262917,0.11453684930425172,0.08836628056890626],[-0.1377237732836309,0.2225110176214807,-0.07990203116546707,0.24666223733932216,-0.05635002577979464,0.22307892942451021,-0.2366894281083855,-0.20311036416195727,-0.1343854432126045,0.04145313736519633,-0.1884968318318363,0.005640821115269797],[-0.03415853100002245,0.22883646575388875,-0.18264609871223159,0.25298825709071804,-0.24431704101339105,-0.052995692487578565,0.0004391446921157347,-0.17750246278681572,-0.04034283604319154,0.17173212445233862,0.27428449054855164,-0.08700404358007159],[-0.20371282128557397,-0.18319723818977865,0.2315930928977915,0.10658994061338031,-0.10787197350021781,-0.2617877071081905,0.08462581148484,-0.26662678719602445,0.20772891825546003,0.22367725592208754,0.14117377361722547,-0.13618712545033348],[-0.15489876546041603,0.22243686305085963,-0.1563749424026288,-0.06126770555910605,0.2629670946912098,-0.1927619877202774,0.08842363504645058,-0.27984064845353296,-0.1240826963928698,-0.08921381216481221,0.0068734715613947344,-0.016776886458442757],[0.010473074639119645,-0.17861341779323345,-0.142837727861126,-0.10954276043794645,0.062433354463377236,-0.017733737100865177,-0.15810749718469225,-0.07469077939242104,-0.20477723500790113,0.06606563551870984,0.07889625649639945,-0.27637228780030715],[-0.04389394642572918,0.2261702618727412,-0.2206356703209291,-0.2625819737907937,-0.11608421674866275,-0.18558293552741062,-0.25310399439113873,0.24135787526284488,0.13589361746433717,-0.2580571163819352,-0.11782112406144461,-0.05246534271473085],[-0.4751189850068135,-0.4573996481923953,-0.314669739566969,-0.08518195742850054,-0.17491570247282623,-0.2721850774279275,-0.32972714459760166,-0.13264468056353818,-0.5029581036807119,-0.46266894598601727,0.26688706645254406,0.2275060958785796],[0.11457898864704347,-0.2945623070700794,-0.3176429798803426,-0.1706244759961038,0.05491402303711529,-0.1439377831189021,-0.2719393738849936,-0.40744459021826074,-0.14451427175224815,0.06986677650949813,-0.12390827555194461,-0.19216717223965682],[-0.12817822041038385,-0.12498442782319977,-0.14794996628993948,0.0055193861625448815,0.005126099892439384,0.17470031929069504,-0.1799434571728699,-0.039449969368787856,-0.15697055188578493,-0.16560376412331262,0.2116934553836238,-0.1548885761058314],[0.07164810955926204,0.21026855394027183,-0.2634135335328375,-0.015143449559010091,-0.1530693317616803,-0.14951242067554377,0.027698338150938223,0.20091374282141558,0.06017713712849852,-0.26854861628662524,-0.05336491893113399,0.2781804791640138],[-0.024770685265444833,0.08221976325349081,-0.2765564560820891,0.02686905392735847,-0.12746556050710542,-0.14798440287534448,0.07740201996707596,-0.0023706703658086803,-0.24663305068230085,-0.14684797342760525,-0.1678210552478597,-0.14067025745359707],[0.08766592682359163,-0.0260586385208042,0.10561741883659373,-0.06683671812588111,-0.1517753370932502,-0.2699137009282598,0.09399499406677882,0.12212911993738433,-0.19551882496347817,0.07482184904381696,-0.22091305600292396,-0.0587831658912723],[0.004516448095716789,0.15260686192848566,0.05108221217156724,-0.08042010497167917,-0.23109433108201768,0.1118872040276923,-0.15449927228979343,0.08600993977556128,-0.05277587904278463,-0.1402951111725626,-0.17502147116203765,0.1597786299215102],[-0.030337127281299944,0.06614217898469675,-0.2743532198168266,-0.17629295741996817,0.19798608816785884,-0.19741028035883174,-0.11077191130702789,0.11636890647392259,-0.040562333531850125,0.19848793696445916,-0.1590875002444854,-0.27347113538194884],[0.10315740773736923,0.14803193934485587,-0.19405110595560482,-0.06409034770503087,-0.2705613218791126,0.1168086880844475,-0.22512182798515773,0.27744215366600566,-0.16728762087460194,-0.07558654479953694,0.038646168059913936,-0.03353898856210678],[-0.18403658248706442,0.27189914065033494,0.03259968982609695,-0.17443024875937754,-0.24127720826527874,0.1177936955338542,-0.025189557175315812,-0.2529453751472813,-0.06943618226297729,-0.10300664695627977,0.2146282077401604,0.14363904781848055],[-0.022683594340102742,-0.13889966346065838,-0.2253299781241719,-0.03728405186364632,-0.1760509785411145,0.0492238229976678,0.27083060020270744,0.18564536383034685,-0.26726582133418836,-0.2736064325351916,0.2500825802898542,-0.06438121623833015],[-0.17936113983986995,-0.5266765880496982,-0.3236816001608561,-0.31267191710583914,-0.23019060601507568,-0.24841224157080105,-0.22768870429569937,-0.5429130980543204,-0.18820853476091293,-0.3105391619886794,0.18029239334102903,-0.04470897385754655],[0.07464244533611125,-0.018017453566306185,-0.39912092680961614,-0.1532622312722743,0.007919649337754076,-0.19515395904430466,-0.272900897828044,-0.1422355874625313,0.05656123749175512,-0.04201034699965367,0.1689445368968454,-0.16248381422097447],[-0.12915962767189637,0.16745145799954725,-0.21974815546571289,0.27096014106382166,-0.1518659784852404,-0.16362296910219948,0.15752987455529233,-0.1509517393584933,0.21857105780216143,-0.2377568679642611,-0.2441731467999782,-0.1822363828438061],[-0.017708568784088462,-0.04710293210126763,0.18205732317432613,0.12996032074625652,-0.01753769880426939,-0.27426619649530376,0.033129409080295026,0.10336980146619903,-0.32555725996407836,-0.1495508201114425,-0.12290474148692182,-0.2608560339025717],[0.005331089188743291,0.1767689818767424,-0.25355402297265434,-0.04438765070258279,0.08336925086299814,0.2604486411079397,-0.1104470117856381,-0.18891145659916034,-0.2596625305514559,-0.2762069352288512,-0.007586165607246474,0.08486456900699194],[-0.17891095777785035,0.01752851466770869,-0.2689749118114305,0.16988359853171872,-0.00506064253979728,-0.27920169701071573,-0.017864922138677408,0.17407362323078276,0.05535773724777476,-0.14803416379631698,-0.20315673306456994,-0.12661726644522336],[-0.18748546993147627,-0.15590093461245533,-0.13591162249306848,0.2589258350259608,-0.2136259844735648,-0.12931213868136973,0.09914360081122645,0.22075451014294384,-0.2796813881524573,-0.11658216104811489,0.2544745909775996,-0.14687707955698273],[-0.26812066861423517,0.14554700358642692,0.05484925678738216,-0.13365079815735037,-0.1941505090088022,0.1627586968946486,0.10431401916316334,-0.14756787633485086,-0.2854001662022531,-0.028323431258762324,-0.20754134100475588,-0.133641582331472],[0.13837065433772933,-0.18584978758762702,0.10083293185559321,0.05990020779175636,0.12719942641640083,-0.13775419159798474,0.028330877203152513,-0.237388602167717,-0.058197741937365766,0.017589730139531603,0.13690867397824869,0.25744880465642805],[-0.21022182565497585,-0.2126853283157587,-0.033944524277352756,0.010789857762851768,-0.006386793050295242,-0.36762641227325965,-0.16010277808858636,-0.12056757777543925,-0.41976888172891913,-0.11962343143061097,0.25503433923851865,-0.052718348049183725],[0.0695235623257225,-0.022732271652512,-0.20182734209260006,0.06657908061885921,-0.06458287970194429,0.1205027612068852,-0.1836910052935957,-0.1791973992863902,-0.016576576677843395,0.21227824191226685,0.12062609462297615,-0.12047180396207317],[-0.07160627159351562,-0.2390705401521752,0.1435312164034666,0.1545088590749227,-0.20698995910073748,0.091245132321201,0.07284105279216559,-0.17402494587237965,0.27345875010489223,-0.19241006731644875,-0.018789450435345707,0.2127069197391829],[-0.39954901711779767,-0.239798525059246,0.028324340493396022,-0.11252308031084725,-0.0128299785066891,0.049982413613540555,-0.144930569716423,0.10052077697381653,-0.2309363958484188,-0.3994030682391605,0.16398616923728632,-0.14956773384748695],[-0.17054012319160633,-0.2259712570458529,0.05225786560053922,-0.057196083807570464,-0.2513304720645673,0.17598604578927013,0.20603780893683382,-0.2904387152773613,0.18810895268668024,0.07093651896484482,-0.17624831526452833,-0.14848731664757267],[-0.03191541316678894,-0.2066734739867367,-0.0551493593824562,-0.27585417747263935,-0.1484086269464889,0.16432684354096977,0.10498506850535924,0.136593074071082,-0.13959802067140392,0.22602463913730217,0.2742829844437664,-0.1493048911212047],[-0.011045213579135616,0.04043422683529844,0.26644849619879085,-0.15197280194036025,0.20355579656677625,-0.18391682023280634,-0.018094050516198515,-0.1551109087369903,-0.19036056167595292,-0.01893193354823698,0.2717009371724245,0.0597839774992898],[-0.22347784828640377,-0.04323329300760892,-0.15332825474182077,-0.2596821962617026,-0.08645798645434413,0.016786626054489884,-0.2140619449696664,-0.4117745758410275,-0.06408295309495599,-0.510128200426059,0.016268625561197167,-0.12520419529797758],[0.21489631825151917,0.13061541167656976,-0.19422190604767137,-0.005051250295140863,-0.09847822051464182,0.1270089113714078,0.23325297206194512,-0.2426253426154087,-0.09108087918546477,-0.29276949509228867,0.07181628005779364,0.13368860380420522],[0.07024186613244665,-0.07764722677018529,-0.23423091246962235,0.2044690992091764,0.08457668677637006,-0.20922328468961188,0.13819114996994034,0.07312039554765554,-0.05429409057927568,-0.26409518579639624,-0.25807357963573313,-0.09238307524237918],[0.1487779233282629,0.004583648062779598,-0.20588997710201323,-0.10386930582445197,-0.14908393819263643,0.13357350230698123,0.15202484248872272,0.08874499548928796,-0.05061389013629125,-0.23793779799760112,0.25900544903226874,0.15843570691775336],[-0.09554179780514536,-0.16235293841840445,-0.09823253285050167,-0.1284332193980155,0.23381549913704197,0.09431937645232735,-0.062185743877015726,-0.032749604106791015,0.1565150933734466,0.07102927072087627,0.21078357140455783,0.017221469973593098],[-0.2024428401075271,-0.16813117427640512,-0.20938941299101324,-0.06322825613544118,0.06835428795793821,0.1497239928618737,0.033335413942938125,-0.16613815857178665,0.09900302084214563,0.111258344415273,-0.217199972506862,-0.26640715568137946],[0.10462425487546587,0.10800619603321898,-0.14876849321867694,-0.25424249559953616,-0.23572905734993574,0.23520285488721177,-0.06776276155086465,0.12219154425075876,-0.24374381091112415,0.18560834975923765,-0.19780368966085138,0.12696942234711156]],"Biases":[0.008649965049252594,0.01,-0.00200651866968774,0.0039019648509571727,0.01,0.01,0.01,0.00761351413330669,0.01,0.006994349866566994,0.00034291212571109335,0.01,0.01,0.01,0.01,0.01,0.01,-0.0035501155695557424,0.01,0.01,-0.0018309988316882637,0.0058567573214555,0.01,0.01,0.01,0.01,0.01,0.01,0.007084747331471191,0.01,-0.0027249010948335022,0.004420284296886581,0.01,0.01,0.005632828235808371,0.01,0.01,0.01,0.01,0.01,0.01,-0.0051252449104995275,0.004094465585679966,0.01,0.007855607489707504,0.01,0.01,0.01,0.00774533155100747,0.01,0.0023748880923647516,0.01,0.01,0.0039548403728897515,0.008312306806221309,0.009190206830280805,0.01,0.0014709609787293462,0.008555536668001764,0.01,0.009156637449041405,0.009755675423424514,0.007846681112712419,0.008841045205599798],"LastInputs":[28.008525848388672,26.82889747619629,26.829084396362305,26.829299926757812,26.82910919189453,26.828920364379883,26.828712463378906,26.828506469726562,26.828689575195312,28.85133541140683,0.025300851091742516,0.8510729074478149],"LastOutputs":[-13.711681709805118,-4.704829493542557,-66.31392087891886,-37.55043451233698,-22.93219584310792,-25.796407499573522,-4.766929270395151,-12.534163091282831,-18.83796920229879,-12.307817128903352,-60.771423586123106,-8.841835693956098,-13.71495847179641,-3.427866197080305,-29.214225411478182,-22.092105783138695,-33.96910490314056,-96.90799175102983,-17.005893818011423,-15.148755095968257,-82.21209729979776,-27.2539274021237,-10.744242967466315,-0.8464097739670969,-3.1390876168426938,-1.8417513128754386,-4.423750203237307,-13.368772156540967,-20.130190234553236,-20.371535959202454,-87.35133353055731,-40.43235473001313,-20.931713047302388,-7.698155692058759,-21.53579310602337,-5.850900249008428,-6.924147624738941,-6.588378037194896,-9.472777200265243,-17.137069270998634,-17.6663741517867,-83.78869857469604,-29.19807933675323,-7.185648542467895,-10.821521962188001,-16.762074163976518,-13.523572539731614,-17.727319151197644,-16.30698668721845,-3.511410935516958,-44.52888807585857,-4.936431278966311,-4.2675487942527255,-37.91625131072233,-8.286592685217045,-5.746122305903175,-5.858793436889101,-53.70127863676767,-6.075310699485595,-7.7404648412424075,-6.049363254575763,-0.5783057687702421,-9.565377778210333,-4.6107268932352605],"InputSize":12,"OutputSize":64},{"ActivationType":2,"LastInputs":[-13.711681709805118,-4.704829493542557,-66.31392087891886,-37.55043451233698,-22.93219584310792,-25.796407499573522,-4.766929270395151,-12.534163091282831,-18.83796920229879,-12.307817128903352,-60.771423586123106,-8.841835693956098,-13.71495847179641,-3.427866197080305,-29.214225411478182,-22.092105783138695,-33.96910490314056,-96.90799175102983,-17.005893818011423,-15.148755095968257,-82.21209729979776,-27.2539274021237,-10.744242967466315,-0.8464097739670969,-3.1390876168426938,-1.8417513128754386,-4.423750203237307,-13.368772156540967,-20.130190234553236,-20.371535959202454,-87.35133353055731,-40.43235473001313,-20.931713047302388,-7.698155692058759,-21.53579310602337,-5.850900249008428,-6.924147624738941,-6.588378037194896,-9.472777200265243,-17.137069270998634,-17.6663741517867,-83.78869857469604,-29.19807933675323,-7.185648542467895,-10.821521962188001,-16.762074163976518,-13.523572539731614,-17.727319151197644,-16.30698668721845,-3.511410935516958,-44.52888807585857,-4.936431278966311,-4.2675487942527255,-37.91625131072233,-8.286592685217045,-5.746122305903175,-5.858793436889101,-53.70127863676767,-6.075310699485595,-7.7404648412424075,-6.049363254575763,-0.5783057687702421,-9.565377778210333,-4.6107268932352605],"LastOutputs":[0.0,0.0,0.0,0.0,0.0,0.0,0.0,0.0,0.0,0.0,0.0,0.0,0.0,0.0,0.0,0.0,0.0,0.0,0.0,0.0,0.0,0.0,0.0,0.0,0.0,0.0,0.0,0.0,0.0,0.0,0.0,0.0,0.0,0.0,0.0,0.0,0.0,0.0,0.0,0.0,0.0,0.0,0.0,0.0,0.0,0.0,0.0,0.0,0.0,0.0,0.0,0.0,0.0,0.0,0.0,0.0,0.0,0.0,0.0,0.0,0.0,0.0,0.0,0.0],"InputSize":64,"OutputSize":64},{"Weights":[[-0.17783024809331932,-0.20774950228660619,0.15232512636170048,-0.144604951255033,0.06241091081069778,-0.11189524742855178,-0.1075736807006669,0.11412303363814699,0.1698830655025446,0.09283884635015295,-0.009019405627704036,0.10248790449362118,-0.15149674561354495,-0.03510988700998434,0.1848164983195513,0.10104414721928023,-0.14672183289021268,-0.014950658319805576,-0.06962054779951228,0.048392104677090944,-0.27004850470514863,0.18182851263739042,0.1825144565179291,0.2144204060120297,0.02612005897597041,0.15677860494442317,0.1417056628785173,0.07282236071760406,-0.1488307174875161,0.15434191010168385,0.1483142934765073,-0.0932113822963621,0.024935098765576428,0.19878712778855745,0.024163197028958524,0.12491281636859244,0.11103852483991469,-0.1293623566570778,0.05103193288981346,0.13023636034344735,0.20382393333963314,-0.05588987260516308,0.2567002823741874,-0.12342927438887734,-0.14290868226802148,-0.11680723606613869,0.20800167293387356,0.07991101853790843,0.16386454645152576,-0.13618451113073315,0.042603880015250235,-0.1101785505579854,0.00913053064525409,-0.16102652824371022,0.11287815976429764,0.14741288232055963,0.10349082753195067,-0.08765633060127395,0.007430255872181745,0.012281957106531934,-0.20347063622806502,0.09508898843181236,0.021914185496121445,-0.2128721568189143],[-0.19310323070218652,-0.04313537507131591,-0.03805990568757958,-0.0759215822355839,0.06547958638267476,-0.12722611936288128,0.028148794954976863,0.21130931469116282,0.04630818154955654,-0.02127470422895887,-0.1430326320956769,-0.13804392474041147,0.08286059060515767,0.1613867502731755,0.206939324397111,0.2125267000239964,0.1818254656487146,0.41835896028953623,0.21009332262931646,0.05110097991693013,-0.06601041072952651,-0.046932052590055895,-0.18778577984288952,-0.11223662141233323,-0.04588062900504311,0.16214640629177918,-0.07902529350499034,0.12896174374626307,0.12943442486301046,0.14745937829879005,0.19451031971616128,0.1382919217805751,0.13613817236919135,0.16570609845609027,-0.1677645567067604,0.17970159030122554,-0.15507784516615802,0.049397515837833035,-0.1464084733890759,-0.08749372875562346,-0.05635065390330362,0.020617501519936684,-0.1030639363356695,-0.16075992987195592,-0.21065412255255928,-0.07149111089324173,-0.10103774686707259,0.08450494731746484,-0.09363705030759867,0.04737787356179995,-0.15378361093768095,0.019438188197809785,-0.11960522965948413,-0.07563426121267411,0.06715576191524365,0.1245139186887337,0.015236030288460418,-0.15811584912292043,-0.07766058131492293,0.009293504257664053,0.1299854568571922,-0.02363062617052878,-0.19266931323221903,0.012063544659845774],[0.0009028499009884146,-0.10407869853279611,-0.150790595184235,0.08858127414498797,0.07744458903327148,-0.1249891465094379,-0.01612631299646609,-0.10109183855823231,-0.10459698168427667,0.183041151541342,-0.20529934228760602,-0.20901782504919533,-0.036084485112336626,-0.10772511894761204,0.0478984248658335,-0.17303781905409946,0.04840364449435347,-0.08288254607703888,0.05530641847841394,-0.054696612718851276,-0.18659898491530144,-0.06374611435871572,-0.19526925786234078,-0.03325097414665718,0.07876432187139795,-0.07102829574768545,0.011529297390427032,0.09737900731585253,-0.05718837106632784,-0.20598293190239064,-0.007897133594101238,0.17471521528686987,0.03848242463549505,-0.19000777026981272,-0.17925643384550852,0.1780782087940619,0.00898940081268067,0.05054417999119222,0.20484389743839085,0.04117530143107439,-0.025850873379792607,0.13371110226882563,-0.03531870854874531,-0.006103885389766248,-0.21117041944849133,-0.16171362897479696,-0.06340309411840239,0.07030441415606137,0.10056370515612391,-0.17655314478290263,-0.06288706180313229,-0.09503227555989033,0.12034242413516749,-0.19343509151868968,0.10263438393407781,0.05135920841089653,-0.1377573494812159,0.10564261038515294,-0.08694216332103598,0.043311875455364926,0.21505531094038566,0.10763314583192228,0.04013834128516592,0.1784629926690139],[0.1497269809877796,-0.023437127561085493,0.14661595809504582,-0.142951381997121,-0.054346946989351476,0.21402041842252992,-0.12081187646193516,-0.17689388833610897,0.1400186860665839,0.09129108016944991,-0.0498890618832072,0.033610282543622645,-0.027585390153570113,-0.07598912861423064,0.21584081840274838,-0.07717308520521773,-0.10039418747690573,-0.14713779485930747,0.09796460231359706,-0.09031530675984546,-0.238340458579057,-0.1496416593624939,0.20106184112736594,-0.18305879712777648,-0.16006029328695104,-0.0790447929452037,0.1446624416223471,-0.08675271853998695,0.03366402374945213,-0.18253309487880656,0.2154295211304113,-0.11082632256515139,0.10762099299297495,0.004354524516542228,-0.19874750371788377,0.1860683205668325,-0.18666974618505905,0.052850525614775976,-0.11363652986890137,-0.02986981330057166,0.038474681836587664,-0.013863790105970901,-0.041175510435675536,0.07564272586855515,-0.19939553607337668,-0.08149698019644136,0.08998405306459134,-0.20346374755821117,-0.12754590482469882,-0.1235728866950385,0.13280605183365538,-0.07477970759139872,-0.17206174055506324,0.024797910047127957,-0.15051903059046476,-0.0618152388098058,-0.006739625849563424,-0.20636433551759986,0.08392988636184387,-0.15165802903060124,0.17099390962292726,-0.03583084068832091,-0.1224388129126886,0.09963179935688261],[0.13088727747346038,-0.015149423383046921,-0.03005237681234632,-0.0598762521233369,-0.09014043620284869,-0.10170462110328084,0.12583840585358527,0.002365872536137237,-0.006582117441025431,-0.21368028424627342,-0.04400298251806803,0.19549869143048296,-0.0254236460043552,-0.18333293652647048,0.05012461660076278,-0.014193619728291189,-0.06503291518661257,-0.0034435779295098855,-0.16862172332113487,0.1830029035874484,-0.18757732553215214,-0.14709385755618484,-0.012980472581037414,0.11728645340192619,0.15707009878447922,-0.06157493710209902,0.1721010388743677,-0.018790634679060666,0.15541783297827083,0.03639076436052585,0.13794330049002404,0.17681587513534727,0.07676818301551423,0.03252444418944588,-0.03739776409916225,-0.06142133118449501,-0.0608131669166153,-0.06679269516191032,-0.014619856295418869,0.049662067014125434,-0.12674757106632079,-0.021510393812429696,-0.2608221500739947,0.20370805101583425,0.059927400194822796,-0.0402870137178788,-0.11839110539243806,-0.17191814391539392,0.056476633175048696,-0.14407624434640026,-0.14521092752309364,-0.16470136094228746,-0.020607725182300658,-0.13870580142717887,0.06720919098696652,-0.1348869993100335,0.15646893753352345,0.03470103293830686,-0.22662373279139086,-0.12360310155401372,0.034697899144791045,0.07055795233609753,-0.20110380698423466,0.01329951472842667],[0.061632223848055306,0.10294944230014057,-0.12698244311255497,0.11852491865205755,0.09596649212751412,0.05004872308898067,-0.1083802765399158,0.18756392564330324,0.08584365256115326,-0.1421787902034943,-0.10997698986679982,-0.025542134294497233,-0.009336368501991937,0.17925583517851817,-0.1364085763407818,-0.04491429311337446,-0.0914182507155843,-0.19688885703407874,-0.07348152726749377,-0.1066733348665181,-0.11354058903159694,0.18675877426092957,0.03884253712062438,0.03418590452411797,0.06662573337582639,0.13469327119064134,-0.17663054672408396,0.07236430379257293,0.10621591756934876,0.04015124297887014,-0.09186994206431448,0.04203270562362134,0.06128130947254233,0.11914385126254946,-0.04041282000469366,-0.09219890998354346,-0.18534511683178115,0.11087639084430535,-0.10240867917736297,0.05213231591582847,-0.1912352199049021,-0.05313554790743093,-0.20267049400431503,-0.06071040320258639,0.14623771733141375,-0.1088152582495362,-0.09935359603279538,-0.16224008131005072,-0.012001431705465462,-0.16963147623793468,0.12017128746022422,-0.06131641237086585,0.13354217207664598,0.11888023044116457,0.049418334032647074,-0.022927070523335927,0.0366284519961594,-0.027898724423008097,-0.002251934126738272,0.16554703859250078,0.16586370447288404,0.12512595307157998,-0.12288209624124453,0.2124581104608663],[0.15673422287326497,-0.09698614908689815,-0.08320541159058592,0.12349238264077025,0.191567035121973,-0.05277647026897496,-0.014341841280895383,-0.16348412256479578,-0.12586334778211092,-0.08162777744490383,0.14636751261892195,0.18517591479161427,0.1574711392320551,-0.19720577030539968,-0.1271029355652254,-0.11751724052577983,-0.027567961776038524,-0.0829436069069004,-0.2092183517303533,-0.19299024656420893,-0.18591300613741737,-0.04935493001040151,-0.14990310792459752,-0.21213145470751682,0.14673512027415045,-0.16294188604420712,0.19651338618907566,-0.02666457989262021,-0.04494318893952419,-0.02286618864093745,0.05100679109417677,0.0032269815318814133,-0.08692607248557291,0.1682556004274766,-0.2221316520317435,0.12508496590534926,0.1577032872956101,-0.18023586984566353,-0.09120425002382719,0.14101485676035908,-0.04734052862853961,0.042967835423920936,-0.05508661493588911,0.05117596052107637,0.12763466169804377,0.06732917867185924,-0.03099766187044476,-0.0625353188555999,0.1735977533924335,-0.015411991296084707,-0.08323928263560688,0.21310153088940503,-0.011374211379601354,-0.1218519293906671,0.16702579435259335,-0.034079521518034644,-0.1143072396607091,0.07047842541215041,0.17351512948130268,-0.20254685532204153,-0.20423760472506527,-0.19336388600100812,-0.22614882471531972,0.08185778805189381],[-0.09432566491305606,-0.1818463395410094,-0.07417330647051407,-0.186221570261085,-0.08206418987299569,0.19481675099679613,0.01802083907388367,0.1146385075236448,0.07345827884162633,-0.21113239789727928,-0.0730368253117341,-0.02275183842384191,0.1800892872103535,0.20007395994800078,0.048580790075590054,0.17303294097619662,0.08276560106486772,-0.137969639044223,0.19988077396410306,-0.07051469254580475,-0.4096823968543438,0.2482361111402496,0.17005773767199855,0.16340232222864817,0.06857025395105334,-0.18040590011348057,-0.14819281963510397,-0.11833525909675022,0.06726173312643767,-0.03906469059180872,-0.0007478897490867497,0.3044291525910878,-0.06986385826622259,0.02299522313837646,0.02831436577906173,0.010352159234792165,0.2119160037924804,0.0701015246436544,0.07426120747563425,0.10367049634996402,-0.1466634260527824,0.20715225009934163,0.10618374412680413,0.0009691459972829291,0.11166067094745591,-0.040165168541488334,0.14006090425392576,0.028089824543138273,-0.21577551525058175,0.012523858335466632,-0.14828075853041134,-0.12016351614061938,-0.13124969535319453,-0.0662620341919313,-0.13789835933717537,0.21129726406046695,0.13915748045939805,-0.053616201867971586,-0.177743348376697,-0.030332166794594738,-0.2118189026091854,0.16139498562145843,-0.16086751266086963,-0.11523835881534604],[-0.044408403556231046,0.12919100192572353,-0.11341881382705418,-0.010695306046972573,-0.13967392115023183,-0.012115349475930372,0.02175005500470467,0.12112421824587834,0.1410880736220719,0.16953136796391013,-0.12141272727674585,-0.1695972074321328,0.1392694555301525,0.1916669479591456,0.18570556911107022,-0.20731192100381,-0.041091490643330904,0.015455396819204006,0.20346914155021417,-0.21045385866594468,-0.30526558808046833,0.04580270841296573,-0.07126290069704415,0.13537381081538405,0.024317070595244593,0.07311662971406964,0.0870319332056191,-0.09219338913636307,-0.0997209029239839,0.03647503096529968,-0.12678815639453658,0.08861242727321311,-0.027982035042697417,0.008641648621299446,0.16867929400154963,-0.022225713284864456,0.11913566025417388,-0.12901112012945676,0.07306784980301353,0.20709788626245762,0.07042255664269324,0.030630958354591772,0.09368703249474708,-0.09317546247025409,-0.08595138015751816,0.15895077728319326,-0.013787442437797153,-0.10228158179677564,0.02027402875529218,-0.2057246425645236,-0.19316123807587698,-0.16646798971547258,0.12752207064833265,0.16874056734998064,0.09957408649908157,-0.019520440538199377,0.15184842755202446,-0.21888336425433172,0.09984404963384069,0.21543824226231933,-0.1444938820293709,-0.17517986003680147,0.0078060259888941205,-0.10841346190707686],[-0.05440198728459305,-0.004522293573806456,-0.23850348132898652,-0.08592992876032757,-0.0963648693747404,0.188888294433946,0.06865017926876572,-0.21879989753926918,-0.05048984182018589,-0.14779716829792583,-0.008523526357065103,-0.054921693199899,-0.09010384621668437,0.09627894061835032,-0.046862314730399514,0.06237795641247785,0.08970661146397266,-0.17472120342761643,-0.1891998863185015,-0.09486461352145174,-0.2907715574874914,-0.2358247482894094,0.1115211610693647,-0.0851053049038564,0.14147647866397922,-0.0652438123295596,0.1990133444756527,-0.06479627746695678,0.04785185144173919,-0.1440793482462395,-0.1220923065590821,-0.017215922134039253,-0.04532180688932084,0.06157371062721738,-0.037665670119457574,-0.11380734513892508,-0.006543252794905411,-0.04179913022423738,-0.12293338272174957,0.10918458744206425,0.11226668429762487,0.17568922554244717,-0.32279546934736514,0.15138189629702262,-0.07264342433549298,-0.16344335014128752,-0.14431295988916548,0.017700318689329187,-0.2076487935648751,0.11561148730806575,-0.22304535724438723,-0.14727129796289973,0.21600678773748336,0.0053241381133517784,-0.0183613074086596,-0.06361158254684747,0.12226357096711678,-0.23713443231036063,0.15136681401743055,-0.10783108254983875,-0.028473830911030767,0.05374089762036861,0.04001922604599832,-0.15039915744129453],[-0.144993241153141,-0.04310584090849163,-0.15900069798022148,0.11096914605347277,-0.11821606253908214,0.05630665420936063,0.18163401318626368,-0.15123719754186207,0.14081948101111832,-0.0386712869700706,0.0595785086222138,0.015470474033511497,0.20483731641587846,-0.006849371736495694,-0.17397341300918814,0.1699367036031976,-0.16220824183145044,-0.22424815915489837,0.10821575367393611,-0.19111386664854815,-0.18909978558424764,0.19708855256395386,0.08513187361336379,0.16769905861884848,-0.18313553281091952,-0.11582279555268886,-0.07414513082586022,0.09059313433158434,-0.06678615489843556,0.17933465128439569,-0.24860229478916196,0.07233465077188261,0.0035115569531963967,-0.16676620630339448,0.1398101013434362,-0.037405182084549946,-0.005675061047807621,0.06123034500779968,0.21010922428033035,-0.031634524583442965,0.09177041758132354,-0.06489303949259734,-0.10267465890156914,-0.12990527087563516,0.0074661456544312735,-0.09415282780823818,-0.07519331494983673,0.07065267817467903,0.1774334807761842,-0.0038610422086623533,0.05476978380121217,-0.1829476979309175,-0.022110189007390958,-0.1693227766753247,0.0328645077004212,0.08745846471836896,-0.1260061991958865,-0.19448792491075295,0.1548977944735043,0.09115782483668226,0.051927582525175826,-0.08875672107726681,0.08304674125775767,0.07321668439724245],[-0.012235626683179821,0.03528965650479759,-0.0026667681796775436,-0.05036825556415946,0.07967818157527726,0.19908277165247956,0.015553296017684572,-0.18236288279133409,-0.11871531237219553,-0.14177078502463922,0.07003971608481613,0.1463195817661172,0.025526099948341836,0.18433109063259548,-0.05279180196753515,0.16422855560882502,-0.18552830582805638,0.10028437193322659,-0.026542396238376217,0.04223144905832383,-0.07060995276188223,0.0435769843554602,0.044980145107982365,0.07017372062639315,0.16865450444162602,0.06861518755161192,0.013722081556692224,0.05734345956926537,0.18766475410134595,0.06261481870331781,0.026735845098275354,-0.10433894369722264,-0.12316136157826554,0.1786139319791869,-0.0393850625875042,0.007057638537192735,0.20319118585524595,0.12075189756830257,-0.14584600292142377,-0.029906842401202186,-0.17257215151327954,0.03897127324528559,-0.25183503888997516,0.0670353968935363,0.01644483755248234,-0.18975441157006423,-0.02029877660060042,-0.15709055450026546,-0.21553474144691973,-0.11631099078313592,-0.052243992862807835,-0.042751145008016085,-0.06267822652337388,-0.19171091454150982,-0.09574600233186724,-0.10524834584395573,0.007817363079848611,-0.20133575093613115,0.15223323046651444,-0.03408817074844877,-0.06353315115067928,-0.15537086790425075,-0.05741662823275188,0.13029729535240028],[-0.1412895530779969,-0.14105205376104368,0.17353951561572262,0.23839785448451775,-0.18493668884803827,-0.2011151484133989,0.13803443247185251,-0.27270721280488436,-0.14950978320066075,0.006756700360627025,0.13076473372685188,-0.07009611978171594,-0.052127196765171385,0.04369938312255534,0.0311102290338273,0.023522186445289663,0.02821516978191094,-0.28607954519906387,0.14904701954923297,-0.00849576177351816,-0.25373667717743953,-0.11371395719944612,0.19760968004118779,-0.2127875699921495,0.08296443911697911,0.0010656156029387198,0.16745649966708445,-0.17547844387861328,0.10060921807867848,0.12925566582981624,0.18538679543437944,-0.1705996772938299,-0.03939882896673438,-0.034596614181311436,-0.034881933291329624,0.2011315063115194,0.12200070824615455,0.1936971397723976,0.022225592671352965,0.21521881231409315,0.1438305785850216,-0.14501898361867827,-0.09892554674061763,0.11304608578070231,0.011085418859197997,-0.19766691041731246,-0.1928487361896782,-0.21114625652525362,-0.2147059117844912,0.03416442137357747,0.09488904554277741,0.05808826416894986,-0.0596742134706825,-0.10013837013854283,0.14545575945756514,-0.14407475145049273,-0.06987976117648086,-0.03278528041861904,-0.16235821242470067,-0.18715159310437401,0.0667526211533773,0.1117703672140333,0.0740484309348189,-0.17163703135255384],[-0.06318494756613717,-0.18515774264373563,-0.15990059120028768,-0.003428215361837265,0.014647990777298489,-0.15778319339909883,-0.14262013781615193,-0.16195217015145486,0.1415196872186659,0.11664635651600797,0.008843065776465497,-0.12308772336661011,0.09779985228221971,0.07898523199941625,0.054472594587540314,0.02661236479792272,-0.04447153550594495,-0.10927839052171215,-0.02184790596520722,-0.2000881140848746,0.3111950594153885,-0.06524730276702308,0.16117215623108086,-0.2030431635324665,0.09701404937708367,-0.21464900889705515,-0.0896367203390419,0.03893605092764054,-0.1345473660126468,-0.16061900441288515,0.1611152978811622,-0.14496754569897116,0.17387068112894583,-0.20940376965996088,-0.12680847505472495,0.07243043453363583,0.14402066776637476,0.20645560174542252,0.16830669658282374,-0.16053942159693615,-0.04583044572991158,0.05968499793298672,0.04355425331414423,0.008722270790550057,-0.15164138668137542,-0.07302890665880311,0.11299129479930331,-0.19358439891696574,0.013117615684810749,-0.003080058694410189,0.1391164668075412,0.15701296457468905,0.19807444002722016,0.05563173820986102,0.1811291615984988,-0.05962910561389146,-0.1091668750297128,0.21842157169716242,-0.06608525300958994,-0.008310919329172318,-0.04425555994002307,-0.06267569912823208,-0.1814530485399207,-0.12667591229859715],[0.1395626134903926,-0.09566309722656109,-0.14734648913452705,0.015274045897844745,0.07787257951862266,-0.15790099709594277,-0.01819418733654973,0.10462960030410377,-0.053136505139703416,0.0513114251856282,-0.10517285456068072,-0.04627556876693134,0.022432843476759102,0.12811136277211774,0.20403848411208492,0.19576250013626728,0.2122407685120002,0.15228599510388802,-0.15885038399663384,0.14247170682153032,-0.1650713759824155,-0.024057893216784434,-0.13238218212120859,0.023687622678933262,-0.0018082969799577719,0.0968321211605518,-0.19263243234350133,-0.17568835524884768,0.03614592460734228,0.16316321372026255,-0.1285423100484533,0.12593442721227455,-0.05882546277103501,-0.2142809221828622,-0.017820941403617514,-0.1084602978515222,-0.031290964097937475,0.1179004479475803,-0.14159132189705717,0.1641135829057433,-0.01590838451087901,0.1381083670302258,-0.21506394755115538,0.008802357023734343,-0.10710273368298522,0.13102639201855276,-0.09124478878253726,0.059734178260705706,-0.18882284840394042,0.14599452561825016,0.15158594456325877,-0.028311859835822906,-0.11839958997046675,-0.06497624966917474,0.1002534227924054,0.04531154351029172,0.13393614461818412,0.008495320469565158,-0.18916146575124423,-0.10463264607391774,-0.04845014715067669,0.16020843933908926,0.13187246428038504,-0.05718464432221535],[-0.03438396286389809,-0.03868842558417127,-0.09416301597302111,0.03706715379167113,-0.19832561034937812,-0.08699026674103168,-0.20601881818951798,0.16258051803089185,0.10799879163010048,-0.15685677615670687,-0.14430656711695633,0.04721719837916008,0.11599018329725,-0.10338244283429188,0.029866859697498763,0.0683532058389201,-0.1327712852352263,-0.08943816456088967,0.09495780533751653,-0.05383979264466716,-0.012327771772404135,0.19459931120345242,-0.025414393786735434,-0.18869506723940888,-0.128346555521578,-0.16778963616380393,-0.1362016072402587,-0.02111188894746339,-0.03003871271507736,-0.18968206272915877,-0.11788108806680705,0.0014735123347333137,0.18746655077343657,0.10174290482011132,-0.20462393235479864,0.16994492501002068,-0.10819356845493745,0.08889449359429645,-0.09892580388106499,-0.2130829610491789,-0.006416981976418152,-0.2154754818629959,-0.12106855015187351,0.1273115833586869,-0.07053500523145284,0.10635007124847969,-0.20283312827988,-0.1737917874831993,-0.11413730495816467,0.11087119714014759,-0.005392064099512053,0.19936244568786712,0.16316591441379374,0.0337880736724242,-0.1190211396270688,0.05832229227037708,0.04181977100557739,0.11000241440130741,0.11259417760334203,-0.06966017191816033,-0.08871174460778908,-0.19965371317186856,-0.1275829547308093,0.15874034262339184],[0.18194536988421378,0.17511023711109397,0.11673231496737026,-0.21550601534086225,-0.21647470101783284,-0.032294985314259964,0.21393822076925512,-0.1392276362781783,0.16338896068430644,-0.1340028134915661,-0.043879442763025814,-0.13481203569267486,0.060778193868528584,0.09583268713709729,0.035292174240633065,-0.20223555064602122,0.21062581974655373,-0.10790390579809751,-0.20240784185933253,-0.1007850563271088,-0.15175197189869577,-0.21118541785950046,-0.16579190143182904,-0.210887833747751,-0.13868419734501578,0.09568927231843796,0.20106193583171053,-0.10681382343675785,-0.028454582609336004,-0.07213139090897355,0.045382525712440114,-0.1575427899999123,0.017610833923609324,0.12485034509915062,0.1439886713224033,0.050798385063426196,0.21344203112942356,0.09308890611665675,0.06754373075083935,-0.09162288968730514,0.05349981756754327,0.085264662807372,-0.28659916517240414,0.13972692813759144,0.005361863432665211,0.01911131747447033,-0.03934287722953593,-0.1845469115348965,-0.12014625772586245,-0.12651572103104708,-0.06414110903995865,-0.10867175774770144,0.13810853076648757,0.0836102222422958,-0.10011003088225404,-0.035400497188511425,0.05887005896255393,-0.14075153971864793,-0.0750908547510789,0.044374820968690776,0.18273978509613775,-0.14962558562480974,-0.22069533101090483,-0.1170004212339603],[0.19357539957366576,-0.028308137901394352,0.0004929218160371618,-0.24206336687376892,0.08326240558695437,0.17227871670904063,0.14536357498020785,-0.15431097344264538,0.07704318312971091,-0.15826616798927218,-0.1707817131768837,0.17882921135555932,0.12452953467753082,0.031131728606228388,-0.1071851979193753,-0.1443120607977385,-0.1810927436250159,-0.2895698082551347,-0.1892274724233848,-0.2042071288669393,-0.25379001925397987,-0.13415989644615312,0.06660104605962831,0.19140972392233677,-0.10290057564542635,0.2007632069698926,-0.03260740765871391,0.018513244868235273,0.004152938364600851,0.154251732022645,-0.26618513924374004,-0.06765618573397246,0.21037386159474028,-0.1383904080063108,0.09643689770486323,-0.182139217907903,-0.12335435415437071,-0.13962455649098757,0.0424257348342498,0.20709149947678596,-0.01606239605664266,0.11721709739350933,-0.15133238016912431,0.07888715755994116,0.00712065736637079,0.12804751922158547,-0.14186752670780667,0.18204332227653272,0.08955665386746434,-0.08712112078078794,-0.31912056966405705,-0.1460333515125214,0.07102516347863672,0.08370743934451713,-0.17049874760187914,-0.17470923500410535,0.04255394620171957,-0.4073630234383145,0.07972301801958841,0.19991800379315688,-0.1381027030919174,-0.007062356674113635,-0.16149547877530643,-0.1501418163838738],[-0.12542429370917638,0.04766136126378059,-0.007721848090686045,-0.03820129990390159,0.19663275337720046,0.1561589544707104,-0.07051518157831578,0.029594960065264853,-0.11117281921877178,0.1672608715779294,-0.17461327356179768,0.18955669270588568,0.05193936415882809,0.08578055721227329,0.21207408685840978,-0.07875898792729458,0.09922016328607942,-0.12182879051398977,0.07521546771959123,0.02362372231170776,-0.0730599578523133,-0.2156771325747095,-0.07879757471116347,-0.0886072640022516,-0.18875668654014055,0.03235962737755569,0.13291682247384196,0.01723053133375335,-0.05417663486724918,0.19092540416907258,-0.19525460093151686,0.15485072759719143,0.08011136935582351,-0.1791703690488448,-0.04010912876145297,-0.174506973908424,-0.03842723857755208,0.06649372361642852,0.014037029859300587,-0.0811232015992459,0.19809169230844795,-0.005921220673324956,-0.22141309557820546,0.1629430111069191,0.053047207845453484,-0.13544708467832314,-0.02982997405473421,-0.06953795224304055,0.039667598150711886,-0.15848209551930456,-0.5129667543203946,0.17569142747262834,0.11928732688373259,0.03298341785679382,-0.2812570866851805,0.011350595328787141,0.09392573959086364,-0.3346840713077902,-0.09152697796846497,0.041550283278907175,-0.07502169219242301,0.18174480018451117,-0.05015323275555027,0.14617215293325245],[0.0826624466842951,0.07071507393226151,0.025447612212199412,0.12842805025082066,-0.05843694267419937,0.06014566681191032,-0.15546897431034987,0.017852032642672058,-0.2082809515899258,-0.16307677518315308,0.19382689096339129,-0.04410558232577531,0.20553138325082787,0.10187432878917094,-0.1823746008118175,-0.16531200804293697,-0.13228536394097656,-0.2273657776017249,0.0870721495351601,0.15230507499729282,-0.30567635246846053,0.11410435675608598,0.17106388585986315,0.19952919499888827,-0.10194302208745432,-0.018173844542306115,-0.14678312208837788,0.20958887559661551,-0.003704642897977242,-0.1347470214148966,0.08413831385567033,-0.04127514738688787,-0.11554625821602052,-0.12147495787175265,0.20540966654439016,-0.2145142527578887,-0.03869547362682879,-0.08005341816802128,0.09217794274149593,-0.06072731460459411,-0.040690971366759456,-0.1534621233614463,0.3108927969521575,0.1461741829729277,-0.16831273804109137,0.1530431374162071,-0.10004529328649257,-0.17684159629932325,0.12703392241868186,0.16444973202282456,0.13321461239234655,0.046644628484257336,-0.05772220526874419,-0.005065172743378914,0.08283327118312453,-0.06748549906226828,-0.09562333532623943,0.04179943541845345,-0.13341293187805997,0.16402459103747444,0.1188459989401438,0.07110098651000957,-0.13217580717833252,0.04198345841572334],[-0.18526857532897287,-0.15675756964680426,-0.12908932459835784,0.09684906441655776,0.1789978967635092,0.20496967646356662,0.006140514563356429,0.21055265270384518,-0.06204969536545017,-0.05862496421950318,0.18780162652632215,-0.043068429059180784,0.11017555892368214,0.16504808018840708,0.09463987512828496,0.16018797309268554,-0.0018214558882840475,-0.2120879091878294,0.12842768447095138,-0.08190527674258467,0.16398586849965358,-0.02857832602505684,0.058245717250305425,0.13429085482707254,0.06198839713707783,-0.13197468493559694,0.17334669901086594,0.1617600493928431,0.1282134705870008,-0.017225570114952828,-0.12426592445433542,-0.023098882740568694,0.1458245481866122,-0.18744611198478237,-0.034018850447191204,-0.19170337404663948,-0.15602757052577818,-0.15012502183412985,0.0791253897680964,-0.13287285738047805,0.14810116437393947,-0.038341225003380684,0.14141024329220864,-0.03081874824320963,0.13046132996843854,-0.15957519680084004,-0.06439461763916175,0.005458210733053383,0.19254021925259704,-0.16897155126419122,-0.20685594282606223,0.07681827408358127,-0.17401488707930132,0.04600547727780058,-0.040035642136676056,-0.18782602576795238,-0.023942838099007536,-0.060734481485916536,-0.13836519804535694,-0.09045423104839825,-0.11105141396153577,-0.06023343555458296,-0.17342447701119434,-0.04119822095779547],[0.07936317407861787,0.010764506706080524,0.07234776268299478,0.11697422646947055,-0.17942439054370857,-0.10784599611023427,-0.09927646672636145,-0.14616339671139655,0.03560008121714572,0.1662177866888062,-0.13086481705272962,-0.18425732319989474,0.1320680258149414,0.11368243814674826,-0.007678568219613701,-0.14320440430065864,0.008302277631437724,0.015370888301485378,-0.17910857314854442,-0.08775814265746222,-0.24395962961142298,-0.13137168358959328,0.014783663450264845,-0.19880058886444554,-0.11951215318715995,0.06233551625808449,-0.07238757121063898,-0.10997330881203939,-0.0059109621469208415,0.18734589591150455,-0.08381144286918225,0.1064258298319225,-0.13463902338958406,-0.2074400617493714,-0.16963345326968116,0.16071533272420116,0.14796821406876096,-0.14351660167027908,-0.21340098643222735,0.16482135426237096,-0.15513334449071653,-0.09909089787537469,0.0874967801907305,-0.11874930523840749,-0.2162058783153381,0.20737740928896478,-0.20216983580796782,-0.21587105229038,0.1629330009184422,-0.15652822485526705,-0.1226332320275133,0.10766457319407714,0.18423541271643382,0.09471706879153409,-0.18168910469602415,0.15740664679395786,0.019331411281735156,0.19889228541970153,0.18593503565496408,-0.12910060694127026,-0.0074869194571291035,-0.2108012466437084,-0.020247484439790183,-0.04815795904708626],[-0.0089257140098089,-0.15137364827907893,-0.16339622477263416,0.060060847078066,0.16172684748368096,-0.10642580338750286,0.17292996973202104,-0.0640641059308517,-0.04849714314035673,0.08419576391498144,-0.08358663944010314,0.19528348690210212,0.08741272923057225,-0.12047315359549374,-0.13939719377556614,-0.05211181235969887,-0.07385818555757158,0.053472512760567525,0.013838376564044946,0.0877115635702519,0.6500087587632495,-0.1741795104977109,0.0010897330135563273,-0.17505563028810897,-0.1824817209412703,0.09835306088136284,0.08699213227660134,-0.09667829873237457,0.15619624724012512,-0.21395128571964267,0.16166212551829037,-0.03804952700482011,0.06178316844300294,0.08182880362090594,-0.14381094088084054,0.09161580682119574,-0.02446258900570272,-0.05615769365098048,0.11161943542181108,0.08773818358776836,0.0015862330904528436,-0.05203606640909561,0.10983626869221963,-0.19926893940734836,-0.20033691962847136,-0.2108189961693462,0.033433795454787356,0.033127982765277376,0.17366019497817534,-0.12013253128398821,0.13394589875096363,0.19492152375028823,0.11144604700995563,-0.07135714970800683,0.07989025048627185,0.2071799351841711,0.11956840079532746,-0.11355289870945498,-0.1946403322401295,0.03514025870105145,-0.05061962877673297,0.15942031589785458,-0.02892135027448746,0.0018015696209579886],[0.1049367253529387,-0.020872497329803744,-0.17375334959574393,-0.09581675316270487,-0.20912367583512623,-0.1773588119993845,0.12372393184190397,-0.08215229072607959,0.009287159638035,-0.15953000244340854,-0.12174160985542166,0.008393353589071279,0.1316569752034138,-0.14245206922911893,0.12124355928854898,-0.1758106521501818,-0.04757173094141674,0.0007043393395149561,-0.10793217343165956,-0.007163059032038711,0.12499909278726402,0.18551070436309075,-0.11100979471338669,-0.061534902708273685,-0.12265035195601794,-0.1200306094586644,0.05811642763425344,0.09551460797399523,-0.20751250945077873,0.043616752939397485,-0.19877791743555157,-0.20888984724829507,0.09989971750607221,-0.11834789298313743,0.11598329619132441,-0.031144610210218616,0.07731646418070831,-0.10804507231292015,0.12449804863977722,0.13841571148616214,-0.1357437348505174,0.10808329492341096,-0.06797847358770055,-0.1402222202299143,-0.041396269027883514,0.11608854152412257,-0.10667983212571186,0.1864013535337317,-0.07609634490492653,0.13051240198491065,-0.08558072885642516,-0.16360726750736893,0.2074344628216889,-0.1272295023336624,-0.08244347823491989,-0.006703188089093529,-0.006088809375901741,0.0036986983646685894,0.027016948700474143,-0.16744734471659634,0.14054998346481906,0.19437620854376622,0.12899184909891243,0.03536988990689897],[0.09335708821144109,0.000899067566143094,-0.18282785259978168,0.03142334232973102,-0.20913299190146906,-0.12274482143308689,-0.10915895270760788,-0.19534836384929488,0.20784007474134703,0.20464172462151645,-0.1290599331693104,0.17990951650934633,-0.06997047766899325,-0.08085115602077268,-0.01199330401358687,0.1160176361553871,0.1260861490306988,-0.2148173814846227,0.16334363767799523,0.03145872907054792,-0.1081308845867175,-0.15776229909221884,-0.110045001843959,0.10462606140039139,0.11919856764471559,-0.11377447240736921,-0.054749797526351805,-0.17907828373962806,0.0824741978887466,-0.1944602093983429,0.04546102622198846,-0.09472695289977526,-0.037488895330041405,-0.024193833259549033,-0.09521588791421973,0.002342568072309881,-0.19497001548160076,0.19974997651027282,-0.023586324264271413,-0.13050680459203023,0.029966615933633232,0.008131594650593668,-0.0817015806863727,-0.013532302848245595,-0.16425206725001676,-0.12576217218799066,0.18250821025112665,0.12698451020192836,0.11715758414944828,0.10963748425349827,0.10612820043727667,0.011895717084303736,-0.20734090340048575,0.026613881862688524,0.18948248505240425,0.12909552366192356,0.11894103946937738,-0.2620743189309127,0.1553168992994033,0.017165723823321564,0.10942442674881868,-0.1936194557383671,-0.1768796630558777,0.11154474576074633],[-0.10398084451792462,-0.12955697715155942,-0.17594833158568174,0.16386803982537018,-0.19456340457696794,-0.1851391081478445,0.14326778211428484,-0.06507013968959985,0.16286026486277985,-0.06107915154162156,-0.14509359310145645,0.12997150270886637,0.16601269582477188,0.1864998581923469,0.014101191430262417,-0.06021888379974746,-0.13587456793384162,-0.055302813368239626,0.17744793622979066,-0.015973589070370525,0.10758420609846839,0.16420867122326274,-0.20051012771772825,-0.010420926187950487,-0.013113686073163827,-0.031619227856435235,0.14303796392220747,-0.08169737918913325,-0.0883809115396242,-0.21041440542674628,-0.17048676143489153,-0.15370785611780904,-0.11957642961231638,-0.1834511479541278,-0.09301484782482305,-0.07596910839623099,-0.15974517108077999,-0.13554781963717047,-0.20270829756109227,0.20792532777118894,0.0834659939914436,-0.08120679048097433,-0.026625366184585428,0.09856616754400337,-0.02717922011548389,-0.05595600114567905,0.20846144704366593,0.15848104693724102,0.11184163624095614,0.17700366548814975,-0.062033061220615436,0.18474654745231103,0.12800239163637983,0.12625202175705683,-0.08800295743744033,0.1839246468231304,0.11668516449747035,-0.19520627179121525,-0.12587055461834437,0.07526023484095243,-0.16139385186957714,0.16927573794091985,-0.025000065414308676,0.10312477998466854],[-0.14953806042823878,-0.010358433058846943,0.11921488377869073,0.011432473808681972,0.016847226951089242,0.09869912395626063,0.12550301526281268,0.059377464702985557,-0.02786274567309494,-0.028984573169332783,-0.00199419426446183,-0.16146301939890143,0.11964705184274074,-0.1753116201393669,0.022358438355323123,-0.20158988785433687,-0.049255756121374075,-0.1280787065001804,-0.2077519892424515,-0.13428589914255987,-0.20749949615328234,0.024756252188468608,0.13245775930160064,0.21509380585260532,0.10386547201565545,-0.0203813896636047,-0.1997113855344147,-0.1546139345994315,-0.0527598960346021,-0.05324045736279814,0.01693026724783378,-0.06658978725345485,-0.1910350191041791,0.14958378100082395,-0.06041262875631735,-0.07453515046858114,-0.07262397462655583,0.0014769432921217616,0.12893115759209547,0.12812543154408268,0.060227798120810895,0.009892629893407919,0.08931659875655842,-0.1436099476754842,0.17743205999417208,-0.08898334166454398,0.17831625410645333,0.07097535085236095,-0.02874971800927055,-0.03497729065804793,-0.1424386759731867,0.09977879758711634,0.06874729235272575,-0.11025062410014667,-0.061054761446520764,0.003031946211090741,-0.18426035981687786,-0.13551119683818597,0.07860055355821169,-0.16880507665478736,0.036677782052768323,-0.09767936637170122,0.033231608076097076,-0.04663394165336808],[-0.0349444000604362,0.14746939161063838,0.16228251135967164,-0.10247049269535008,-0.10764261814595091,-0.09945152433925383,-0.12422645640924017,0.08974709778941828,0.18796839966592294,-0.11832981727989575,0.04919905120735584,0.09753758603422873,-0.2142457994450427,-0.035135409236900325,0.0042954850089212205,-0.0192422126446663,0.0798509414837207,-0.21382550097458003,-0.16137144727914907,0.1266975066795843,-0.07141380052912359,0.09697796203781954,-0.10890587026146292,-0.19233054510653536,0.15873637131247695,0.0512717468963158,-0.046008459422326814,-0.1132829703159747,0.18336199782082607,-0.04272300883426885,-0.0699906570871609,-0.07056998606082035,0.01265561486622219,0.2076723964613069,0.1327527870297856,0.19384311950039956,-0.0398802072300844,0.045037833990923155,-0.13032774686251852,0.03466611010778854,-0.057227178701977445,-0.048596850083552655,0.12231081189480539,0.14656636024051428,0.0040080997877254615,0.1370415318203771,0.13301419484330498,0.003046932923355847,0.17465569305859655,0.059651869049634126,-0.07566646743401792,0.07338924355886889,0.0329676776736806,0.13889378359000012,-0.14956389839003328,0.21185159999197575,0.20913051304277094,0.22875049530208438,0.06573246758374571,0.19852916730073608,0.14283405765167226,-0.07241256269872952,-0.15985542427903573,0.20017977133472883],[0.10001068055184045,0.17555520823274517,-0.11218833975811825,-0.09025530025475911,0.04550081032290371,0.20007851500947954,-0.0178723955544875,0.22252812805862363,0.17635634596136074,0.05344734283212793,0.15946627182165327,0.06298693786186337,-0.14570293273985557,-0.022318955074367274,-0.03932911080220852,0.14655238700626286,-0.03499158688702691,-0.1332982641913474,0.13801966148057862,-0.12976213552290175,0.015433258359397684,0.048916531947693215,-0.07586467257617785,-0.1355132488146637,-0.15671208144707321,-0.16643989311731094,0.09101080979277766,0.16093027784499486,-0.10384022446229192,0.1330082190880696,-0.08284320299458585,0.026566217825387397,0.15051361802398064,-0.09219092421559798,0.2057618974940065,0.018301547614437752,-0.012795423246695954,-0.18492647483200356,-0.05729068851989709,0.09237857170053303,-0.14251474081012558,-0.022386172245601542,0.19153223793503024,0.062127571730637626,0.037566054913621375,-0.1529888593561525,-0.20977511686569636,0.011282353754187348,0.10467768055086382,-0.1744483408928091,-0.10178561600098779,-0.015119470391584367,-0.17748494138854115,-0.12367778764438234,-0.13748018978130028,0.10786619670848459,0.05230962465288603,-0.1343073035090931,-0.1302954198080848,0.10820678836504126,-0.060016744911284906,-0.13383158800699466,0.015877770529860436,0.2034816480241651],[0.19836753254138062,0.08724807804971728,0.032379973319890176,-0.053041588880563095,0.09321412725648917,-0.1481670968628207,-0.0009155308346504099,0.015460462536340818,-0.1521710821474517,0.07738026075163294,0.17698957420516054,0.17993322384810942,0.1991231476378748,0.09891195787296761,0.09740660330749304,-0.03392358760352082,0.013245686861367964,-0.13228606778226282,-0.07426483320691343,0.0922505291411601,-0.10106599231418374,0.06594081931712399,-0.004611581345501037,-0.11989053571773081,0.09342506517337391,0.016529071060223062,0.1120294175591399,-0.1390599722233929,0.0032412475870483752,-0.015606431997584724,-0.04614492138835941,0.06914539962898117,-0.2066726530859854,0.20471130529085269,-0.1558805099081443,-0.16831450774210782,0.02747912928060608,-0.02997228821062845,-0.19138289696152416,0.18885327599290694,-0.059299508862034916,0.005899391755458838,-0.08969487677870232,-0.07939753637817425,0.16616629637526184,0.04284130900647128,-0.11277915268376702,0.20821917160849768,0.196645050950943,-0.21539487951063055,-0.12450898260184955,-0.20549850784082155,0.06574809992118955,0.19713092312366762,0.030578931639313942,0.01045904708075409,0.12564579403104756,-0.10978454065695561,-0.01015549018131583,-0.15843676622218214,0.14151451993482636,-0.1971848903564535,0.09860288327748695,-0.13275455548228784],[0.0987834561998469,-0.13658779882745933,-0.0345576625250565,-0.06673412949454037,0.16244307520987028,-0.11590852805845318,-0.12435644222267972,0.13502051557201375,-0.09812923156215576,-0.14942036944652917,-0.18621678988943738,-0.017970390168153216,0.14427807601246914,0.10460097064599742,-0.16488277999045123,0.17167350833574413,-0.10338345347898857,-0.0773679665427089,0.10957387165018384,0.11979566611465169,0.1738559203070592,-0.08557198167828821,0.042570603357597346,-0.1769783970117308,-0.17839657327139286,0.19828557241230818,0.20081604559629876,0.0719509623819442,-0.18661302359327522,0.03185886954296375,-0.18889098930661405,-0.14432501898649508,-0.1675019100372794,0.04730940214755682,0.16589406454234243,-0.022695153236266714,0.12366605216123332,0.17951149953221449,-0.15621684397767774,-0.16868374334602754,0.09826650635070178,0.1670034519854295,0.12911390199543177,0.017346615230763963,-0.07022982823557228,0.06219636123534782,0.2070541248731565,-0.11379595602820594,0.03147560082746338,-0.012417578795609714,-0.12898526014391717,-0.04158978087842875,0.17127865582329582,0.0806561376012798,-0.03357597160649967,0.18694421716712242,-0.18009029465804843,-0.03905338335087156,0.16017985803142587,-0.1162846472775424,-0.20853704163454123,-0.16649504056171524,0.020161258824785457,0.0006733844605930989],[-0.079519626150147,-0.04851453060349453,-0.20504283256784617,0.08156854617491585,-0.015775712261204746,0.06727862901932284,0.034208695414598055,0.08211257719921133,0.18953692996551005,0.04750380021784054,-0.04264434202796723,-0.14768072906525245,0.07070029139511413,-0.09017328704201455,-0.002815640259292327,-0.1067959205848126,-0.15027867866649874,-0.16495482148575435,-0.17692367644816506,0.018056544005332634,-0.24848650007843961,0.03451708278636867,-0.037014367552503494,-0.050133074293872065,-0.150712433087835,-0.10277963929953221,0.0004775104560567075,0.04748470854180322,0.2041253644604875,-0.043295820279815586,0.005498093032840213,0.019282910953008436,-0.21056618038173108,0.0032338759991451063,0.20650951167152226,-0.11367794808401963,-0.006097515682753945,-0.1970089326726729,0.14887287016792752,-0.055793074541357165,-0.03881019993643878,-0.19508996744612786,-0.09006547757329653,-0.2048482640684165,-0.17744568998643495,-0.1999915698404192,0.05355025671089434,-0.14147301159921444,-0.08510335861002018,0.05930222392003907,0.04826738631173713,-0.0071052063854411315,0.14594439122162287,0.020298968179559267,0.12808953247514585,0.05846577697039796,0.16961342561966464,-0.14334832718829432,-0.17348982903463708,0.16832885529547356,0.19283936184377018,0.05559420665420912,-0.054438671039515066,-0.20268114916459334],[0.001954188960889238,0.12895505130349447,-0.1501584606152738,0.1342627380805961,-0.1768349686619016,-0.20276570117638348,0.07880057583272221,-0.16932253964095328,0.10420947661487212,0.1425133354598858,0.11928351457648394,0.13561798646682152,-0.14398362252419802,-0.03126967357510944,-0.09230789353148328,-0.14947196855583395,-0.012168544104211278,0.04575115934732246,0.09633422280486147,-0.1998527733059047,-0.07068793969893747,-0.23263418491479015,0.10815221951131564,-0.06308156775010379,-0.14347922510920622,-0.05810125065636504,-0.1512090874719673,-0.0868838009755787,0.1257000236037672,-0.12027641612086007,-0.21377767145659157,0.03738777680397422,0.16078238635442613,0.16866727562180972,-0.1610388514686259,0.003093376859748286,0.018109425359507554,-0.022581291428144145,-0.16506393256397728,-0.15711408849610975,-0.17245910614897225,-0.08681581148653195,0.06666155098734627,0.04445140356439914,0.17706188454188182,-0.16800409069951158,0.15038662867608102,0.07940670622239018,0.021523880162264586,-0.07406457492381982,0.036862302625461675,-0.062020039454755836,-0.16426470101428903,-0.20795323154443365,-0.05779905393862777,0.1141711535486744,0.16927556517887998,0.1804668917788242,-0.1268346135099338,0.09078316732520388,-0.015688671787146075,-0.05562134976359297,-0.20269422841616141,0.2102043274129189],[-0.15108946983789676,-0.15344818071337132,-0.12021530697093685,-0.1787125075287431,-0.13054044675529144,0.12078176990028981,0.12631249681593348,0.17294024926778392,-0.05676123969499254,-0.1462578596138568,-0.07350747225231277,-0.11958057687122774,0.17237452511448295,0.05084394035502559,-0.13780897494009178,-0.2154014227802892,-0.12025389002531378,-0.0683764875776813,0.045324961467320124,0.07245454678917199,-0.1979299719226691,-0.17934576195078678,0.10510746249850503,0.12977102248263453,-0.1677129867449614,-0.18260751288908858,-0.04349671490702317,0.10828464669862121,0.11605599575497097,0.20358171849467616,0.08657476401672227,-0.1630354235963618,0.13626744908548474,0.004347060856855877,0.018184799067780283,0.18270463023278266,-0.18716794412932433,-0.12831707655457958,-0.10219104964995473,0.08698691494977158,-0.08137579459995066,-0.030330424164252273,0.05128822538890808,0.006828908481013994,0.013758544315569728,-0.0744786504890837,0.16542308017297977,-0.1986206466452187,0.05472316506727263,-0.06732985237862492,-0.0809044077823001,0.010290689631266694,-0.11999783776170653,0.0854851136265985,-0.1931526130347789,0.18122705045027754,0.08028746973413456,-0.20232164801208447,-0.05822836770172284,-0.16864522412290245,-0.14871884436823576,-0.12560605847229597,0.17831361071957524,0.14463644597013545],[-0.022463513497617278,-0.06773507304958429,0.051074478522270095,0.02649088319493826,0.08759981483563951,-0.012347798755371083,0.059963066949043964,-0.08188918412542576,0.17483229850410506,0.16190426483924994,0.10298569453449197,-0.08417351212709986,-0.18429428023209973,0.14730468439275657,-0.07708066642740172,0.155089866635868,-0.02681241793378319,-0.1128375826543411,-0.033834311099476246,-0.11297055340920166,-0.18643861229949474,0.007709464781667535,-0.06890428640013443,0.057381026299814196,0.023423208136176477,0.2130220437644283,0.056761441551146624,0.20742987158058118,0.02285706258801285,0.05635702233419034,-0.12909439190383248,-0.04858417686985015,0.051861371078191616,0.20051213614808294,0.12155402482505775,0.1281063428516215,-0.054035630517015265,-0.132133140534949,0.19866678396836848,-0.001269182013106564,0.10172018263931466,-0.0448244788347657,-0.19875621541163885,0.052131771688938275,0.13508296965921104,0.20048939371286056,-0.10175242311868474,0.08890064210403217,-0.07802143514006225,-0.17137055450753869,0.029301084768752168,0.21401609350760917,0.0020187676990753287,0.026307289475050052,0.17810083431876658,-0.17074083230822287,-0.21157502295076705,0.16534149430585954,0.10964450645826056,-0.0422642585157316,0.19107106839043533,-0.13671751520611464,-0.10658191934030287,0.06475500151917533],[-0.06059189503938605,-0.08049431499168586,-0.13300030452150122,0.17909507431542074,-0.10090977108171138,-0.20093997469246422,0.01411791852529602,0.08457529862679222,-0.15424060416210053,0.10329896550553923,-0.11763514748636497,-0.03160418749039474,0.0674710561625688,-0.04279903917230732,0.07114804318953957,0.0956800696229063,-0.030038732770206484,-0.2095802158362493,-0.11036851206752103,-0.1437360599395026,-0.07749913643048037,-0.15993849435644658,-0.014322651815483143,0.0792179140172768,-0.0689144572633713,-0.05274419915355655,0.023313591665926097,0.18610126406624253,-0.20188376992359802,-0.05480995328989219,-0.1836308617674213,-0.022001385623715786,-0.045264093561994366,-0.08658860318996424,0.19653772660605862,0.05145973560374475,-0.2029728979633831,0.15791345026977688,0.11011876413185229,-0.11347343692462653,-0.07927643087304727,0.018841850240998277,-0.05671721598753041,-0.11579190838871194,0.05681429947209403,0.1439925047663883,0.020345058296229207,0.11864771354339843,0.008853816966146465,-0.06692253929815989,-0.08720174332108506,0.17524459957220648,-0.2052172825629506,-0.15888411901070068,0.11017031192023502,-0.0639244297047692,0.05453145680646392,0.03765698090445666,0.13204510713155035,-0.18006934759419402,0.13215095840245242,-0.1326607397970016,0.01724554071962213,-0.10230169142490637],[-0.14949113082066223,0.03394696214486401,0.10907209884871726,-0.08571509750149724,0.19529925561170697,-0.040241331953626086,0.05583875127901628,-0.21286155441679722,0.09633086418595828,-0.05748814354596614,-0.0857606335257768,0.023295020583027223,-0.15031809361438253,0.1732890948084516,-0.11883724169839123,-0.05585071119412188,-0.18642067194453643,0.01963850608982949,0.00578473090038717,-0.1589851167852261,-0.09954833295940359,-0.13614284999836165,0.04951484738520237,0.047157048248468246,-0.03264088113193153,-0.2126846520447909,0.17125415277029288,-0.07058277656982652,0.16674490859825158,0.10769731888306404,-0.1389152281449972,-0.08948549986870434,0.2061796637842889,-0.18426488332882057,0.04771488687974782,0.17517742160320476,0.09561742104181951,-0.11351428464161507,-0.11738934292536421,0.10360879364531832,-0.2029924263235467,0.05883080444235404,0.10171744312160037,-0.0517241773086122,0.17443594559824932,-0.006061209377573294,-0.13751317685786438,0.05617206985008827,-0.026395949063868825,-0.07409119615884524,-0.19533332081791221,0.13437844117434927,-0.16675954452624042,-0.1941694967838752,-0.08383579109736629,-0.2131664588862452,-0.08539395514498449,0.03442261732805017,0.06280912363014134,0.07279050603995846,0.08761103660603291,-0.16800793299782787,-0.007806617131291962,-0.0031449555348840265],[0.20525870954078784,-0.10291072307518363,-0.13868087982532584,-0.0871245888668357,0.06648866477659146,0.09478090108890301,-0.018628763344244424,0.03258348440732245,0.15899391467601903,-0.07414312516839913,0.00800174025949632,-0.19879164164717186,0.18867407246404233,0.041052034863119695,-0.21071606068365614,0.06667242982461735,-0.03682247417193708,0.11565459872485709,0.07610948537461838,-0.09972409733764064,-0.2701992303095178,0.02841708693797715,0.0069282727238310325,-0.16966747677867652,0.09402891882317856,0.06043159565604228,-0.08590028781506714,-0.016768719082843875,-0.015994165716170274,0.21367295948663417,0.056178494368401104,0.2796499191014062,0.08691444797096659,0.07173190628508348,-0.1538488297503767,-0.06677556315651746,0.06835005886449921,0.11406111834217172,-0.0582674648704204,0.13808761914851778,0.09637915293948258,-0.11858528915740887,0.0443373138090055,-0.1387846716842823,0.20234570316567702,-0.19107276652755506,-0.19020039491079285,0.09093917144863461,-0.08777034738710128,0.09095923061865455,-0.17997999328985392,-0.004267482344628553,0.12425877586872518,0.16844182392744717,-0.08430331323032882,0.18450026982031179,-0.09687428961667069,0.16376969790675336,0.0351590440332362,0.012518664074260416,-0.13226670414031755,-0.02136457763817252,-0.049568682018477174,-0.12290040198819967],[0.0880242929781555,0.025856805564163376,-0.12244060555975053,0.08198981758167197,-0.04328047134513405,-0.1894228556675271,-0.03295671507465519,-0.09356156714951394,0.049691281392111895,0.06028105218634137,0.09886765790356694,0.18367529763108667,0.18823545752408138,-0.17508921956811246,-0.01106797128771344,0.156531520484618,-6.209807531307296E-05,0.20671627332091236,-0.038375822860999366,0.19053031885790792,0.4258780505455555,-0.0468228693765438,0.07869460668699693,0.009445062815035273,-0.20652433251154656,0.006283680397292574,-0.03059323216329253,0.048981629820304205,-0.09983392019236363,-0.11090565565540551,-0.32264188932125715,-0.1643484216406722,-0.1525485601090434,0.20095002669323211,0.18871190548784703,-0.06158528789255851,0.17869546682020024,-0.036277114187793384,0.2095042349334735,0.1645881235597429,0.16245684933633622,-0.06916671871425711,0.04520728300339452,0.050807043102858405,-0.09871281427725842,-0.1668872681328556,-0.15032409743393746,-0.08681082470511799,-0.010986187349918703,0.2095840872812728,0.08466472269134792,-0.19295380843046567,-0.0468984639183744,-0.18736770443146694,0.13517090012181718,-0.02284138535268966,0.08265662925000587,-0.04961819635975176,-0.16259806565720758,-0.006199672925510634,-0.055508710568982045,0.05630217310678048,0.1262994987646012,-0.08012562630265535],[-0.04756556221021645,-0.02320956168156432,0.024038898107870747,0.007668973183193869,-0.042243277634040365,-0.055049713150302174,-0.021692137411591116,0.019268641316219956,0.17201741622396693,0.005941432263453435,-0.1743043511285017,-0.1723046780611968,-0.013722063132756005,0.1406235140585006,0.1341015928834723,-0.004374051650614717,0.05300509038004752,-0.14280194271478297,0.004499967259710828,0.09018533194953975,-0.01565602397910809,0.06449077805745139,0.05720730234536113,-0.08274792558942701,-0.18238743541558103,0.15903946874079472,-0.21178189672505163,0.022084978607485293,0.014184224407931854,0.1892197382868879,-0.09015000455768345,-0.3034478408150541,0.13501933140191838,-0.18909838868766193,-0.042886224621742006,-0.18602272943478382,-0.06131530243069219,0.21073415136246224,-0.1284683439848865,0.14893010451416125,0.15008754502775648,-0.2077010694689024,0.012053695798752017,-0.04282734706875536,0.07978257442683127,0.1600285280436514,0.1581088128638393,-0.002158731567750239,0.03231913773852729,0.10682343647664484,-0.11737449202799534,-0.07311098448145277,-0.10059965858198158,0.10971043747816708,-0.026500549176654425,-0.08756410963901948,0.002991745088645925,-0.2009173116524032,-0.17443948030684442,0.21335498861640423,-0.1451344073489816,0.10258183058804568,0.0482024486944557,0.05408498793219565],[-0.013947710035676112,-0.14788530996788,-0.07434122600212258,-0.008300473944771037,-0.13503641395141447,-0.011388791544974557,-0.002764343485930575,0.1771973232824737,0.05372726480267838,-0.16535206549185258,-0.09986934159726057,-0.008612551264879975,0.125740124614355,-0.13536430314659526,0.05636846772448682,0.19143263596133667,-0.024707866044987307,-0.11387052673744015,-0.1780108836164378,0.16522368833285447,-0.19054061208857004,-0.07238449172475575,0.19402072999828077,-0.15578421711083654,0.0441047428749713,-0.21050335680303386,0.022662861030016333,-0.1634006748577744,0.08049206468163847,-0.1181622701386576,-0.15123221280835336,0.10759761189901555,-0.1797484443904957,-0.11358424816800097,0.05807172286427831,0.1273004583761252,0.05103543386210401,0.07014489955591235,0.09804434860277646,-0.2079214429337294,0.1450014644279147,-0.18920295185452002,-0.18371751319699664,-0.08027357392744222,-0.18448493548711487,0.02198561075245352,0.07694193150952858,0.1265202172100234,0.17448845288354045,0.13331327515386215,0.15918402203774765,0.19050089200338982,0.03318220340151884,-0.012391454080576564,-0.20081055789323743,-0.04611700148138336,0.12103871243727785,0.1522856731882357,0.09195903043316846,0.187147529649446,0.1954264870362847,-0.2110778466326389,0.01702364643628847,-0.009256410046435567],[0.0565942364049001,-0.08891947968223538,0.11034403099093192,-0.10618436982606289,-0.10263638612529317,0.14403153092905735,-0.048917026359659596,0.06449692106609473,0.13036252638934528,-0.10546754780328496,-0.022069629573043138,0.10789303665101652,0.1950072024107151,0.12862601699499185,0.11360139280007613,0.06558914667904628,-0.15392170268224842,-0.08318651710385166,-0.2049419268068666,-0.06670613952826862,-0.04787517774255477,0.07209349893518037,0.024078831045796403,0.10380248766623373,-0.01308966292787758,-0.0008488573624871123,-0.00023802260768433,0.0977508346407964,0.1884785078718096,0.043805761757392814,0.08268444168035657,0.10774005682894161,-0.081297402558229,0.07730893573110667,-0.07559087138102627,0.14004798021001977,-0.018541586559121078,-0.02281247581974294,-0.20423346317151406,0.009917106746481451,-0.192395595297585,-0.0030929441180434555,-0.06525167980150005,-0.18380101050101597,0.18533520197949688,0.059484556659070445,-0.1534941557794461,0.1336712907087565,-0.21476655642533252,0.0354738876722229,-0.2134803009871038,-0.1954258268112475,-0.034827050711443916,-0.12184685133894704,0.17547832920017645,0.15096800877486918,-0.12158455861793521,-0.008759849656052261,-0.1731592338897025,0.1616129435238495,-0.13463556812361704,-0.013672643771003981,-0.1497614680729976,0.008342513920952772],[0.12542639749100715,0.00206443051033359,-0.07840428575564191,-0.1621245550730067,-0.120816031232727,0.020917465612719222,0.1806575743650419,-0.19711728718140414,-0.10671241409662162,0.058222732640821395,-0.4062189316699116,-0.11863781191350666,0.1365481822955746,-0.10523599466106927,-0.1998492645811421,0.15506174109602502,0.04292479867079542,-0.23252081500646132,-0.08439655520784076,0.05041424678246217,-0.11879703534838316,-0.11243623578452691,0.05944856364384527,0.14147994018228155,-0.21638522586265901,-0.043959637780721816,0.05489974283068024,0.1311734339095867,0.07757495722536059,-0.19221467313067625,-0.10957646053711351,0.2030508589387941,-0.1700166041800909,0.12625430252229314,-0.1262383047820307,0.1464808979355678,0.05289581185980212,-0.02850642512145526,0.026960490039192365,0.05856848240166164,0.10604565303426332,-0.18292243089458618,-0.4447962305970753,0.09026110269530976,-0.07710216157755917,-0.05054478712958597,0.1930680662880248,-0.17551767934798157,-0.003403589834200718,0.15320455549193432,-0.3452112071525629,0.021664361652720256,-0.16544163715505392,-0.010973805349926646,-0.2277536812793356,0.14848370657476165,0.04757573242919783,-0.16705396419532842,0.17496388863761256,-0.2039892765887638,-0.03128051211241522,0.05188835015083428,-0.04915289677562754,0.20938549054761083],[-0.1696560114613403,-0.10998972006386294,-0.19554950755158731,0.12492701683454,0.15476599511668088,-0.05369232363987646,0.07281325102581525,-0.033603033707228155,0.03492079452003444,-0.11233503536083458,-0.051179686496045894,0.11087755393160202,-0.12288618487367034,0.1727210588685801,-0.04102062795586887,-0.1393981145780918,-0.04507738417835879,-0.27922133834840696,0.08553869579180355,-0.06921038332096155,-0.39515693887385395,-0.05481528352428801,0.18458988226050707,0.030212204520831256,0.0630073956076568,-0.05559265279668796,0.1603129935248676,0.1549902014985742,-0.02933825076545119,-0.105150353377745,0.14702942750970366,-0.1797257746290037,0.039436091162253675,-0.12741843652362644,0.21128777478971178,-0.06365559333396294,-0.17512383227125192,-0.036287628155602616,0.08491852719329418,-0.07066837424429404,0.09259428118914527,-0.15294346364610975,-0.1240077913261655,0.1026064080513953,0.20214992880857036,0.10270943330926105,0.06121825559718385,0.16920541154428245,0.06619473347732664,-0.10308955379487329,-0.14566289011243905,0.07371882754130128,0.20143979928595382,-0.07343223173894456,0.16055120139995024,0.1081175665946454,0.007687868912940227,-0.0005238659501076288,-0.03713046912793792,-0.13119429299803775,-0.15219709676310583,-0.103657607737958,0.0008919791778269414,-0.20763242798796291],[-0.11782628100167027,-0.0006187601907996454,-0.15328970179151857,0.13262787649952065,0.08271171237771316,-0.21272379298521524,0.20476532334999833,0.1324639892425973,0.14256140682516083,0.16002345032264834,-0.08039209397109741,0.19492671539262044,-0.08468600549281234,0.04890596668221744,-0.004506064659635309,0.02169129035757057,0.06169318022957937,-0.13165296523726833,-0.19339362774475408,0.08200476438776738,0.040033604568532985,-0.12606677719648574,-0.052468915388935396,0.05664702914475982,0.03448649642412466,0.09711564949300089,0.13435338090187976,-0.0009011559746134526,0.06061724068149907,0.15392529397227123,-0.025876675485911004,-0.0013774709730875689,0.09186559699966994,-0.19425484233234191,0.01970731777296152,-0.050867886527105756,0.026602897487182735,-0.021706860967507704,0.11962682771609753,-0.1883869545299749,0.1319905078496281,-0.04593928163146699,-0.06969563938845284,-0.16005077684061786,0.20641179260776782,-0.061116092444390854,0.07567761700245479,-0.003765716282479347,-0.038145982796422895,0.07453003504771917,-0.006691447774800266,0.051330211948674744,0.044992465091396615,0.09279782894478876,-0.09329951226302811,-0.09508800557933085,-0.00943984540252204,-0.1893648201749084,0.048598711154227085,0.20266768691307213,0.15555864346773013,-0.06439135371437887,0.07707671585374537,-0.1340943422004647],[0.09241851812924701,0.18568984081650902,-0.08155396748048763,0.1871372138142347,0.07198382129805929,-0.09712306745759976,0.1269833812535135,-0.1913594364859061,-0.07786181915552325,-0.19602768013443903,-0.23686408211706614,0.030185543891487938,-0.011739788612099053,0.01752928347880898,-0.15239952175695304,0.21319472887207766,-0.18453368695846592,-0.15944672770898224,0.19827140537931015,0.09384628042751154,-0.11846865990056504,-0.047403975110710914,-0.06704872265678573,0.12318046523289485,-0.040481719655728464,-0.03720627128555226,0.13015855181192656,-0.17676349087520105,-0.13850716913898647,-0.11812218122552204,0.09190481813504389,-0.026485091660039956,-0.07081102142458698,0.06249106596633781,-0.2085636743062378,0.02745176386099187,0.21032954338328663,-0.21591429903806467,-0.15204784508563934,-0.15346561055562066,0.12349772052966328,-0.011427086838462238,0.04152909367612112,-0.07133628733861119,-0.0527404208188122,-0.1309830064707855,-0.1934860606681108,-0.1733220235036046,-0.18299089927088588,-0.07824352729256023,0.038892973253378954,-0.04998225137476883,-0.17434767183476446,0.07704512632307009,-0.11085306702353587,0.20210390512867815,0.21455853880228795,0.08060213615854611,0.09707810381546249,-0.1088327084176498,0.03742795367741495,0.14586716783552617,0.15473166671594052,0.1656196889149175],[-0.015595508697382202,-0.08942474404810563,-0.18031516719793814,-0.16179170531165876,-0.21236532480251613,-0.021249442712733362,0.1038948974183246,0.09009679803131586,0.08611941069428854,-0.09336927290955242,0.06699140938186077,0.18605581859368875,0.12333831344112678,0.0799111455303188,-0.20013913409500583,-0.01688031655527045,0.07546211142750325,-0.06728591103178627,-0.03938079687492289,-0.09355194111331791,-0.2726904873322966,-0.2159533801858844,-0.019910712100787625,0.06983294995547856,-0.01177797337105252,-0.1514482228746265,-0.12336985627593579,-0.15270628888146628,-0.09827026869687062,-0.13646466751436137,-0.13844933813582622,-0.1077311972391381,0.1587422026854441,-0.1971255927721559,-0.19650682813476142,-0.044756574923159605,-0.05671596666745398,-0.02672158735918481,0.09088972705675248,-0.15734359607480813,0.11509256479761426,0.17695056540321205,0.03634490897674421,0.20010123578281977,-0.1275738965734991,0.1433878090055464,-0.18437042257376726,0.16117119738176852,0.13932543716993467,-0.1672396505209146,-0.14137613434513693,-0.03894725631462813,-0.15628098003014887,-0.1443273795391918,0.03747170853162741,-0.10185922421809065,-0.14848561489487921,-0.048732156728507246,-0.18721123817385818,-0.15108693657052197,-0.18533106573541216,-0.14911405500090608,0.12646012384019403,0.17838387999436614],[-0.16658759043041968,0.18180436593584795,0.012483541343025385,-0.05364239044243532,0.21154871820489157,-0.019350646869699575,-0.08180754304612235,0.1345640985595362,0.06860786252016725,-0.19549155217255693,-0.22588526744701903,0.15986979816901864,-0.0402152204373261,-0.17779035834492063,-0.15832042121187354,-0.07057182920733034,-0.04914972068955072,0.04684990641414395,-0.16988376051098014,0.10581080626187997,-0.1416922372110449,-0.17563275354446167,-0.11159171869670981,-0.04962672562082865,0.1608185584947509,-0.07142417206833887,-0.09668678043670104,0.031551490570293265,0.20139419077513823,0.1461202449529702,-0.07775916705852458,0.00788205342055845,0.2127932852841951,0.15082216128710874,0.052289178095498934,0.05316972723079811,-0.1843819110582192,-0.14941509601672265,-0.0001546826920355763,-0.1626315820846532,-0.03617861481660384,-0.16793531704548112,0.04584735890711498,-0.05178423650689276,0.07403019832711019,-0.07864706270059753,0.0759555602885314,-0.1665371160441424,0.1529524326119582,0.03650433360666478,0.08756426691969675,-0.11709969953114069,-0.016966761941897838,0.09894210297819034,0.16795244553644223,-0.14830223651143037,-0.17553528720694353,0.14915967049704199,-0.10051041146582977,-0.11886807158776005,0.174041624223026,0.14934428979487205,-0.07649305760263196,-0.2091594930148069],[0.19140685232662494,0.024034324330050687,0.06127834813479291,-0.05940113376712443,-0.10110755334243955,-0.017075678690374827,0.1604936273935992,-0.16149139710065674,-0.16657660566205945,-0.07192588354551786,0.059030892303858384,0.08851957749431127,0.05819105657200205,0.2037660440659844,-0.06789558801742299,-0.16054996461346605,0.11399322364633112,-0.0713856995029915,-0.10963532270492253,-0.0300589334883992,-0.0732702331348184,-0.14592595049965176,-0.20229230537278262,-0.21285750820535349,0.18567544389290183,-0.09416404180803434,0.19591252223635772,-0.196625677458265,-0.10919148084718301,-0.15874632363954128,-0.1283826014342762,0.05261519026490633,0.16434225657138354,-0.059335540210490444,-0.014625737361444006,-0.19962961407896063,0.05228063902070829,-0.11441605176811107,0.09938821745876765,-0.11118868837554509,0.15626629935951425,-0.16202400517047388,0.11356087390342197,-0.10885303409378881,-0.03534987943766239,0.10577836087262645,0.09033124988200733,-0.06753233198168676,-0.15662221626873818,-0.07526874899331708,0.016049238698490113,-0.20084147396522348,0.02387802042234123,0.16812501520359838,-0.020579673272061217,0.018481356207427635,-0.06200569062454177,-0.06109259244601339,-0.09802916025685307,0.196182661316432,0.11704088378581834,-0.13380546646040892,0.10556801113440001,0.11206327981131899],[0.14221475272423573,-0.09684385522814977,-0.18415584009964045,0.0008774769708072006,-0.07456884563712042,-0.028511903260766042,0.12031057417336477,-0.08513574028482337,0.12663510161568295,0.10777386447838926,-0.3144901457974856,0.10997291913738354,-0.040302229556630154,-0.08423143546516564,-0.019308398435217602,-0.03410988126240599,0.09204454259592623,-0.28303348948552964,0.07405378922583723,-0.07113833068793973,-0.13155582950348932,-0.13848932821533977,-0.11284618683663163,-0.04200978519318077,-0.046616132008524706,-0.15550658614586302,0.07512935137758964,-0.06951866584883867,0.12160942445296262,-0.053981961827122574,-0.14021254888757426,-0.21558907714140468,-0.141019037663408,-0.005774480785893065,0.13103968092433219,-0.1506770002613703,-0.070674761455879,0.029774390081701126,0.16305358098244924,-0.09436521752558806,-0.1020976969872852,-0.23986748689143858,-0.3887457591181298,-0.011655169164889422,-0.09910137604529305,-0.0722463916231047,0.16785325306967241,0.16779794251740726,-0.20312403734692064,-0.04284969837190464,-0.13334472233043954,-0.14267716337567193,0.1686036292302622,-0.25687075606157767,-0.03722436683072927,-0.14833962852896596,0.021118231819631784,-0.31724562479582,0.1712556316381301,-0.12392733320674151,-0.021258593766786134,0.14028879715070477,-0.18440143917284124,-0.1132613867970003],[-0.008701524263630064,-0.1729592550827705,-0.055502191570323614,0.034655181874954394,0.018148598922130412,-0.16297412115238044,-0.21124314746839798,-0.23828824649081895,-0.21481799394660198,-0.06755796878943297,0.055817364860597476,0.19643259268793253,0.01271171719247253,-0.15740753967046855,-0.0635236805775275,0.13516157923977162,-0.1526563663140011,-0.20102568769359982,0.07644777282066934,-0.19599503055628387,0.3487617527993894,-0.011377153219576996,-0.033588374916030186,0.08598334488638695,-0.20069374172027016,0.018210254954289587,0.20064792535060427,0.07643169661425826,0.10937811513954931,-0.06370851536559442,0.09975000023954242,-0.20693772296020838,0.14696876488481606,-0.20156949506637514,0.04423605856632464,-0.18211924158194187,0.19163275892474482,-0.06701926937633809,-0.1073443119413737,0.026699443016628535,-0.21245675557348978,-0.09820267124663518,-0.02536676532443126,0.016016229676334245,0.04203344492208899,0.030254132805203268,0.12746851702324385,-0.011104753254307426,-0.12231913117477002,-0.0505250473291939,-0.09374421806446992,0.09085017905584748,-0.12472509396173785,-0.07395329186246374,0.08622433248485029,0.14220490871230812,-0.015804366591639668,-0.18584918962569313,-0.0702921844900656,-0.03140062470763342,0.06132256748748734,-0.06226240070553795,0.048527198928004486,-0.05914774267577162],[0.11678659286174346,-0.13263836302218465,-0.01201960894118473,-0.1975609799413552,-0.09585515164951283,-0.043346730071862884,0.163757035071208,-0.10821735626609738,0.027332301723399493,0.18022022618163397,-0.07109494769025673,0.0374288175213658,-0.11198997798928949,0.1355147918012986,-0.02313199075374509,-0.17740179273402448,0.16836164551551092,-0.1621543087351145,0.03462313857210529,-0.20034936749005483,-0.025899552110229845,0.12354057560963132,0.05648423544986334,-0.1253734192061174,-0.16042437282193384,-0.19171873743509046,0.06337856688017332,-0.028324544553000954,-0.1727481842456502,-0.19956422805543028,0.018924080237543783,0.03758816540776,-0.13093190967111065,-0.010903748523200741,-0.18802257319182897,0.14866047774552849,-0.12260387898654122,0.18367882459847118,0.13533069087593994,0.00015717537390312497,-0.02438238671524536,-0.06332172862797589,-0.07625624056587091,0.03166381615064566,-0.20600896588271628,0.11632875400140638,-0.178432371043479,0.1215076110805346,0.19343527504659605,0.14435653959630146,-0.18789643633041944,0.15482896885709813,0.026647160617236022,0.169951136549207,-0.02076918434681595,0.21423199667975915,-0.07498175213062104,-0.042087092184191904,0.04220028261157027,-0.15072401864963483,-0.16024648904675864,0.06494036777990114,0.006255940343471705,0.20050611111288338],[0.029019782471259654,0.17740495372872186,0.1589601545433505,-0.029784251237753363,0.12685475468398524,-0.05842700814523557,0.005053325881955724,-0.0796855588783213,-0.06901304233670413,0.18428393614863717,0.046282023739778175,0.12467391198226592,-0.21397681585828754,0.19074165063611664,0.15166271552862315,-0.11817441179783693,-0.0296252626053595,0.032589408212068696,0.10627265182143925,0.19520893395811864,-0.013093049833668116,-0.038490325497732174,-0.08072258590656985,0.18785950856980943,-0.01478795922096868,0.07449519236895569,0.1944100825241596,-0.12186063239020468,-0.023974820840067114,0.18118923831755185,-0.1737516158299248,-0.14287418180304495,0.08051465140412882,-0.11361737502117905,0.14377201180575958,-0.05829565192888033,0.10415636297580647,-0.16270641955835383,0.09422388573431319,-0.09444714843626496,0.043069359912520595,0.08969682351143998,-0.19091402966707038,-0.2076983099679832,0.07266233701755088,-0.0184942640293901,0.05817576750249431,-0.09283625836123358,-0.09810344510397294,0.04951530699788363,-0.13355768982526536,0.019931539661314744,0.09433131525905941,-0.23395484983377804,-0.027949556464615624,-0.13132033188061976,-0.18150482882197794,-0.08634115906565845,0.11526224496669564,0.10379445431632287,0.09210644839463732,-0.08866160860912178,-0.12314718703061264,0.08896268720654542],[0.03882950702018428,-0.028053413422642372,0.11923578288949724,0.030623783470203888,0.052096432041573396,-0.038453231474419175,-0.07110616474204302,-0.17617532383301943,-0.10380009727914204,-0.1302604434130235,-0.023483554331081766,0.19046551113461266,0.12960947473217874,-0.15417669995320069,-0.020407613503306353,0.17842238521987058,0.06780045376858043,-0.2620713184395813,0.00971585232178336,0.17455363933577492,-0.09561120412598696,-0.026799745114027405,-0.17901514622423503,-0.12405570676661982,-0.06853360549312633,-0.08215886739422938,0.011032684167491561,0.11296768407485722,-0.0075186435048233465,-0.1569224811848064,0.21251267859148118,0.0024287705005283933,-0.1756805538056919,0.1602398438576466,0.033493249923532795,0.10465182908189402,0.10529403423919106,0.1764237427181224,-0.2055950389317795,-0.21367226310622053,0.16032552321444402,-0.05347853755009623,-0.028414825020727875,-0.07949059986809477,0.09596559290417998,0.03304999062202334,-0.1732169608637521,0.12695495059855744,0.15995612767699285,0.008712276634518549,-0.1067046911430375,0.20668409864538137,-0.101234770289863,0.19852879714631474,-0.1336018325814456,0.17647154031236,0.08771009558310028,-0.21314370289035708,-0.14777951917621798,-0.0770697941784181,0.10157743500553236,-0.10694773723309152,0.057841792653882194,-0.029508448780243657],[-0.11036226325677444,-0.015545830803903718,-0.17280471288470628,-0.054907507572994674,0.11374688839779482,0.0495656677974811,0.2138885069650751,-0.12645075584537277,0.196001780244764,-0.13341472556255307,-0.08284356933230158,0.006927330715115653,0.05742086457095642,0.1699818777675245,0.13420675859851003,0.20983579750966777,0.050555475143558355,-0.13427610680501978,0.10869326140911759,-0.0603676486110258,-0.31644082170688365,-0.2339226864095989,0.1746684522649346,-0.08820213701928736,0.07763356435097891,0.11544030232317626,-0.07851157078690196,0.0571648657337874,-0.11859845780895609,-0.16038338139878602,-0.24563277732927724,-0.008990275299150946,0.18278198761188408,-0.08859399654305444,-0.143339618751624,0.02857086359083418,0.02623696586282811,-0.09291880661551004,0.05217444930356969,0.1414068691337358,-0.15627100889606574,0.24151008147567082,-0.3300868647028,-0.045421086344490685,-0.16793223132187302,-0.014165198042944074,0.20464457881676992,-0.06714832844557858,-0.18632652370923602,-0.05753701417374002,-0.3159369092239346,-0.09396564529314916,-0.2117980072963378,-0.0510748732862274,0.062878444509375,-0.03242403616617116,0.16834041625751187,-0.37154165169221576,0.18644536722451735,0.12045915996479208,0.055646730374988046,0.20653046374221717,0.20318512545885484,0.18265851175131048],[0.11219421837525607,-0.13235674810917378,0.06119891570096209,-0.13188381630706736,-0.1525344673975517,-0.02180496012836479,0.20864226870845673,-0.03468331098951935,0.2107655483963798,-0.10956657421750876,-0.18775676953773512,-0.143568038143627,0.11070487893166941,0.03636941236474384,-0.14248353272146308,0.0417663298338703,0.051247816555569675,-0.15822098741289153,0.056420572919372226,-0.12343408934041865,-0.16538881341412895,-0.10243332289265455,-0.1900369015773681,-0.11408910261251788,-0.1626416438736721,0.11044721929456457,-0.03508575900381728,-0.12363233896113676,0.05949036690219403,-0.1015290931146787,-0.20715517959003898,-0.019122172362085955,0.10199226480978926,-0.021425251503041618,0.07504760783886492,0.15017555520974796,0.14628341962468094,0.1956964835855511,-0.07104847095275438,0.15039481105440738,0.09047029203835376,-0.1428828113453271,0.03167420778089808,0.19970316331904556,0.1894940109745321,-0.1392869361202896,-0.161095405635834,-0.2058827870395485,0.21137692967457292,0.0863661235011563,0.10733022373304553,-0.017905842629369558,-0.06675301145488745,0.05176740776318882,-0.08366805745355374,-0.15746459587462527,-0.11197147584243097,-0.04644934247222027,-0.14101010393348956,0.07769223876787709,0.2035201126077557,0.10131783687315751,-0.2141303016787491,0.058804508567507525],[0.12218176154492429,0.1782061013052371,-0.1690226839496078,-0.2512352402439588,0.05874827917410288,-0.1280296491728845,0.18525332580346723,-0.20680370879913307,-0.020721302940963797,0.024819411358566988,-0.2964912376600358,-0.20671593946660666,-0.13794202260042038,0.1985085740349694,-0.09921783157466739,-0.17360555073006173,-0.14812591249998477,0.04983053600542123,-0.025537923828865855,0.181736204834383,-0.2451842026514211,-0.23631195806395705,0.10273871864832475,-0.18832886839970076,0.00921377144012084,0.18618234077300033,-0.005061364708132567,0.08670024759639737,-0.19518217673240074,0.1447661826224322,-0.45593191678384315,-0.1447467642220319,0.2163138413129647,0.04662709822255594,0.19744875031115092,-0.004219254261248978,-0.13239424343688133,-0.012142300265045033,0.21250621653773294,-0.13449132121971735,-0.13551767542880047,0.21668908738988185,-0.1265067319762434,-0.11292987233683614,-0.02837015700065665,-0.09354684162863057,-0.19017234814500614,-0.10244905337733724,0.18734753924688427,-0.192854863056932,-0.08415898528276505,-0.02371373456273348,0.10008633260523944,-0.09080797414599531,0.1344641007092926,-0.20704737820633867,0.11876306227592935,-0.23799063584699143,0.16535068109718495,-0.059089957963134106,-0.1978862779801961,-0.15480301278028383,0.12509211848775767,0.19464335174849542],[0.07323919695738171,0.11138283133332391,0.09102081425494168,0.051530057302244,-0.06663775770291275,-0.03824737311296372,-0.14614115386283744,-0.002920729742282524,0.1202390750413655,-0.08786674482308034,0.2880966887269554,-0.027496598578181652,0.029969950339075586,0.019762088591242233,0.04198746256632028,0.016370073048742665,-0.09245973505191346,-0.12522876984960388,0.08828898563962553,0.12378743318404142,0.011337422749629365,0.18532836910412032,0.1874979271429414,-0.020314074392112323,-0.13450980648992136,0.16912040331044131,0.03273974828862021,-0.06225754392801505,0.0814018896993584,-0.1782470140191883,0.24381830705964813,-0.02494677508342357,0.06813280996195416,-0.14968013918771716,0.14642300742886105,-0.04004539266402995,-0.15065049540337686,-0.18505312105770627,0.07049474675710456,0.01046377989800663,0.2145111071179207,0.0030444274828023282,0.17797788809911547,-0.08363033958141503,-0.052124595431899394,-0.10168698800821165,-0.20569616675243782,0.17146726462791614,0.14629679027904607,-0.17676747726627495,0.0752603244018746,-0.18631001615603068,0.025880551203894805,-0.03733966953578929,-0.11150793738891399,0.002498013944513961,0.07364730857576082,0.10834626093994744,-0.12424911936104102,-0.21428344244634806,-0.17997192914432192,-0.16849212724030824,0.1070950578895675,0.10460473664656664],[0.00020909023640629652,-0.12012728580417159,0.0725711291062368,0.01836199910981261,-0.05303194416900785,-0.181665946353494,0.12243908153407604,0.024103123807518792,-0.0018168928876424544,-0.20005562913654218,-0.07690499566940577,-0.09190264513668656,0.015404477101675357,-0.052398118943601454,-0.16956001244565713,0.014115693039882063,0.16792350818590296,-0.3492531312730329,-0.17571811933743242,-0.10414761004144375,0.013190752839148126,0.05762956014556873,0.18681171574899252,-0.17340508819445136,0.03006241586985455,-0.10125758529590127,-0.15413542926087279,-0.06259458362851462,-0.10246798723636429,-0.09053422323151761,0.14296977665201685,-0.08151340470296083,-0.08023800866230818,0.00029276509975732746,0.0745416168462562,-0.15517798772557634,-0.04866991799496924,0.10673564428516127,0.17963703646410167,-0.03662447714025778,0.12347219813290113,-0.043086787512940435,0.023623575075063366,0.10822224749003538,0.2057134797317745,-0.2000386805758693,-0.06949314976788984,0.15565155666853736,0.06974485539425584,0.02804043040150743,0.02554001525676347,0.07830124023257495,-0.09181240537152566,-0.07507383776235758,0.07376959727301911,0.15357259733361756,-0.16321485915202713,-0.19779702919601258,-0.017518568982363678,0.06750901466229604,-0.1657407787745921,0.1891223408395309,-0.1403577861240528,-0.05896116216522159],[-0.0342341665835453,-0.031426888145299134,-0.01011428825726745,-0.10941487295279646,-0.13952796964763922,-0.13425762813097694,-0.0808154287685928,-0.22487905974098055,0.04003237300291012,-0.15907588348176452,-0.18171290897301084,-0.17892277877892318,-0.02107173247689181,0.0974649544283842,0.02316538160442738,-0.06412620038105661,-0.14320024570698808,0.03168209456254937,-0.1926814008117913,-0.006997257273190156,-0.15862008468789734,-0.05392938897940295,-0.14462959883932955,0.21238786135845134,0.022447689318980113,0.05458651746213628,-0.012305013818153179,0.20523757294293662,0.055597732430072634,-0.18938402663888673,0.02465290027819982,0.17676186347540515,-0.1302019924196337,-0.04993740273023907,-0.12849965065497243,-0.10017544584544119,0.1781673641625216,-0.047297097277908755,-0.17376937495635061,-0.13833678205681854,0.06060687966053681,0.08576926193148955,-0.13887832185369575,0.051312140987781994,0.0009161218471506194,-0.11802938656833459,-0.18925231474661294,-0.16970068855956175,0.02279067191917889,-0.011876654290923216,-0.09311711910106976,0.06572163097986532,-0.11700155609449522,0.08685872219133745,0.09492361235514299,-0.08955559976247869,0.10044117553011764,-0.0012114664167463263,0.15092425239702165,-0.01217984119430489,-0.053741356909079385,0.06554027428922377,-0.13188497430090673,0.05473643470987009],[0.08424408181439783,0.07731834826597975,-0.21169345546316573,-0.006874435975902721,-0.09638639675829658,0.17125370609407173,0.042101600161763154,0.0871505873238572,0.20794981538828847,-0.09754754131526736,-0.0014843139928231348,-0.09736920809789208,-0.10702175669310776,0.13585194314164784,-0.08847419250609032,-0.06687706033114554,-0.09982426855834123,0.16248514829861713,-0.031399111702881385,-0.1265610298958548,-0.10683058742970761,-0.10607110158070857,-0.17498215936603084,0.14147609620043952,-0.14236406225978102,-0.19155995667584055,-0.12037464153285729,0.1857853993337076,0.010297193804821372,-0.056454346833010066,-0.1313249212482256,-0.13976574448139117,-0.07793687714252281,