{"Radius":0.0,"Agent":{"StateSize":12,"ActionSize":9,"BatchSize":64,"Epsilon":0.0996820918179746,"EpsilonDecay":0.995,"EpsilonMin":0.1,"Gamma":0.99,"LearningRate":0.001,"TargetUpdateFrequency":1000,"TrainingSteps":1470,"UsePrioritizedReplay":false,"UseDoubleDQN":false,"AverageLoss":57312.93603723165,"AverageQValue":4169.431454272755,"MetricsUpdateCount":190,"QNetwork":{"Layers":[{"LastInputs":[33.85742950439453,28.34856414794922,28.284461975097656,28.28647232055664,28.351030349731445,28.423065185546875,28.420001983642578,28.416290283203125,28.345327377319336,33.739590214630816,0.0034221773967146873,1.0],"InputSize":12,"OutputSize":12},{"Weights":[[-0.2712608100562253,-0.1140098766985249,0.13754552854953905,0.12631552522899755,0.12047864860601668,0.08873612849281567,-0.23320438335726087,-0.14234994737583698,-0.24942279156029817,-0.1432653207479837,0.1908220927172847,0.21970203955243167],[-0.5564314837625781,-0.6935237047578369,-0.9162621322913981,-0.9080730499537056,-0.5970544536236666,-0.7308087800773266,-0.6339438124466195,-0.5507843191511845,-0.5215705282757567,-0.6022147237663329,0.1862904312921847,-0.07222010669192733],[-0.01006721002905826,-0.06380567010170173,0.04428446239237971,-0.15994731883489652,-0.07956043735078651,0.02549612096064694,0.2234273140836475,0.10347638647877375,-0.13939887509985285,-0.06957690847863633,0.0169789653528019,0.0014413762139179266],[-0.12769197826706452,-0.17520641524379094,0.03372271912967938,-0.2831439736303133,-0.022761145979645625,-0.16522087793939788,0.0012868028488041694,-0.17066928075526716,-0.05987990419661308,0.11177427983569056,0.2526940147896548,-0.26675804368872663],[-0.2647637807051132,-0.3017766293758748,-0.022967757693845865,0.12315498041927991,-0.03571732387163516,-0.05456755370271403,0.25195063082963454,0.17028093559868182,-0.1774823436942284,0.18040847448550906,-0.163535926786909,0.09405195557031298],[-0.06838923856541393,-0.026199945874147666,0.055577167957386424,0.22380770597560742,-0.10842458443429649,0.15621195841555233,-0.26776989235699905,0.07575662038547999,-0.0829395360576757,-0.1433511697902072,0.2563333135400974,0.16747515935576185],[-1.0073704293755397,-1.2365095676505056,-1.218733353482752,-0.7936377822227219,-1.2639512216723179,-1.0427614423242,-0.9055418273162228,-0.8638382800381896,-1.0262236913930252,-0.7738324751316332,-0.08309108723082215,0.007009300212538545],[-0.04712618172068795,-0.2563089104026956,0.2706763810523759,-0.2263397927135283,0.10283102549278637,-0.2484753931652326,-0.20308367082347392,-0.09036695039002896,0.023916142688967405,-0.2291740042416831,0.13976626004414172,0.06597642801108723],[-0.4455419316860403,-0.4752939410202135,-0.6603268953369429,-0.38965343204289726,-0.6834988457208884,-0.41946484537085627,-0.6741160279657921,-0.7182173326095609,-0.41265109362456887,-0.6743337489594102,-0.10903297729899356,-0.06509340037449157],[-0.21829686127428044,0.08601773988046514,0.014786164864715465,-0.18548914207920283,-0.07724601375145149,-0.25201113552294446,0.1367542479275516,0.2788333935128534,-0.16576553582067963,-0.2686298279426411,-0.23621129320476775,0.027651616935467322],[-0.2583768987374631,0.19692814479044454,-0.250676957996307,0.1034283815239094,-0.16021481435682935,-0.04018011250514206,0.024215689639193645,-0.18996146737048378,0.10155538586826218,0.052370859916305086,0.13747223831324182,-0.14677479181684855],[-0.6542496328318098,-0.20307583647179933,-0.15846422905061217,-0.18199659097483928,-0.508297520774721,-0.18234489423234543,-0.18901550319333946,-0.4349455372403352,-0.6498270203269525,-0.5590071186731203,0.23882405340201276,-0.05434222404310919],[-0.05700714646019764,-0.21026295832393072,0.1099490564990673,-0.051238127985220074,-0.045823247488846815,-0.05521845349103126,-0.046280401117183775,0.24662023229544228,0.08837428880914296,-0.11995393493790746,-0.20269160120458862,-0.20757357211064928],[-1.3336932587332426,-1.3121633436016615,-1.4217677666020692,-1.5882671640885293,-1.5970197759659346,-1.5559119373202084,-1.3725548224043085,-1.3348750823647828,-1.4494552230811568,-1.5631232463494866,-0.2761839313567451,-0.011633304440523705],[-2.1845677569466906,-2.017397011305331,-2.1546943936516194,-2.462225150936135,-2.0022374919101464,-2.069234043951633,-2.039658574739871,-2.0927923368847674,-2.1150236471014825,-1.7300835128542418,-0.016433514566200402,0.009982000953117645],[-0.019733517097072956,0.007026339181080157,-0.22127316692175025,0.041716545968533365,0.15301994187839107,-0.21273266892604217,0.013271681569687908,0.13656922535541197,0.14554636964130405,-0.29150760789831653,-0.08171323768851002,-0.019253365715442273],[-0.2395057413935639,-0.006948117652826645,0.020728063956605383,-0.07434194235677308,0.23986765409146363,0.12149005069785665,-0.14911691347177766,-0.14536507685227373,0.10735967078761392,-0.11884949161546395,0.009900354094126889,-0.14849970831126263],[0.10872824746316567,-0.1857285902504226,-0.15732938033645893,-0.13284343074413613,0.11599472472646452,-0.16676491714607405,0.03024161977221854,-0.13373768772744984,-0.2086968674261702,0.0016663899037492992,0.27651104578848434,-0.17171109823401404],[-1.0933795775303263,-1.0394271280902385,-1.2612422873701414,-1.4293225222460273,-1.3701640111472277,-0.9906371018883204,-1.140549333150871,-0.9772638458809144,-1.2450039270687483,-1.1193921891832783,-0.20967138088338014,0.12308769593399649],[0.08084911830532873,-0.21738518004453278,0.15943187235735748,-0.015907610169839027,-0.043974799783957505,-0.23927804496182703,-0.0961701762684749,-0.15514808366585073,0.05890782335682397,0.11576230260328207,-0.025450563684607574,0.1490020230167033],[-0.2467741053637135,0.27950043798163265,0.04311675021938548,0.21097256917541246,-0.2686549897232233,0.14242231429223984,-0.05518713481067348,-0.05260844422981855,-0.21350688640472834,-0.24843241361968896,-0.2003675357624209,0.08838084066402063],[-1.1462955322577388,-1.3368397103099057,-1.1601772018663188,-1.1917504028177517,-1.2229450975515679,-1.2628302394249447,-1.2904131319829013,-1.596512570998274,-1.5386849331571735,-1.1530078871629665,-0.14701462379964708,0.11015618188149802],[-1.3284686031735935,-1.2501736976416928,-1.23880739783505,-1.5145085102745812,-1.3232755807851626,-1.0293925665999064,-1.1808512760977028,-1.3443206952044555,-1.1356267828847917,-1.1566399663013283,-0.006468852649719907,0.08833158748184652],[-0.8343079364868194,-1.3182708397438523,-0.9650835711695087,-1.1915989082301102,-1.0798152953257962,-1.0806979522150326,-1.2374598328566067,-0.9878276365330889,-1.0715437982587062,-0.7394987101827026,0.2276049816856935,-0.22954944512219788],[-1.1730681352331005,-0.9290114606473812,-0.8200600670597382,-0.813012204758466,-0.7809587043723281,-1.2912553182283795,-0.8007982130371611,-1.2447502492620905,-0.8278350002806375,-0.6169170117560128,0.06516134586066438,0.03779285028967262],[-0.26806351647825893,-0.24903595201305406,-0.1505223768723954,-0.09637727208504247,-0.07913906125952494,-0.14200142387534498,-0.18595305695609649,0.2553120278411498,0.11342969468774097,0.22409115941557634,-0.17091730843888855,-0.20996670327875494],[-0.28377317518422907,-0.6286034348611356,-0.5998956075216338,-0.2164393448395904,-0.4733346297521062,-0.18191604258992258,-0.20248635822106045,-0.5129080775699789,-0.21992472884283126,-0.21285592776396098,0.05975629758174829,0.23580055479652753],[0.08901396857214991,-0.006652233500401414,0.27260889843813196,0.14357489778687793,0.07371915024355234,-0.13646968813484459,-0.2550755601741544,-0.20979153717992555,-0.11641738812974517,-0.19881109451271736,-0.17962479171683596,0.013205029172690322],[-0.5448067000218353,-1.0596654713371616,-0.836720659802247,-0.6177802469741183,-0.600446061867623,-0.969893676514951,-0.8423472603486004,-0.6529410543808775,-0.7062046462731517,-0.410569527426508,-0.0008183978729002957,0.014451402500934032],[-1.3318527488002412,-1.1426176382723563,-1.5378324918139459,-1.14163864708454,-1.2149537402548412,-1.0733295383183046,-1.0834360159831316,-1.2652435373354565,-1.1586925171450493,-1.0591302528113338,0.1261430614900458,-0.08895032579356935],[-0.12681425724108425,-0.1890964190647127,-0.2429355189119086,0.08418834030340346,0.2338538875403873,-0.0864056028777717,-0.1817990340710517,-0.2735477443831587,-0.040228624695690336,0.26814454757928174,-0.08197632899266344,-0.03309589705306352],[0.1474249387111933,0.17527436464625462,-0.07131955147735526,0.09947942415152988,-0.03633030634039562,-0.02744505674221883,0.17180294587549877,-0.22614124471966726,-0.3040945385310047,-0.11339238899644039,0.19433327878854117,-0.13300741694219415],[-0.22726175532076295,-0.22249971135735508,-0.04015450388867355,0.11575696469915117,0.12124993772677957,0.2742894972015443,-0.1519235390731647,-0.26702584833472964,0.09003771161495809,0.027942275073135653,-0.27036506057244686,-0.0019424868174000177],[0.21561348495688493,0.020935287303170975,-0.26115829977420735,-0.02986112752924063,0.1580993814977419,-0.02718599663476752,-0.19092685122700656,-0.23829865399554662,0.2718494874711583,-0.022121205525531994,0.07658052675804654,0.030914446644715696],[0.12541410699848513,0.18965972739048426,-0.3024186320657684,0.18931468407771804,-0.26434518580213306,0.03664673597703594,-0.26849282505666117,0.15866414659304515,-0.13459977749513313,0.1508658631969795,-0.04339450867746764,0.2186783356996188],[-4.24247165710841,-4.023755613566524,-3.9829747694843536,-4.088621550622325,-4.022787090829579,-4.009956211271775,-3.9201822542200695,-3.9358505697749666,-3.924013514316962,-3.2149505238107494,-0.08679094039362603,-0.3993676709492392],[-0.9023435347464442,-1.1450432572867735,-0.9551643918266023,-0.7773101323032934,-0.7825695849098488,-0.9289230611482783,-0.7532575680892362,-1.2109626559385824,-0.7005570107879546,-0.6824142159243058,-0.08881952760193293,-0.29216963529307755],[-0.7764685534754892,-0.5633433690781307,-0.6804225359048076,-0.592262529875257,-0.7340570939555989,-0.7649697487974522,-0.7741136523875596,-0.8942316986655676,-0.6636019085132331,-0.615796519570917,-0.008546536798492616,0.11470490118699232],[-1.3663115219695985,-1.2507847957624578,-1.0260464947375092,-1.226361644369432,-1.1111771818838687,-1.3693284642121546,-1.122502566754755,-1.4072789740540401,-1.1339932213105441,-0.8525420066122931,0.14404394729951173,0.03560025531163744],[0.172858593953945,-0.07748974107401414,0.27712599349968303,0.0014046619352709416,0.04222471265349484,0.016242516741061922,-0.2619388112504396,-0.12424217921261357,-0.0024476413994827546,-0.23579330681809973,0.2808838823043268,-0.1043477672059186],[-0.22286743575399243,-0.14900108397310288,-0.11949066724301724,-0.05130503128760703,0.12165910496156214,-0.021176530560346435,-0.2499430140757553,-0.09206587364240196,-0.3641124165341098,0.13516921657185776,0.042585183529109,-0.11606502726250886],[0.07921274257405625,0.13445620104672248,-0.2566591995235815,0.13063117868955976,0.10522591930405231,0.22348842249254702,0.006475763834650011,-0.21973222954078028,-0.2582773474513917,-0.319128591862596,-0.10407876157344852,-0.15487389702758955],[-0.11901681583301814,0.08475229137225886,-0.12073077861079189,-0.15121472009568795,0.21651370517481403,-0.25436278095719633,-0.13306634016108898,-0.14992103718325345,0.27108650639900966,-0.1030692222284723,0.17789767529248787,0.19158468358666597],[-0.27535356634161307,-0.12298407303019257,-0.12479740709944519,-0.05537958697132597,-0.045956426064962114,-0.022857412652805238,-0.03720204885783822,-0.22028995851663274,-0.2535001684577753,-0.00982831308657727,-0.07997382064630074,0.16105166003813592],[-1.1230910338396223,-1.006765362438956,-1.0660825575340973,-1.048626018769703,-1.2299192048765921,-1.1342992107982157,-1.4976827329753999,-1.1033754593104628,-1.1230802615909565,-0.8730568834925279,-0.17975677437573626,-0.23703504377409496],[-0.9849996651004762,-1.1618408696962108,-0.8229729946317165,-1.0626413862811723,-0.7674373194483666,-1.2669926639020852,-0.8180450511924183,-0.852862876504781,-0.7598032887296423,-0.8953975215593424,0.17606646585294067,-0.008257773600033998],[0.029942446693295082,-0.04816156098618207,0.13625387582803178,-0.18594863996604236,-0.1925310345463459,-0.2728789937085509,0.24033299594787924,0.08860641273580806,-0.14177514846822253,-0.21291286751810068,-0.19989097213771198,-0.22067586545586365],[-2.756972554768557,-3.021623087347084,-2.7047191060314106,-2.739275896805151,-2.962045599083793,-2.752095835407726,-3.0394534442793635,-2.8075877306658548,-3.028890848495414,-3.242850442069667,0.17037305379383735,-0.11936821935156322],[-0.23452115028538578,-0.24338078704453953,0.25068236263024907,-0.1711211014582738,-0.03853440454271956,0.22522057644430618,0.01984381605716131,-0.2527722073392762,0.2529042407268949,-0.0722528474615319,-0.15254314693274507,-0.2591988393826149],[0.17877530470431488,-0.17188893027016328,-0.27645157469588644,0.2652478513600941,0.07343067807513545,0.11601794848479022,-0.1115853295165247,-0.17824744434949477,-0.002935506374093367,0.012951211274449398,0.15452794080504595,0.18035968218180795],[0.12085000333031497,0.050039247374307746,-0.01778958809188315,-0.2709766407743698,-0.04778481885204101,-0.12836706228005829,0.1912073621530863,0.1166341075064899,-0.17439594905032485,-0.1456760334241649,-0.06291372230797397,0.07293377206576197],[0.12186644084855575,-0.26616576780428175,-0.04962243791936139,0.12857662650377039,0.13702097352017228,-0.07313506681329626,-0.09434562182121516,-0.1679973519717488,-0.17644096682447274,0.03804317911394263,0.12451369739208555,-0.07022594768052494],[-0.8141950551220839,-0.7584677489202585,-1.0476269037515793,-1.0404757545716272,-0.7536381845702982,-0.6311019709685628,-0.927601558147344,-0.6462596094599588,-0.7902962408058685,-0.6302365730322893,-0.18545176060494672,-0.1781675993133067],[0.14195677053065858,-0.024631443250272736,-0.391257380339614,-0.2398031543360457,-0.03121732617368632,-0.09599898463124303,0.11537070672640058,-0.1360413246884778,0.1372460797052984,-0.3339742365609156,-0.1967141525137908,-0.15856498750244719],[-1.1071839026878645,-1.1251443643187455,-1.2013968148745278,-1.3104077103953733,-1.4553912181497148,-1.1374151485853616,-1.4014287868038315,-0.9512284981343126,-1.0083793968928143,-1.0811946591656258,-0.08008900091689722,-0.11855475411196054],[0.1018950578601761,-0.13503572072374148,0.03300119375526859,0.12912540628944286,0.2263758855405353,-0.2705331093925597,-0.23967868810715384,0.17199943109547236,0.018716372588704996,-0.14369111460523315,0.17554620552392294,0.07138530478853455],[0.1228119039042762,0.05160574337562738,-0.27595055808159963,0.04950505553401528,0.2613345473876818,-0.1674401081136627,-0.1680871229393114,-0.2508730488052007,-0.028413716724464473,0.02343441376814318,0.10201832642263606,0.07402279369084969],[-0.21028629883563557,0.20562157097754621,-0.06708169463497636,0.07002362233605701,0.2106600776840149,-0.30117087511364155,0.08247901010453076,-0.27190261638500496,0.041251404019511495,0.13465834458508008,-0.22196475468276725,0.07602747575578925],[-0.1727078498926443,0.06985843507096358,-0.2021438401185114,0.001675667089309166,-0.20492359988526795,-0.19498243734526274,0.2646644598658529,-0.1969220188223734,0.08635595197085576,0.16006070216036067,0.06910888801185418,0.16125971526690588],[-0.38841510001509927,-0.4802224874004263,-0.3385250218021615,-0.5420606155213598,-0.28740009259148885,-0.4466423015321304,-0.6704617162375012,-0.4288480466577485,-0.7847852202299572,-0.6817675641086612,-0.008336374184398126,-0.17686927055483231],[-0.4780521161830765,-0.7842368475884649,-0.38110646960374595,-0.6072151104072716,-0.36945351557847794,-0.40999617118702847,-0.6770254348829569,-0.5891302192417056,-0.46128339605761026,-0.6941904749843799,-0.06037926593074466,0.18908037316789775],[-1.2241711590207152,-1.2419372298762785,-1.4171989395355251,-1.7000736462345327,-1.3377069444286023,-1.4436400069811681,-1.601503879325557,-1.6499573442001796,-1.2499707996629918,-1.5329471569153532,0.22966525227875284,0.0654710848534822],[-1.8324515178441674,-1.3851872465287338,-1.7312484140723454,-1.393839458156037,-1.7736531907061583,-1.6666437631181263,-1.3906060034267238,-1.6128564346088299,-1.4771700639000642,-1.1485374382323632,-0.3002111753374048,0.09674647944480755],[-1.7216590883835172,-1.719964422955901,-1.9154923430151722,-1.6500880659172912,-1.9090150082966464,-1.9942504415533027,-1.6962576472956792,-1.964313143823602,-1.7122902231951216,-1.4074121821964192,0.03792310753677275,-0.15709169610661367]],"Biases":[0.006197119364514161,-0.01571308037803648,0.01,0.006300355641391261,0.009078227773800601,0.01,-0.02879372243470245,0.01,-0.013905889166289927,0.01,0.01,-0.005414760275988688,0.01,-0.04792816772961319,-0.070640029507222,0.008579203122607144,0.01,0.01,-0.033172875968946004,0.007362561247541249,0.01,-0.04065585168202826,-0.03645805226099048,-0.029716436321276213,-0.027158306897695283,0.01,-0.004620831108663258,0.01,-0.019653003402478015,-0.0357438669689588,0.01,0.007687807170479236,0.01,0.01,0.008438599730830934,-0.14231382110533813,-0.025240765496013118,-0.01618135983911375,-0.036091949747228805,0.01,0.005934961170525357,0.008054146138557188,0.01,0.01,-0.03567245062774346,-0.026524621825641984,0.01,-0.09604949891853927,0.01,0.009779542433959747,0.008169716193731682,0.01,-0.02029924359025423,0.005092391361861648,-0.03456116773447633,0.01,0.01,0.009019838152291319,0.01,-0.009616666462985882,-0.010031120285667097,-0.04342278583204508,-0.050427323439931476,-0.058911344966680386],"LastInputs":[33.85742950439453,28.34856414794922,28.284461975097656,28.28647232055664,28.351030349731445,28.423065185546875,28.420001983642578,28.416290283203125,28.345327377319336,33.739590214630816,0.0034221773967146873,1.0],"LastOutputs":[-21.364799763347268,-196.65863267726465,-3.949458570883521,-24.68578028291607,-4.090892647435771,-6.255944309397183,-297.0555560707925,-27.072449395991217,-163.65338864466773,-21.049367739644662,-13.21478592312827,-112.20232549246265,-5.146601030139131,-427.8198621022497,-613.1462186583515,-8.718529160392071,-9.042885454412726,-20.203913541243523,-342.74515225549777,-8.823564098411474,-14.21265458413299,-378.28682197780944,-367.9958060602395,-306.77336922475047,-273.48663064930497,-16.853531856352028,-102.62173461591142,-10.387695346203202,-210.58630953999125,-353.6740637041646,-15.026563287535712,-5.166763125035854,-9.033239340133816,-1.825439633537153,-1.6488434116123067,-1157.535662784035,-259.62278819091154,-207.7109682766385,-348.6508958399014,-5.900445100311686,-29.343261345370124,-12.030636236703863,-14.04374650469756,-34.521572530052545,-328.9725329013458,-276.6566948219777,-17.03749700001253,-856.8333836567612,-9.41854262384317,-1.4488267300504947,-8.690314609733754,-10.61261449005177,-236.02621643234403,-25.474261911049066,-346.09526048319856,-3.223286003533767,-9.970077414960802,-3.380615206138636,-10.943344627259645,-149.1902281341604,-160.80075293217993,-423.3156822479507,-453.2896003423461,-518.9715151656629],"InputSize":12,"OutputSize":64},{"ActivationType":2,"LastInputs":[-21.364799763347268,-196.65863267726465,-3.949458570883521,-24.68578028291607,-4.090892647435771,-6.255944309397183,-297.0555560707925,-27.072449395991217,-163.65338864466773,-21.049367739644662,-13.21478592312827,-112.20232549246265,-5.146601030139131,-427.8198621022497,-613.1462186583515,-8.718529160392071,-9.042885454412726,-20.203913541243523,-342.74515225549777,-8.823564098411474,-14.21265458413299,-378.28682197780944,-367.9958060602395,-306.77336922475047,-273.48663064930497,-16.853531856352028,-102.62173461591142,-10.387695346203202,-210.58630953999125,-353.6740637041646,-15.026563287535712,-5.166763125035854,-9.033239340133816,-1.825439633537153,-1.6488434116123067,-1157.535662784035,-259.62278819091154,-207.7109682766385,-348.6508958399014,-5.900445100311686,-29.343261345370124,-12.030636236703863,-14.04374650469756,-34.521572530052545,-328.9725329013458,-276.6566948219777,-17.03749700001253,-856.8333836567612,-9.41854262384317,-1.4488267300504947,-8.690314609733754,-10.61261449005177,-236.02621643234403,-25.474261911049066,-346.09526048319856,-3.223286003533767,-9.970077414960802,-3.380615206138636,-10.943344627259645,-149.1902281341604,-160.80075293217993,-423.3156822479507,-453.2896003423461,-518.9715151656629],"LastOutputs":[0.0,0.0,0.0,0.0,0.0,0.0,0.0,0.0,0.0,0.0,0.0,0.0,0.0,0.0,0.0,0.0,0.0,0.0,0.0,0.0,0.0,0.0,0.0,0.0,0.0,0.0,0.0,0.0,0.0,0.0,0.0,0.0,0.0,0.0,0.0,0.0,0.0,0.0,0.0,0.0,0.0,0.0,0.0,0.0,0.0,0.0,0.0,0.0,0.0,0.0,0.0,0.0,0.0,0.0,0.0,0.0,0.0,0.0,0.0,0.0,0.0,0.0,0.0,0.0],"InputSize":64,"OutputSize":64},{"Weights":[[0.11881076234239114,-0.05989934097098778,-0.12468852694445787,0.041047043028864666,0.04762204603708428,0.09610951108277391,-0.12959625307634512,0.14486404949301537,0.021703154887591038,0.06274528525440183,0.052077361852088354,-0.011015645088094439,0.11099734754647197,-0.17204755298812832,-0.03459834296369514,-0.12793872943179782,-0.16717896333996282,-0.13972858674219035,-0.43517496845897996,0.18885510895411206,-0.1935314824455113,0.18425453858318305,0.0795235376277615,0.12127415722092585,0.06663656840423827,0.05105917391678925,-0.03849807126399983,0.06377204477201312,-0.04540957714056237,0.06528065777801072,-0.16251940087664649,-0.12376069993691309,-0.17231417593078052,-0.03422620531401098,-0.1695850129850688,-0.13610628544852701,-0.20150432558002984,0.16224932059007158,-0.09811762325362337,-0.1506176822154424,0.007774273282048604,0.1908191914109291,-0.09376963035421813,0.1009824938311896,0.1515869433391285,0.07197526896385725,0.17636357881026943,-1.1592448691897854,-0.10341266593105551,0.19696545288701253,-0.17345659815242545,0.17979380993603458,-0.06225690189516167,0.2007895910647117,-0.1665087896142372,0.09830465178762124,-0.12307042249995964,0.008248167070092757,0.17937845008713607,0.02515262208155879,0.183361155289064,-2.6070929506184974,-0.19574275487548326,-0.1495904476735105],[0.0847934467460872,0.12509203467845606,-0.14867763622578078,0.06475877197546284,0.054971389109240536,-0.009649279104243602,0.045240980554249556,0.05629078346879747,0.15488585905243624,0.13649622592180188,-0.04899898712241338,-0.20290945188109244,-0.16816666320310253,0.09013834394342143,0.15188938778655867,-0.21403201228944424,-0.011566980235191796,0.13191204833667652,1.0172948843822254,0.06494467534250521,-0.03522192367756871,0.12081451700761582,-0.0923395721307961,-0.21210283505080663,-0.05950227244879391,-0.209638704948068,0.10438643824144722,0.017213333373298372,-0.031691978147119236,-0.13351404903593797,0.09491050920883355,-0.0255225398291252,0.0514500847788358,0.1646604357858435,-0.12886236414220603,-0.15577102714006874,-0.012591598386578091,0.035381198806397854,-0.03684426368597078,0.1472914382245237,-0.11400594674740493,-0.13047229477504732,-0.005172318308866731,0.12594059064501473,0.14161263123549309,0.013639989139316135,-0.07220630469669875,2.9226634892313186,-0.17862076602256072,0.10762291638766494,0.020243989083307556,0.03368648847760283,0.06518891505495017,0.2164621007917584,-0.08834129617355907,-0.06835162826613951,0.07707231398881235,0.001976066311188609,0.05152275189462888,-0.16091349827439141,0.06327639154750994,5.766084835364149,-0.19602217574484435,-0.20738013947198247],[0.16375713489031798,0.05638848944869202,-0.06298163949666223,0.193662784719497,0.12439338526351,0.2114205816869751,-0.23126997768497612,-0.1698055476557496,-0.06285429682642986,-0.2046916417725159,-0.09061770707221078,0.1324141698724341,-0.017205748580722685,0.1224540268416045,0.0034438625446497617,0.13383285269546782,0.04052372144974059,0.16795706714717382,0.027620904502030023,0.1061503807161773,0.16108781735469688,-0.12499040146348268,-0.04002169560099737,0.028821442768757685,-0.08755674507029299,0.11345336395871496,-0.10373842347263869,0.1401864234246299,0.06328869254172778,-0.21208378500292463,-0.03161227788208758,-0.028798256920210156,-0.19291025656641517,0.0826304042625077,0.1189216597438556,-0.29799575104960263,0.06503877349711597,0.03984764192242079,0.03883905128612693,0.20164616843738095,-0.13368633582572015,0.1659481225910421,-0.2056979580607182,-0.012325005532030356,-0.010559613238413479,-0.08516126962814677,-0.09203565738393232,0.06604069949759497,0.20278794080151805,0.11743472911420134,0.18194989842431622,0.18793265248184882,-0.21419231011535783,-0.008759442918532985,0.0571135319929086,-0.0837025762578528,-0.12444101279251987,-0.05788996615248392,0.035600535748963665,-0.10965517515702017,0.002522846502429275,-0.11202481759626243,-0.0710956133177913,-0.18380285330075072],[-0.005258136065482662,-0.02157405824148998,0.09626004545069763,0.03795621998971981,0.04213443047391038,-0.18121091417848148,-0.12422929491797169,0.18424637311247452,0.01225323761143659,0.1787993894924648,-0.13505371728168172,-0.0020611455174688784,0.19383241098819523,-0.15863852392395023,-0.19771509796887335,-0.18537080873493028,0.17688107881474285,-0.1398975460691636,-0.1528669135506458,-0.12111080393815322,0.07846163419837018,0.05361945470730018,-0.04097839217583552,-0.1905817703278028,-0.16363440978860527,0.1459020846397526,-0.08670132884411584,0.08127499833186135,-0.05842229004591513,0.15854153180939326,0.15664486434591918,-0.13601860955823628,0.20084648994254972,0.18174554845498478,0.21546629676864062,-0.011263392954908472,-0.06765815301085415,-0.003207653499112329,0.05247307757841806,-0.10286712833219595,0.09465272751004378,0.0920791092817774,0.10823369324496092,0.047678169564824534,0.10120478308136993,-0.007210732018843009,0.12358925576338867,-0.1735712937612135,-0.04743498552846732,0.07704841897695824,-0.1757693567103729,0.18810439437912888,-0.09298086944542605,-0.15320531449353025,-0.11798912275514213,-0.12232765288112009,0.1854883071501506,0.044527014167225834,-0.015099666511288344,0.19583917366188433,-0.09031489464127052,-0.15165015557811207,-0.12460868730973214,0.016607901252063784],[-0.15185439730213962,-0.2111404592768596,-0.21075777717723282,-0.17470732517552806,-0.13843550380803266,-0.1406462532999602,-2.810558028104651,-0.002140071836167155,-1.2108295669669733,-0.018086575192356395,-0.1556325858169849,-0.6806946508346017,0.20536181941701298,-1.4370036917452909,-2.368482136411218,-0.16306537408890565,-0.1741666591386131,-0.059962486608837656,-0.8083782244026624,0.09933663438106888,0.1539604541876694,-1.4595616922172179,-0.48853055418958236,-0.9866144429119666,-1.5493996320344618,0.053199703049406605,-1.2866085453130427,0.20044610766931836,-1.3577689249931768,-2.1566924891192394,-0.15252220761658913,0.19680434576417158,-0.12202563324059798,-0.07680541266145417,-0.09170776195999215,-2.8743912974879255,0.0010100204859989637,-0.901750416076737,-0.322279400032866,-0.07852510427256884,-0.18838058160822238,-0.1819878823624043,0.18460268606578092,-0.11853512169274401,-1.9027401149193128,-0.638565236538899,0.1562815091185479,-1.0557874768946591,-0.07350307946746651,-0.04152389135423468,-1.011223424067349,-0.10864220358926716,-0.047322476826219394,-0.36485010138409874,-1.1180955841294897,0.08112727100349812,-0.11474998474905376,0.1973807362659598,0.11740485854908896,-0.7914260469022916,0.20564658006850706,-0.7950639163813275,0.0674354415955809,-1.6781709595006273],[-0.03361669086401716,-0.14817066796167094,-0.06415087539107456,-0.0709386496072037,0.050200988865422784,0.109281416317971,0.030919676203735105,0.055732721531298136,-0.1999516688228771,0.21547532511157938,0.06344096703389306,0.16279897569609206,-0.0015987512859646279,0.004630605544557007,-0.1332086025999609,0.015796209372498312,0.15444233359096918,-0.11228750321381226,-0.8832238691916394,0.15004177531137644,-0.02258863738376025,-0.13224187682576022,0.07985418718325162,-0.2139452963482423,0.13248873689839222,0.14767491346715414,0.19045673659926354,0.19772802029047493,0.08661603100917818,-0.01920414729301012,0.07671999901435074,-0.11493215196714135,0.14072504904424357,0.0544843432827966,0.1410909255613288,0.04693197610892133,-0.027256491965290282,0.07170156531529585,-0.0018096997739178754,0.01982345288612479,-0.11813257652357258,-0.01940220652465072,0.020593630791205984,-0.13084063548884742,0.08296734792310123,-0.05386218293658982,0.21553410065560255,-1.6610724370938748,-0.1463520061981228,-0.05836040122677085,0.07413783435592813,0.15162727682521324,-0.04928301040352107,-0.1580146864179563,-0.20170091823696776,-0.08215703294502885,0.027865473329840063,-0.2136435127654135,-0.20716590538143914,0.02470088558897186,-0.1849979129523487,-3.486342653951119,-0.11397827102342854,-0.025851589639324796],[-0.1407048848170917,-0.14638360987143653,0.11375435282684464,0.05256470442923858,-0.11599112979513547,0.11124664827670225,-1.1217627743187402,-0.04098683024991248,-0.5660470181941518,-0.07462131080756364,0.17443749095182123,-0.13411522071686222,0.19508702147088477,-0.5725510672397083,-1.1312255474378514,0.2003379199067645,0.13059409493782867,0.07069328271449782,-0.31297191039346567,0.1015013839188338,-0.054617294429231834,-0.5704644455249195,-0.03604388194459815,-0.18142504407041124,-0.6641267777538227,-0.09299669256368537,-0.6851219837946968,0.16419145928456125,-0.7174459241243104,-0.7669987314522566,0.00524016920884414,0.10875582159878416,-0.02309844492909735,-0.07084752341314601,0.10393162672024511,-1.4711617429973303,-0.18283897160637805,-0.23750353582427988,0.05805092678822192,-0.14984729312354153,0.1289764862815562,-0.13973489555913302,-0.14962173402577006,-0.04886170914583815,-0.8609229894625592,-0.24070166953858274,0.14037980227796118,-0.46543635210137313,-0.04648487031489361,0.13430143754365437,-0.6037641077018913,-0.0909888748876514,0.1517863117664812,-0.11800748205235176,-0.2477461848378795,0.19711776909388848,0.13161385464742212,0.05138923166316943,-0.01210386989705631,-0.46976996309056007,-0.05974769026332993,-0.24371719356677912,-0.025307091962463148,-0.8910588905254788],[0.0909041695231883,-0.09543283178636508,0.10714620909191554,-0.1308072462950551,-0.1945161537630338,-0.10284009480314539,-0.21137715638804805,-0.17850161016365018,0.04866304680951648,-0.11327811474645492,0.020555072337368713,-0.009484264793286014,-0.2008954819895464,-0.18660178953516218,0.12724175571089555,-0.06425998748130345,-0.14992741563428846,0.19472294941791704,0.13483996545408267,-0.13765910911665993,0.13048309457627286,0.20158340350054463,-0.008244865629393186,-0.10670093546182638,-0.2057102774422106,0.13322874294850973,-0.09683744859486881,0.1087406910961529,-0.14048668557413732,0.20538255635864494,0.17975511226044064,0.21234848129432798,0.08884777501342697,0.08341614351813677,0.16693510240579248,-0.09782787260922565,0.08421492759132847,0.05921949868901701,0.1560443431869832,0.1820452132994019,0.1181298462280012,-0.0030646234432405504,-0.0754313006178238,-0.16078981794693623,-0.11804622003045612,0.04587346942440914,0.01817380339266851,-0.18364935311105576,-0.019022624413429612,0.12598087103173736,0.0714833989971287,0.10748306702382063,-0.019869269691294843,-0.0911079469205175,-0.022286507967846446,-0.18204748336598764,-0.05105868565350296,-0.06366966148329227,0.0556176787558387,0.18470664590946548,0.14981658995843963,-0.1316681122585791,0.21254908294803845,-0.19769261239041075],[0.029079280315403255,0.0007647216321749195,0.002889611732812454,-0.20775453864895937,-0.16982468315856505,0.05251230874327036,1.1253266598489824,0.06276346894254904,0.3166283081044854,-0.0017751606876058206,-0.11832688021290987,0.34571529029924997,-0.18720539390868549,0.5124669132291232,0.8345070209517371,-0.20318302302239366,-0.04820805522096093,-0.158355645012722,-4.704506516181152,0.0827434380761527,0.12782424808418597,0.5249324935337198,0.09052291285291618,0.14179388924340686,0.743860690033394,0.14599741503248218,0.39583239301493517,-0.131929896288401,0.4321266704906891,0.9543687636285813,-6.135554050099087E-05,-0.1351321933051943,-0.18712442793430983,0.17363553284989636,-0.09244977468938204,1.1056363925869874,-0.038780312926603264,0.5478649483430891,0.10815639684422038,0.10964325772784578,0.12947573152932304,0.17480173257463874,-0.10460524987413876,-0.04474747153639758,0.5324739348028067,0.2777943293861273,0.0531086904828957,-11.740149010043545,0.07721971471423944,-0.13791261681391553,0.5781915051991818,0.12524524610284177,0.0076652236651021674,0.06534384946852544,0.5445895851994225,0.037454233344600414,0.16930004009188834,-0.0899614019266051,0.11448732575560848,0.38131564746596724,0.05622903518664706,-25.808095690302185,0.14015727999772162,0.6285899830273743],[-0.12115928595556244,0.21225014295677982,0.12099484322637656,0.15597230712980242,0.09764246253862306,-0.17786325397678415,-0.09468618511885799,0.1837489877276029,-0.08257287821778238,-0.1174135897775381,0.13528187502917413,-0.05689884344556983,0.07819985834454672,0.010692398475461549,-0.08493699686098696,-0.1541897827589797,0.0685131891414962,0.004221135065698301,-0.1328883458727571,0.06209501749044807,0.16231331998843984,-0.18778050884572106,0.038852742835951234,-0.016665170295620327,0.1343001907193618,0.027802288946121995,-0.0117466853471963,0.10102834449850234,-0.047604155331587406,0.09641638606318424,0.18940250858292532,-0.06472649966743368,0.14061696381135363,0.14011910719922413,0.1443748852571417,0.09117698680267397,0.14569317383969765,-0.15318764224247472,-0.21181737758351704,-0.15767949043169704,0.07382122141238112,-0.13377748707884243,-0.1374375865377823,0.016396242596133103,-0.06210356960130833,0.14979341301467033,-0.1256668683188951,-0.1941868971307984,-0.111590455883372,0.13484402704409656,0.08695266361352022,-0.0681689729814715,-0.0932202663780717,0.033461434110615446,0.014665604429003132,0.18607454386749336,0.16052153401375466,0.09229317571299844,0.03257516413107338,-0.1440938316750542,0.21184043839790073,-0.21422071513975707,0.07211169686725341,-0.04635920550693297],[0.19690403197724268,0.0018358313617692255,0.15966606191198332,-0.19888406189743676,0.12330996020781787,-0.16908632074344535,-0.03153003834028088,0.09965005961931046,-0.0898368524972844,-0.04222681862536893,0.1795539388487981,0.14348478029167608,-0.06259274469131003,-0.09471771630380825,0.08053763175478335,-0.11148239062907125,0.18780174574524813,0.09305266860142827,1.4726254284937763,-0.14437998654028097,-0.02651572727683534,0.14763622106602434,0.11099457277304099,0.19401872845505125,-0.1591808461289171,-0.13818747817070134,-0.030978695853937026,0.1792529246632064,-0.15345833536592332,-0.08364032207002961,0.12448957018481406,-0.062378003365203355,-0.037835048788434474,0.13027082606790735,-0.1797058518885374,-0.17537816370300283,0.09704582782629399,-0.15342263914992257,-0.11219063839409113,-0.1142567877574895,-0.13280542528983463,0.08336913341659222,0.12314224938003962,-0.011370529760680101,-0.06051239156102333,0.05748582900729092,-0.07698381073627066,4.061399661455582,0.19947403965599952,0.1575113774254196,-0.10481162077783715,-0.057304788783606064,0.10002710836195906,-0.04706267780026901,0.029059425165249925,-0.0014544911823023566,0.15186463457836383,0.07351157595935728,0.15166635019877953,0.16819644780424978,-0.19071971909805022,8.25481478009938,0.09079411786530013,-0.125390728160429],[0.09407497474582076,0.10685097367065544,0.16600601014957322,0.149580951720995,0.010125255658382539,0.07170091338409854,0.09988832219714489,0.2118784692844158,0.08426969136838368,-0.0626779088204523,0.07861550216968718,-0.02992747258630452,-0.1824738312825757,0.035554115379550666,-0.09885629263312569,0.19317325076054423,0.096813005250975,-0.01416705751798036,0.11165968929727972,0.09840807349575466,0.1597079033591563,0.05242993394192619,0.012429480581251906,-0.20543196013364384,-0.07196539322102881,0.10500838373571134,0.1974161395894603,0.13817098104711611,0.0368593999294923,0.010855378806107693,0.12390660490886286,-0.11518297300489387,0.18689094593518388,0.020344545162278235,-0.1926550235506797,-0.14840947601542284,-0.13293243639602223,0.15311226489249713,-0.14198064687446266,0.03853388454701248,0.12735685006416586,-0.09486790811163491,0.06929159474312722,-0.07169210740320388,-0.03256853038174376,0.07668465801034079,-0.07538860211253184,-0.053021580088619985,0.06319416794769542,0.042339778535493935,0.07273658694254105,-0.07910019813026642,-0.20186615667620708,0.17803603747598354,-0.17013731627874912,-0.07167598566608849,0.08854077262942685,0.045530476242289626,0.21417428207790454,0.1762865334927443,0.07729080507604622,-0.011279122599628036,-0.03696226034802988,-0.13090356721015703],[-0.0940624540459452,-0.005502000525716425,-0.1895728445670914,-0.09010948267904029,-0.12067437371419555,-0.09658842911085726,-0.1959997737422441,0.17246496071136236,-0.030481253217041822,-0.09716360989027836,0.08338142566605246,-0.2051253474207385,-0.19586653517310854,0.11382323030068639,0.14900410809604392,0.19424114426294375,-0.07521220305693041,0.17768927776618518,0.10323383142193404,-0.07058974978464276,-0.10893097198426362,-0.12054903500714327,0.08695230582173234,-0.13540021930214327,-0.20070561008008048,0.005227939699561957,-0.004493617034418634,-0.11843232685835683,0.09452350868137238,0.08555600028215785,0.1639812846858516,0.024015740083414644,0.1958632280849803,-0.06871521615961446,0.0482484838718491,-0.17045969184113574,0.19855834608710482,0.10778699370306746,0.18613689817008086,-0.06066348584970263,-0.11058931372286693,-0.037317336587081765,-0.11817234503633334,0.008605561739412494,-0.10589009693505111,0.05165764183499165,-0.14469059727158226,-0.08434346917954627,-0.14558995065074343,0.08567827406384709,0.08423164103987978,-0.0688186646535617,-0.11787029205010555,0.04636447942916016,-0.023776660538771855,-0.20479119720022163,0.06739469336120968,-0.04911187724738948,-0.06165629088009815,0.015122917906831049,0.10292513055529844,-0.1998126674766346,0.06629284845770202,-0.20716698857748664],[-0.20825297074795046,-0.05663956910720369,0.17623525521413708,0.11903455873717825,0.07141119435879385,-0.06188436709985982,-1.128568528687773,0.045254662629828975,-0.6576328772590996,-0.14744690142187297,0.014033134740666954,-0.4017635570051728,0.04610403471119781,-0.7818336297049819,-0.9380743176416539,0.1972976262068511,0.1340819869391526,-0.045130519031448234,-0.28528410735317455,-0.05466302409377808,0.12140630264281793,-0.5773949416112235,-0.25275640174769837,-0.5763939630748893,-0.8907561506227375,0.06006977846401034,-0.38016818022632165,0.1156292206387488,-0.6993973291435153,-0.810665781468515,-0.1175228117329432,0.024346793553491806,-0.21255387289039956,-0.10728178368203227,-0.05057684695854927,-1.2905169404484726,-0.10645785850281461,-0.3032910109739285,-0.06326420138648797,-0.2136017406812812,0.1536844313265902,0.06489210153379207,-0.04263582552348552,0.0621701110853698,-0.8197030237370745,-0.17594278581137557,0.06459203527202333,-0.5485667633405148,0.07366728568669306,-0.16504439165228704,-0.36582687380630596,0.03134678440069736,0.14822513768913462,-0.26544563360684353,-0.5467641136293924,-0.12296601095140054,-0.13039116593495173,0.15362591763532743,-0.02652347227693451,-0.35964614207858375,-0.18502468267230265,-0.5177882828317887,-0.029338518565610903,-0.831915018016502],[0.13574217560686333,0.021736057334889352,-0.04989192957799925,0.1708205641150231,-0.13635565125241456,-0.10913135467921052,-0.1696603834833926,0.01826305961689852,-0.08706057754758813,-0.003772876691584344,0.046440902682057666,0.15844771859533927,0.06215562375744409,-0.19444107442494318,-0.1492078904733825,0.17426447476464677,0.003096304256576806,0.21204995554469577,1.9352718694423618,0.09180288352923151,0.18655606748545933,0.07714226700905122,-0.13024969402426198,-0.2045288711743152,0.033697510698136375,0.03973408770891065,0.1158009517969589,0.13069131404496628,0.18221518673617834,-0.0678657528513925,-0.0938920271436065,0.15131476296155363,0.011584298797446607,0.13732068956007756,-0.14716500356821052,-0.12452110565298194,-0.21138690975415095,-0.11062482380645898,-0.14830835624437622,0.12531147844557416,-0.1278226882860429,-0.006248819419473675,0.021078211485683847,0.03965698214062771,-0.17026425629668293,0.1307693166957678,0.1848099013243234,4.345189996549188,0.1646970839274977,0.054417954868625204,-0.0968802545464579,-0.14431596418400303,0.21637787529625932,-0.1405346541827724,0.0860112714291749,-0.026806624329704404,-0.1748401576507722,0.1853121380998809,0.10357926708697233,-0.14442073201937639,0.21347521414323983,8.641325499898011,-0.17816337942176877,0.17621442034623108],[-0.15156495946208734,-0.12978586141135398,0.08150043769710402,0.12017518415514071,-0.06214018591456163,-0.1449321365430751,0.02388384762482703,0.020597030155675832,-0.0438279806594227,-0.06493217276763162,0.07657692923762312,-0.09435498905640198,0.07618122415238587,-0.17071915259581566,-0.19790922758933152,-0.19905376614627435,0.009717864550989606,-0.08495107837553612,0.10863068706621354,-0.031088153957643406,0.11683813370136263,0.1747413500674324,-0.16351776163528114,-0.007358624509119046,0.03230286729025167,-0.08754651255303227,0.15710255762575745,0.14333546589288204,-0.09602559805996858,0.04817517967526669,-0.1705217027097816,0.1060867771834543,0.041099402733260085,0.1288966919658961,0.16780230211142697,-0.14051416568784858,-0.18133070510612773,0.1292849394652638,-0.19331138964940048,0.18355172803402825,-0.0331161043795832,-0.09464548639603669,-0.06193598539077712,0.17133673330140506,0.21364844518552437,-0.20547761712559065,-0.017250908845841132,0.1490620088149006,0.012398532357753145,0.03176518359579562,-0.03770304107311248,0.18734121653523794,-0.08839125312319837,-0.2068138603031233,0.03303016525197203,-0.11331344950239174,0.10285412977093063,0.026614458639586416,0.20626423754856799,0.06488640964567176,0.061808717182947545,-0.1470366488676008,0.09898938788452734,-0.014274303863867419],[-0.14616177451370385,-0.026585608070789687,0.09311040758204048,-0.20693680617970578,0.1909301122079163,-0.08519944269909561,0.16252319633712145,0.1942423881257465,0.1095645448904605,-0.13442638374259452,-0.07800677374469098,-0.03500388650130439,0.2052478608448271,-0.14413387816849924,-0.08280587973512857,0.08217752705113854,0.12747423727591492,0.07899225034882063,-0.37285566389311875,-0.04617521572937745,-0.0096503675334703,0.1922784717010894,0.008797089504605468,-0.06380912374463131,-0.16268267241302872,0.20780590122500792,0.0703725631396192,-0.09710210677485084,-0.1532571324561173,-0.1939752116502102,0.08346671722315803,-0.13934002883377272,-0.023340760853235738,-0.15409558703610504,-0.09119828469799601,0.020589050801756378,-0.05646615095201469,0.12295344249826747,0.14279116019749452,0.10877597068129165,0.04980377664005583,-0.05984891024137404,-0.1920266059733578,-0.0290638480103173,-0.11340611304084336,0.2014918273029431,0.20225365734399864,-0.44561535036835154,-0.16381041571458654,-0.11232246009940254,-0.07744448746761207,-0.021231900678116068,-0.06179554585079859,0.023814874781420428,-0.0110874562527472,-0.05486576745281898,-0.04072715136656012,-0.03330374844233727,-0.16504646485326263,-0.058466588346398195,0.084273557803224,-1.0535039134582138,-0.018512425350739596,0.1015916157411865],[-0.11317001281775423,0.02799197163573489,0.16461247951654578,-0.12402555964936904,0.13355529553044923,0.047232944358990094,-0.19286671164736374,0.06942446615074316,0.07822309070069243,0.006089674558375674,0.013600500758474599,0.07943828682828107,-0.13027908573915573,-0.08628208350794925,0.14835889634515548,0.041317770546153765,-0.08219079011633394,0.022295394611861055,1.2197809075412311,0.16451476284101765,0.030015059206935882,-0.05592226822832667,0.15644151699555237,-0.20658803658677344,0.066740496764958,-0.031039229449296366,0.10461254988400501,-0.18519404627411856,-0.16941616224581071,-0.18365709927269053,-0.08192980238312553,-0.11727433662232294,-0.012394848823852674,-0.036118284965741834,0.11940135409342369,-0.04076887662848028,0.07596452361471029,-0.1920132416682978,-0.16240655135345575,0.15669174518925663,0.16734743742043817,0.11585868833986755,-0.20759722476294218,-0.0545930918069742,0.038012449346671126,0.1385116098429212,-0.08220924104144776,2.6165985342420077,0.11292075214338568,-0.0004537036011252799,-0.1774995646636643,0.059083089931245066,-0.12981276986799348,0.02234461646846715,0.14894453248792447,0.03996599290363363,0.014017662640034687,-0.09743364271701303,-0.18106192809341246,0.13522672309223127,0.13286657647532552,6.020994948285523,-0.07944496604373488,-0.0703561948457385],[0.03594046753733228,-0.12892346866860482,-0.04921596265848518,0.12836162945720545,0.07486327680554782,0.19181476674661777,-0.16422824356614435,0.17445128533660575,-0.045277999131957326,-0.16329032366789903,-0.2076403476157707,-0.13519756290603802,-0.21635760832080514,-0.06143381131525656,-0.020699498958696067,0.12791356113432714,-0.0822053923788113,0.202779500013108,0.07373342569375928,-0.0925358544151725,-0.03442233039638937,0.09533206432637054,-0.14036634253183844,-0.0038242612206129496,-0.18848499836918967,-0.044052296623786846,-0.1933526218209782,0.02144025230800826,0.17128446318563736,-0.08725496600787752,-0.07599855810294764,0.19490702290086445,0.12240699350332643,-0.10919846037241329,-0.22805338454642804,-0.1572712217100019,0.11698709964738396,-0.0252265133164297,0.08554516480982519,-0.1686719686488539,-0.19892808294071732,-0.07393539801550533,0.055263311236565714,0.19344550721268314,0.14040052333037797,-0.09929053925285419,-0.09902801855846421,-0.10570931531806263,-0.04150694401735888,-0.12701880054536183,0.15932282185118835,0.193043939561068,0.0711879601865273,-0.13393493781576982,-0.08480773750492605,-0.04810008805025433,0.04671682035338359,0.10186127112930422,-0.15191290121354992,0.20105743858858308,-0.2002208209114098,-0.12876035071532693,0.06298199687766222,-0.013948344665621705],[-0.19917314340406364,0.22261411849698567,-0.16629076034708284,-0.10926660157063449,0.0325793100319424,0.1309942571996667,0.5237692424830772,0.12674625853213464,0.26105252000972995,-0.16023350445897758,0.1783037663658096,-0.08223954881011686,-0.030544065898751013,0.3089161613353466,0.5043060220355841,-0.11806556649842313,0.1313396702154652,-0.14153864537530503,-5.961918643291082,-0.02901199551628081,0.04779820419984573,0.19215124083758064,-0.05264089750248277,0.17420558874358114,0.16487214335829095,-0.14935198259432936,0.22047578764050768,-0.17214443885485844,0.37298310288799286,0.37851655393840533,0.014381518930871928,-0.13546621247642188,0.14003397350235072,0.20668263409199594,0.08297633324209673,0.4836188246786828,0.09730732092110292,0.339838936433991,-0.09050506904328438,0.1393690181867406,0.17057140125804507,-0.046056174585927936,0.13302193491055425,-0.12005585642186412,0.29442466410741414,0.19487199873430427,0.09937315940848387,-13.739331884756332,0.17226435047414812,-0.03921260790363711,0.20045542360415566,0.08849416365099913,-0.18371320670718158,0.17079162487024052,0.3471670291817087,0.12977741067065543,0.1936563461678459,-0.17073836080328508,0.16362872738213763,0.23056973243214995,-0.08575035168730015,-29.63532127151301,-0.0028547522237922195,0.3557376501705664],[-0.004039445509410693,0.1673509797365989,-0.09405686569973264,-0.0698700454076489,0.022555736796633256,-0.15466314973018183,-0.04202912364885061,0.20156297526585168,-0.20426363847771167,-0.029891097367128586,-0.054432382428426664,-0.05139141250733551,0.14744615474085043,-0.061016669602735406,-0.16385641798491934,0.027976315968980984,-0.03606569348611881,-0.1994119740485836,0.05268936109407699,-0.15317850671827735,0.09652214994746826,0.11895595022538157,-0.18941886997754612,-0.10256293984348669,0.10245924735085106,0.18426654053322922,-0.03128581175637629,-0.11585381105954645,-0.1537749738749149,0.04989253910161889,0.18782637360064908,0.12713627336562466,-0.10430925498363153,0.030935431289331676,0.19953811494165027,-0.01803644594620105,0.20139223695197775,0.025948412485609557,0.11965985902069444,-0.180581621793306,-0.15082687043128715,-0.12297840853604519,-0.10212206012117729,-0.1696772889832731,-0.025559032891802662,0.1429219767253665,0.11236309084903165,-0.14180920903874142,-0.12640351725366877,-0.0561736724271708,0.07645284623266604,-0.19061278553277172,0.05184934098939792,-0.152970109136232,-0.15641790260773267,-0.03551675828129873,-0.09466780668473311,0.059664391718859615,-0.12267058500807375,-0.19306447113916417,0.1613299837616604,-0.03398770239789611,0.21619091982643757,0.04031390404442788],[-0.006342257158868724,-0.03281942969786257,0.13578941843684242,-0.036677173324935315,0.1793395053331314,0.21646430907753217,-0.09078838456166187,-0.18982055018053873,0.13917175487528974,-0.015512861460818443,-0.12222532868238742,-0.2063102721589543,-0.07466422683372553,-0.03616357380821175,-0.1780493652306578,-0.1783590128267928,0.009809498971196939,-0.17579752342421354,0.8133193529051937,-0.03403860654859309,-0.12034838145195181,-0.08760619562276753,-0.21326004096606643,0.06176859020433101,0.13804306188150142,-0.081849832387711,-0.06038677484260685,0.21223600666635603,-0.16577644913270523,-0.03996357737913885,-0.188013523468036,0.05808745393790981,-0.21588081021145927,-0.18091414103961423,0.20400372616903215,-0.02501513088194488,-0.1430706345206357,-0.029786799184440722,0.01599647786347195,-0.09995564762295596,-0.1271658379829624,-0.08362544870943175,0.044915081348292855,-0.0073444853951758655,0.002109057678732311,0.13528763069777044,0.037852640727287994,1.5479405868697722,0.14552800947333352,-0.11317543511850425,-0.21719513601008167,-0.07354567540154215,0.045848847077001854,-0.017289862300062506,-0.20685854390586728,-0.21213307095571288,-0.01512495426955298,0.02117506852401925,-0.051758770391432424,-0.18381637132538203,0.030091199320957024,3.099734130619213,-0.03217607516743173,-0.06596735766675874],[-0.12474400457198523,0.16590774331517555,0.14929285425705355,0.1246123909730805,-0.1426199640652341,0.023190324875276076,-0.010932315045682286,-0.09568045099437071,-0.08621901753555289,0.031123116317401372,-0.04224697463901672,0.025033868744263936,0.21222082134173698,-0.07364213127109005,0.023923461134930976,0.12715822201163632,-0.147781274247797,0.08602456027569089,-0.12457287775514882,-0.10746227252876672,0.05273291666139961,-0.15346764210866234,0.1293952134851281,-0.1751558422228277,-0.17363644844343445,0.07814244849510162,-0.009912239470652638,0.17651754634238168,-0.21926866559967442,-0.21715806263054338,0.0428968176031601,0.1618319867861209,0.02712240152705762,0.17570111604946811,-0.2090752347744781,-0.0936189560095852,0.006942695334330715,-0.047501237588489974,0.12400249184967074,0.017145509145598523,-0.03193284410458512,-0.024431195237522296,-0.1850324024084818,0.13709849058792772,-0.33144047248840947,-0.0039004490314228576,0.06550330405288737,-0.15813788861009986,-0.16209423249283642,-0.030933855436283148,-0.010492885291215573,-0.027938254174967394,0.14235387182855738,0.1487655087186653,0.1820867497793694,-0.17973063159360142,-0.21101409475276917,-0.15434314157463505,0.10709331485114944,0.14938266986410725,-0.19475535399095956,-0.11238371462368871,-0.06720131112490824,-0.022536220305261936],[-0.1843346869852861,-0.12676287772940698,0.04745790045190571,-0.05474082665140121,-0.16002718201231264,0.04439201664135926,-0.20398434922765446,0.05535900039681238,0.20880224164617733,0.1209923371189189,0.047329962528824085,-0.12336243835308232,0.15773129636792818,0.15893269709611352,-0.10903343912315556,-0.08895056936702554,-0.21487081327589622,0.17952337806278137,1.4501257983390785,0.1622492096368026,-0.01087682233457191,0.20882026974825532,0.05591774299085357,0.024751839795927735,0.13643811598196487,0.00013667387691918473,-0.10976096822776465,-0.02335311907439178,-0.20711721444129264,-0.07597678512341668,-0.07217761850641441,0.09359606491989346,0.07986578870789572,0.08713804061426277,-0.04415950535781556,-0.09999955949020677,-0.06418088366435143,-0.08991248357309635,-0.023184377649217196,0.010369195712813393,0.08555620818110381,0.19967462835446104,0.0015354882647062745,-0.1399519255932417,0.07888069844345913,0.003977383559796899,0.11276577477820655,3.439785149385463,-0.012147960393549258,-0.16154951883667648,-0.07512601036423916,-0.17619157113909625,-0.16843157441159803,-0.0911932991562725,0.1871887341639914,0.1284605715260906,-0.16397933527384903,0.21580032026219623,0.06861285899855389,0.09295408243739148,0.06827861903469488,7.564219274324991,-0.016657236775695677,-0.1657593051179161],[-0.08213570751422958,-0.20607760088046945,0.05133535637972307,0.1470483943824794,-0.01732034622554414,0.11337424306691637,-0.09678998835609492,0.11361077551722248,-0.21519885670615166,-0.05048704137922055,0.07158127744830572,0.10779921288222746,0.00524455467618277,-0.08727151552340769,0.11086255151238036,-0.01308620069135616,-0.01157466599657581,-0.02254707613920023,-0.14194891974391688,-0.20859214195445783,0.00351154536736097,-0.058356189843969876,-0.012227333762511188,0.1713877975850344,-0.10293533856314321,0.1687189727354326,-0.09627642521819614,0.033479312023964904,0.07624250670149765,0.008270371823202075,0.15852260049988742,0.09851532588967324,0.1343619875775159,0.10494000680231147,0.11539066038115459,-0.21306743222902505,0.20465313994952847,-0.04864637113360228,-0.06680856516837266,0.058206755122018894,0.14307983234538668,0.20580092314058343,0.07461881055964138,0.04563083131738588,-0.16542292784014223,0.17515394420275715,0.1516650963541692,-0.11448962726015563,-0.11214404901161776,0.12475478463007413,0.03305699048253079,-0.08251573430505901,0.07893835479565746,0.1442621658942661,-0.10258561864757036,-0.1655987965939177,0.16068205976770994,-0.05188397638109144,-0.08094676746821361,0.1886315207566912,-0.1514334154437879,-0.06031058880233476,0.04252431848229154,-0.034961078834834645],[0.02656985185399248,-0.1286511181580273,-0.09232752643950594,-0.039922235089996254,0.20344325950034123,-0.08459036358526745,-0.07796026600684165,-0.19495147847926544,-0.11300013300665734,-0.1520184534605911,-0.03976107131830859,0.14685559559003214,-0.18187343446963006,-0.02612646408217789,0.10433996210975706,-0.027733729828036558,-0.11957473584306928,0.14980009981949177,-0.009426294393669224,-0.07357436904095283,-0.01922225429653626,-0.060502028116194345,0.2067446442531978,0.04837921297697612,-0.014043833504684562,0.002049668066793626,0.001563477262659659,-0.11294639201699204,-0.15797017534963617,-0.1323188536081287,0.12584780271644158,0.1774190651913344,0.04426510877818657,0.12024978358127861,-0.19870958210394077,-0.05468012881998204,0.10231555968081615,0.17289978021437466,0.13106621866749854,-0.09283676819277886,0.020125738910835623,-0.07476278649335003,0.1844560006408507,0.15201074300956727,-0.10470139894763421,-0.17941035898805288,-0.14046951548664174,0.018980642803188678,-0.17714447457483423,-0.011304527100466909,-0.19582364618673082,-0.039129793656862755,-0.11042625071849735,-0.21578881200725233,0.18903316654698496,-0.20047199304114402,-0.0061228953571991615,0.20971239898379754,-0.06856342741884443,-0.19865850510886193,0.011333528996751444,-0.17301464874687772,0.1805600300900829,-0.01633224098548439],[-0.00831553729271518,0.002735244574102633,-0.09476470115718526,-0.04565028221607387,0.019198085684267608,-0.09756436814132152,-0.028860219609034378,0.18914033393943458,-0.0068377825063676845,-0.08816250637601691,-0.02494037136526387,0.1363542531328518,-0.01331001317824626,-0.1925675479308718,0.13386215758667624,-0.070005200580765,-0.042027528513726264,0.14773670640605588,-0.023711789188792694,0.023190106914596675,0.1515864520973551,0.10912729212145858,0.1354598509793052,-0.02593614713585686,-0.23367801124405896,0.060333493159263944,-0.06932265013656255,-0.13279757073443277,-0.13477688537949004,0.18226876515855492,0.21442691804684813,0.17307076152406903,0.02978839172589861,-0.07323657365521394,-0.05851042030605844,-0.11598409041326499,-0.10066324699192714,-0.033359651695255496,0.030140747912694166,0.014200253848170379,0.1659888024425999,0.14763366526015795,-0.018425988424305532,0.16112929007746904,-0.04776292813546703,0.12365632392476159,0.1913132281801456,-0.19937494834321354,0.20649740821058957,-0.0633180267296236,-0.21547788233545756,0.06393864451156842,0.1444728480960688,-0.014536326570915867,0.15717524823851262,-0.20765647176332896,-0.09863905516627863,0.057167295871426375,0.17396748937284312,0.016417178836045477,-0.05655301924441649,-0.1879468296135263,0.037120892872614324,-0.09422248282226549],[-0.1806727633761409,-0.03968725300648051,-0.19783135029946874,0.10396733048930264,-0.15833221367501243,0.19126096258796593,0.1690981214803377,-0.2049796375505794,0.1187947687389869,0.1653716642508042,-0.08431566053063204,0.03284583453113291,-0.07354088879999504,-0.1415079567165402,0.11189170672146333,0.1986954731499926,0.048533424573094876,0.07198265250619194,-1.2199000826741473,0.17126139047314587,0.168599488627795,-0.1655318488702658,-0.058492552015663384,-0.060369294723103845,-0.08265268934908203,0.08976786494584352,-0.14338078385367656,0.16743993690829348,-0.02652861111119552,-0.10149045519509295,0.1890176346596309,-0.044458491345703996,-0.013997236079879244,-0.19568085433741236,-0.057986693599100685,-0.03712398802627166,0.09457246123751502,0.051322683071502596,-0.0388418969691227,0.023844647599709636,-0.07590595539169835,-0.06310296240415643,0.06524399234643281,0.07148779592498093,-0.14356602506321803,-0.0014007543594380765,-0.013349155190514139,-3.1532376813409817,-0.14934535725725653,0.13562366146124408,0.01599981721626766,-0.1682689985945885,-0.03147242128594622,-0.05673639935572614,-0.1760832261819934,0.1470202962674651,-0.017626125108532693,0.2148128107695665,0.06403690131199138,0.034739319285709065,0.10206180505218049,-7.02621123791021,0.20710792875086742,-0.087275231446612],[-0.17645906066115133,-0.29327752015109226,-0.06349142627297465,0.2048544872572431,-0.20968590058704997,0.15070647928884076,-0.8208578325366664,0.1921165449441934,-0.16881618391845035,0.045175883998232545,-0.016735200545073627,-0.31999335501342224,-0.13756045803522463,-0.1900343797386834,-0.7502591918704843,0.11581188101027241,0.03767111116342539,-0.17712812831411073,-0.009663146554826196,0.15018711450033378,0.009317428874172164,-0.1311444112334112,0.015239052906097547,-0.24474580087424125,-0.20785726543475896,-0.11059885596267861,-0.34315335522016094,-0.1765931022056246,-0.3443768001904764,-0.5477314705419369,0.05759400654665105,0.030790483239238498,-0.07056954507117763,-0.04551630829998923,-0.055446986916233176,-0.914224599065908,-0.1982225014360639,-0.09225982908623795,0.12309308435131877,0.1783657693413413,-0.18203409532993034,0.19098099013586894,0.08503100244786849,0.11502107055081325,-0.30196642231233106,-0.19516013842222546,0.12860534100558832,-0.2724275533998148,0.06187727432132615,0.1907225226375711,-0.44816187345158237,-0.08054718716579536,-0.02029566401825368,-0.12189194258410765,-0.06142974211635127,0.13542013283691523,-0.0968088052395344,0.14186220260064225,-0.15257571532035813,-0.09324901439303043,-0.028096509496585643,-0.30101382546363,0.03487265579192277,-0.46179085608578696],[-0.06963938386658747,0.20357378431927153,0.09601784123896064,0.08844919607057677,0.14119568851166012,-0.05168453846393229,-0.004041096894954496,0.1694955339948789,-0.1783597299627513,0.12850206153332233,0.13204883956652055,-0.11526064814188959,0.07304366869695812,-0.15988974810486395,0.047171585243893574,-0.19254263086194956,0.10935219381043534,0.09435926871661438,0.05934042885926802,0.05402319572242036,0.2104114989239756,-0.2133196918969527,0.08476261659993892,0.10115347560498074,0.10606352772311207,0.19896846697390777,-0.20758300760415452,0.20999490423121603,-0.20209768308821963,-0.042566592889233465,-0.13616152216278457,-0.1253241807530784,0.03231238164254818,-0.04265643118030793,-0.12019698019936648,0.06064540604051159,0.10093710979330267,0.06635648000647495,-0.15952705854965385,-0.14434991936655595,-0.1823295295159189,0.0798302407117638,0.1567370281546495,-0.15520479982852012,-0.16181556978082323,-0.08033597540609094,-0.14070643585597384,0.03050154462384223,-0.04537383867516213,-0.19693592754006922,-0.07825274362500258,0.08437367320898219,-0.1293679182425963,-0.19082752045438392,-0.1740678540932984,0.028932836803746965,-0.12380339091337188,-0.20873645975448057,0.11399779520081364,0.04139784579850364,-0.17946519720985823,-0.11293786405115232,-0.06602287411991313,-0.09156261376006622],[-0.1337633374685783,-0.15337931129927584,-0.18152023815366677,-0.15863100030263894,0.13204788217556374,-0.05339194608259567,-0.19998909532132272,0.00048588451183230203,-0.3613180377023724,-0.13176583990717133,0.16946520968832302,-0.15860262080798926,0.09000005080846775,-0.27100540202072365,-0.22776666570184878,-0.13259932729562798,0.0016702014204024707,0.14275836043055204,-0.2554912726620684,-0.15212966394943542,-0.16048079232087678,-0.2365583418306776,0.08228229482856611,0.07780184763033299,-0.1948169643617967,0.16822765613897644,-0.1395521426708664,-0.01281327231097712,-0.23050752626198862,-0.5006108848409281,0.1463728912672915,-0.009032837697552813,0.0909110893830791,0.1517821320527733,0.07180063957555537,-0.32475086055915364,0.010033805704118551,-0.10855565003708088,0.07270974578796596,-0.19025998683400663,-0.08885353885837312,0.16412413051013525,-0.17636206151235137,0.04141224732634174,-0.2914337333127193,-0.2428415844989395,0.03880596714411024,-0.31581813376916107,0.023948935349886544,-0.08987193592641245,-0.2662769196068047,-0.07143919422187375,0.20697617060437493,0.06770257858484531,-0.1493115457341101,-0.0466235444541326,0.12096700117028338,0.02660583065027565,-0.1767319212651807,-0.12599352547287754,0.01726818568268981,-0.19803320814668077,-0.21387647047080624,-0.09393142307858743],[-0.11157052006171567,0.1303910782295254,0.18002690109996852,0.05931790039146507,-0.1072770886629247,0.07370278925942474,0.21315986628476855,-0.21222062014020768,0.14661631009929285,0.008526025494436717,0.07983133187208508,0.04505804528662351,0.07299459418997022,-0.06578248136499001,-0.08533414121410997,-0.06833422250506273,0.13842744337027948,0.025739713491244695,0.13780848690567926,0.17597074518279468,0.20669184664016244,-0.10605860944789118,-0.15668088805942812,0.13647610920344866,-0.20064681753584238,0.1861495373278232,0.17524473989908734,0.11667771380499453,-0.04477659648903737,0.17091115795969242,0.04296210399423547,0.1349801631092633,-0.18539477342712604,-0.17959945792908896,0.04447354683548666,0.008901048812941445,0.07840119540654225,0.005352447783025644,0.05752960750634526,-0.13520470393217995,-0.07959987153915522,-0.1567484917259659,-0.059380397494411485,0.04856486962144319,-0.1664383577082588,-0.15105534115876154,-0.16867715362441799,-0.1757757407778933,0.16992253138863112,-0.1261697356157811,-0.06313262663519989,0.1869903778052264,-0.05611418162775787,0.031035767187335157,0.056008635131639034,-0.1448732390380956,0.1432954823630906,0.1394424862358394,0.08044182971736175,-0.12859606564421844,-0.04665164232325227,-0.10267959223618899,-0.0361485831602097,-0.21305939616814476],[0.16624221661718294,0.16853339459861455,-0.15324853224409873,-0.07546787722481221,0.21179159908162554,0.024443986756689504,0.18586331233062947,0.20746926003713687,0.15345687296016725,-0.04649670492332691,0.08649853100301982,0.10512611587329046,0.17486086362640343,0.03628800795590862,0.16359041515351416,-0.18584215445873364,-0.07518350925826463,0.13878335722355364,0.07154965174008845,-0.10621974211491311,-0.15094980360326263,-0.08691711556564777,0.09310421290597619,0.028291353226203603,-0.19777978599467225,0.1493150088179275,0.053650868055359485,-0.18985824020499573,-0.0787101864551167,-0.17012611392524535,0.055011109427404475,0.14449096698797814,-0.20534552356319127,-0.0020172968853522507,-0.10875209408962372,-0.2085008032294262,0.04247735943532435,0.04133442104757084,-0.21581626579983004,0.0036694396283928807,-0.0003874955396219265,-0.1241062956742481,-0.09924083097892422,-0.1248229661271169,0.06195180252133016,-0.144748236470797,-0.20846625223799256,-0.1861398912722036,-0.1129716444420183,0.1721024284526549,-0.12109899810254145,-0.0890649363494865,0.13282302679080332,-0.10957200471304672,0.08143620064860269,0.12275148639385557,-0.18751212995972716,0.05936608953621622,0.10153611032909883,-0.08354527527001024,0.0298739918950388,-0.14155748451770112,0.05211649213468022,-0.1664962363168593],[-0.13801328708804073,0.04838475621313534,-0.09577375732239984,-0.08037986437101151,0.07974562010751543,-0.1284235824645363,-0.16058762890889083,-0.041488666520037264,-0.23570850425638876,0.016571134901030304,-0.20332337793772642,0.16096670615563166,0.1063632801879581,0.13228017125868777,-0.22836334583606463,0.01913099874322974,0.07624093959406558,0.10046028947419053,0.9500976120419474,-0.08249088617114059,-0.10484875319385564,-0.053419504318587045,-0.0872285240138107,0.09570204354958695,-0.1244910625143339,0.029295304346211047,-0.11517564063977129,0.17713957198369315,0.1134680378689853,-0.02308124950226818,-0.10488555702828621,-0.004386513938673247,0.09414496550150159,-0.13036727231167367,-0.06408689378220712,0.11018585707432259,0.13477814402724225,-0.2015797313735242,0.18982276114868687,0.05217719513462119,-0.11638735500363852,0.015071631147704198,0.12176883612598792,0.032802745536576534,0.10090487181578967,-0.20610747714040228,-0.14513151075107295,1.9977286890444519,0.06171212746102119,0.18878575429860284,-0.1190775564228142,0.16285669120021765,0.16760998656534043,0.06712425432821889,0.023198690375643677,-0.013962691186663793,0.11548487527503831,0.20189504978572514,-0.0768630852360684,0.031910384359337275,-0.016827254510362256,4.34429149658946,0.15944884180313917,0.054638207756621815],[0.10804774778990575,-0.41735918496611,-0.13048001070415807,0.006205598435190328,-0.06653052359107194,-0.03673240056148473,-3.1114526565707514,0.03489102614390254,-1.5980541189201434,0.03649480454722183,0.02935300495873329,-0.583518707282744,-0.02394361398801066,-1.8889884095943645,-2.451995054805753,-0.04624132894815437,-0.02400525398732104,-0.18160779374399386,-0.48495469115787154,0.061665321664247257,0.16267223682134055,-1.436457869519777,-0.49218599272369573,-0.8252675694264986,-1.806536055626026,-0.031324515778578865,-1.2239525453092275,-0.13239320800180107,-1.882362153256323,-2.5116747350834037,-0.09195993117456934,0.21975163759547384,0.18680958253929394,0.17777141466661547,0.16268584322320342,-3.3749797327255227,-0.22889114796945678,-1.1640415915288604,-0.042392269488136514,-0.14020755184919373,0.003562248707060525,0.0052067452424652515,0.014082112953721514,0.11296427676111115,-1.8194539885598804,-1.087256527749671,0.00661349053075957,-1.1568493397915194,0.022888536893476568,0.15483701230290478,-1.3084659493164212,0.019567285496753115,-0.13260166714512145,-0.24699740597442935,-0.9080576290353195,0.14925288554034163,-0.1405901160606865,-0.044492408885443445,-0.1383397553986696,-0.8331503489152052,-0.13563260303218422,-0.8438577248551369,0.059764973312175645,-1.7912651331330405],[-0.11333226248856804,-0.14904505658677816,-0.06353241511120562,-0.15557915740869957,0.1820312818050885,0.1678886171098096,0.06055872723772812,0.007600123841041438,0.17404636544327898,-0.20703279423097798,0.03879070207546439,-0.06038305473157056,-0.059856260315357165,-0.09905046819707836,-0.0031247937557861466,-0.12769653152773408,0.17679149738635933,-0.18141486953631894,0.8097748157482079,-0.14492671256782233,0.08724588749824663,-0.026545417043245586,-0.04150836570800318,-0.20207885229084224,-0.08584906703863088,-0.11104939367602913,-0.08989539957389575,-0.02093756363523149,0.12147695232547083,0.017610425093855697,-0.15481727441176912,0.04170028548592262,0.16086208626260973,-0.08255863596845968,-0.05492118207355732,-0.11899849406072621,0.08666889850517631,0.17549800620206368,-0.027450253332363648,0.16872572637421412,0.20105507716458754,0.17370654659380277,0.10749614964591188,-0.15058970546170541,-0.1487865750023852,0.10581694962155418,0.17464677062281558,1.5629797591851733,0.2060639841039061,0.012035949882863972,-0.07571740094569734,0.04134318354909648,-0.12712994758094,0.15329376274224515,-0.12372813087903937,0.18133597190583847,0.15105621574021966,0.1309418261829199,-0.1498312757101439,-0.02476998023664604,-0.1659974608736444,3.3519973138485044,0.1230880017771092,-0.20383704848231482],[0.16721331489644867,-0.19827991406867143,-0.05243595991797829,-0.02105189319982143,0.009062847446540224,-0.13517085507258092,-0.0693970023215308,0.17998835039337352,-0.11676735640301374,0.1781135311057458,-0.015371887247359693,0.06679910560776188,0.0758363106496585,0.05327084164311265,-0.192010171606194,-0.03042362117160576,-0.024446845049617916,-0.0024097516248290625,0.16469994297255788,-0.07369171054822932,0.08832242195904975,0.20407618080348383,0.17718047857809716,-0.021071156138846733,0.08176507459045426,0.20463390889633828,-0.02802123862153216,-0.21498995711810667,0.05540576699427152,-0.20126887199225674,-0.04639306077232572,0.020856248479963445,-0.08978579950560824,0.08786187616248457,0.1100310953839401,-0.14512874491733435,-0.1427685235805931,0.006420063271894748,-0.02137123627406251,-0.19065688074516718,0.11590184843044594,-0.17892513095440943,-0.07723754919785214,0.1406528336396034,-0.08720094366084205,-0.09766520234390573,-0.14209222131279434,-0.03083382741277157,0.19020061499770266,0.08838264969064456,-0.18397982234960075,-0.07590827818131266,0.05132771728188958,0.016689467728032682,0.17915543934089578,0.025055054206449965,0.0710533246312999,-0.21642196568358982,0.11856799869499292,-0.17623105440602718,0.09689075393347382,-0.16147816603045465,-0.03634396964040925,-0.040892329831332425],[0.10762880479918861,-0.11535805153399394,0.08584822625966178,0.0753724305187509,0.0596418483849005,0.1442415006989981,-0.07143973281659113,-0.15924485479396913,-0.13978429552230692,-0.00371086110792327,0.1966509921022986,0.11532856573790692,-0.16276976230886453,0.17499641653829345,0.0007673417221229981,-0.13857501055080318,-0.13087973366201164,-0.19094106604008296,1.0365279803454064,-0.2159564214804656,0.11469830586840642,-0.08396809613423589,0.08121654513392874,0.16934477156322514,0.12871861708619203,-0.2137184349329164,0.009225501650208712,-0.11552579416960884,-0.06397365911362174,0.0054043750227673795,0.19860609643128738,0.15348831806121657,-0.051737576435849475,-0.09181694793008896,0.1282236102794003,0.04919106472326771,-0.015067526035056218,-0.03312393211357016,0.1323790668573007,0.16057412705462204,0.039581834304652716,-0.17962527833402286,-0.13746330695729322,-0.02787501831676259,-0.22391590580982898,-0.01706864359803314,-0.20894802111038502,2.0502435259338796,-0.0527521029237231,0.03836846001179916,-0.11225069416294718,0.11004132298499543,0.15107731969774743,0.08959603039860897,-0.08373799317745968,-0.005981112470989473,0.004120895097056078,0.14882072894769913,0.0025763639178276376,-0.0908556112466439,0.12043529040864173,4.8966634199711985,0.030023290037620477,-0.24274433988812372],[-0.213975044280907,0.18461951300993087,-0.17860088877775698,-0.10692540433024236,-0.06435666142703432,0.18066259355388634,0.08251082245282132,0.17585855827076557,-0.16078933890711125,0.07123185360325485,0.021729717418698623,0.02195747352814345,-0.0839204619494004,-0.1720291355213157,0.10962998676643144,-0.014374692057412179,0.016038343976776424,-0.20822525702554281,0.7674080325445511,0.20358638463123635,-0.011737362159504355,0.030159824991913782,-0.020706182747644176,-0.18685951444678195,-0.16090107412802868,0.20381278581984966,0.009591306487369108,0.09355902576610131,-0.18509364650449658,-0.1903166963104283,-0.194074125166036,-0.19599884039818685,0.03539542967786993,0.1423605577966323,-0.002720042586837076,-0.1784214027613567,-0.11660901079174713,-0.17490894487165362,-0.10340441942123861,-0.1676877559927545,0.039932229093704315,-0.176136026267841,0.19575747474427985,0.19043685641341979,0.1879232883747272,0.14257377993414638,-0.2040591139148677,1.5780511753775883,0.1317874809432697,0.20170441446664367,0.17419382769370986,0.11978530890471976,0.20715416649963295,-0.0292019988035203,-0.1496570605960083,-0.06022939590996834,-0.1550775736136912,-0.11418837533950815,0.12446752120937057,-0.05419962735994949,0.10693463152437907,2.9856811578870373,0.04958760550508685,-0.17768597303222636],[0.11664639505701734,0.1483749699159666,-0.1955208763265957,0.2005639038866796,-0.0010613729372271636,-0.13206160144321105,0.13910917785566929,0.07055811094672058,-0.1984750314989279,-0.009885131378187167,-0.08928615729980668,-0.21833880942465503,-0.19089508647795472,0.09611443120987774,0.09441351702038787,0.03165581131131197,-0.07309561994192426,-0.1996100463915593,-0.1715396625442721,-0.13448317764030635,0.06401132444281604,-0.022997809430834126,0.17585144435995928,0.011502412792881628,-0.05263377861844935,-0.2066689496184449,0.02239460424905535,-0.17107006790834295,-0.11060125206052146,0.1773090215334282,0.0013744535641142977,-0.10225016260770464,0.11284544426717795,0.027620896339058208,-0.06953020003542283,-0.05867599817371477,0.017209034304792002,0.1629581903259222,-0.12071352514790482,-0.11685972261655626,0.11305879089311179,0.018597016645342322,-0.14311079831502332,-0.12787670127181405,-0.11730280779180174,-0.16420562257753668,0.11829541488042809,-0.08271904439076312,-0.02427370650632434,-0.01080934536070731,-0.22533651398992616,-0.11891215121836937,0.07123017473892089,-0.1971350843832072,-0.1680791557338401,-0.06907824830847174,-0.012555664429771957,0.15117579460156136,0.1489976705352241,-0.20575688117912674,-0.047779401931388396,-0.13844428983662138,0.10286710752104927,-0.09558725278354736],[0.21052684574859382,-0.3557608765029474,0.20605257412379507,0.19563874125244513,0.1460032366919629,-0.026551336688222578,-2.998661034112673,-0.16070547914237096,-1.5094313504330086,-0.05734818674436353,0.08012502423893354,-0.6210572153765983,-0.0591002931813272,-1.4423806910558519,-2.171760801966647,0.20845642610069456,-0.04482058309964139,-0.1867943853514723,-0.7327861370977397,-0.0817647702208757,-0.19866084525267072,-1.2098999894023361,-0.6225093636290631,-0.7668657352680146,-1.5877612546463946,0.19367125823618783,-1.1771225901266493,-0.1260246620835115,-1.741574744221548,-2.1088792193617474,0.10454231719030035,0.1390967254639872,-0.18966807897801213,-0.062427723947412576,-0.05708938502631144,-3.050784768153732,-0.2227257778824593,-1.2279496543807003,0.015761711695846725,-0.14294125536182423,0.1876833615955071,0.05845578998804691,-0.12508534408833402,-0.09860572380902549,-1.8499341655464958,-0.720077060557911,-0.15780200529958427,-0.9723720341895413,0.14382352620544264,0.05476018180809688,-0.8787215156612697,0.1536200092296141,0.04183632885897702,-0.07599876656150475,-0.9217249500014367,-0.14258401814819524,-0.018771625986009833,-0.07666400202669882,-0.16424674371942913,-0.8009384516634338,-0.07194032013827088,-0.8224466250188085,-0.03915299128790231,-1.7692074505073947],[-0.11459068049631266,-0.29458029627616056,0.1476278011101296,-0.11450681159764667,0.2088446037549938,0.19464273532346416,-0.8566665435875257,0.04557189930089707,-0.5758012949818879,0.05145055200628248,0.19342390064752607,-0.08840081660639404,0.05360161726436146,-0.6628125289655913,-0.6397221219359845,0.22691921140654464,0.04968751312324621,-0.001519090628818553,-0.023452747164550286,0.09216537880552245,0.184288212210857,-0.2745617706304486,-0.0765698882020856,-0.5175931065849924,-0.4899416304297202,0.012070031404525458,-0.49800488948410404,-0.025784633329095055,-0.48596050303224925,-0.7138967904389389,0.09946210740145553,0.17983519977483742,0.07585418625541082,0.20537821791728103,-0.07420833745803386,-1.041834814917996,-0.17086723640279172,-0.22997392315188642,-0.030479979643797,-0.1443592737153255,-0.10358800527937649,0.14921995742682992,0.1061685718089164,0.019169808879337218,-0.47020452031738835,-0.33824443488743167,-0.19320847194942706,-0.36264578854749296,-0.03917241546592184,0.09850363984785146,-0.36318107012357814,-0.011175922380725975,-0.06865560417085805,0.1569351395275958,-0.3800880247425502,0.10327302199326295,-0.16836514215045015,0.17550927888860926,-0.1894676433343001,-0.21865206128001666,0.0018022605598620328,-0.11197307580639787,0.08415585865712105,-0.35682623390966006],[0.08738206081356906,-0.04063532807561326,-0.08483802034660519,0.16118559197178572,0.10702052315654752,0.07775984663678595,-0.13478084599125378,0.17811102844502077,0.04330667521607136,-0.04555403819783325,-0.19063833366656338,-0.04460517855175888,-0.007393785158736468,0.03581551999213954,-0.06564224527517726,0.04502254030632126,-0.006963676416136075,-0.19721563204426232,-0.0512511329282874,-0.2035833540405807,-0.14532621173615115,-0.18227708531866432,0.062062744280581734,-0.04064048669320089,-0.06116360377608552,0.12037517775640423,-0.16519258598897968,0.1271194362195406,0.12585522600669924,-0.0394328866364676,0.17756440055676734,-0.10418464924693518,0.11908876397024276,0.13215710261884184,-0.16278286903814454,-0.07956554660824801,0.1046541416874109,-0.0018600451877715065,0.0819116903419282,0.04078941885124983,0.07932779046376523,-0.09132345089994717,0.13230698246109027,-0.1807530701718876,-0.024584433947444445,-0.22068182259556324,-0.19138421399098587,0.17377167033391486,0.04742180583257183,0.18615090801570688,-0.1671716386436519,-0.09167351345352504,-0.07758455622052687,-0.052627996814828736,0.0005925992663768295,0.16201325876738812,0.1130754284761075,-0.009551476848797409,-0.17206342024326182,0.05286613442780046,0.07452702399603471,-0.1869577232529483,0.015615335422197257,-0.17730131300695967],[-0.18785123601540518,0.1726968011905679,-0.08327507930081758,-0.020586683377529957,0.20651144970947605,-0.08696431085072595,-0.0005114993435411804,0.1793806458988273,0.18293398220188573,0.017080474383253347,-0.035531548230803026,0.04877388357595695,0.09849496480497384,-0.062519122975193,0.12539741335584692,0.17702409518172207,-0.19883631013969155,0.2015214174420809,-1.1909369105260796,-0.12363134513968022,-0.054854091956248144,-0.11093768065820138,0.1864789869792087,-0.19392112297514572,-0.09593317731748115,-0.15132163841892954,0.04259359573512532,-0.13733710833794802,-0.1982411293390519,-0.03935828004779206,-0.04102127011451391,0.03814101337253937,0.21376795068722323,-0.06137009349506573,-0.02110889700748733,-0.1477635400285827,-0.0646741993943801,0.19805305248233956,-0.18610740535096335,-0.17936515717783866,-0.21097223717840483,0.16471741258340036,0.14625020527526422,0.16348443558468925,-0.1971267685131105,-0.15917489245776043,-0.06943277372111968,-3.433251981303932,0.1060742146763429,-0.13590800807084957,-0.20555992736674547,0.159252348884501,0.15438908802608664,-0.004911886591880885,0.16815514436694487,-0.00454141344856183,0.05388767038241492,-0.21472496181830444,-0.057567075974359894,-0.18303436738522172,-0.042051403798475155,-6.7156256385824795,-0.1797376141652323,-0.2009400665099391],[0.11910034425245504,-0.2111607526363313,-0.014806473636779002,-0.13572795239710653,0.11273145575837636,-0.198294512202678,-0.14901307589601392,0.08232151593180488,-0.1727529497806561,-0.20140696675285605,0.05377820106507157,-0.04522389694530361,-0.10740184848898648,-0.20029809795475986,-0.0911743583215929,0.013094884075592983,0.18074378712349756,0.030227127252077,-1.0863599842179057,0.20154161455856792,0.022233288638349783,-0.1361945140416316,-0.1476216703934272,0.14429726452054856,0.129371952391413,-0.019604746332417985,0.10209038518524047,-0.12083784163039132,0.15538224794891892,0.16309196628133857,-0.0922406733489115,0.18837562855280746,-0.0006430772464958138,0.14351096791707502,-0.12485536167781647,0.006320103270729172,-0.17631009596288152,-0.07466726163549829,0.18167864862836167,0.19416621928182703,0.2140857795046507,-0.020358727800032256,-0.02336113242963859,-0.19980916832273288,0.11716589939687988,0.18731763308415572,0.06463488576753448,-2.5043909827296957,-0.07048643234717797,-0.10850053453834768,0.14790588573386265,-0.15400023857395712,-0.12695535836237268,-0.022254136208974304,-0.11760476445425026,-0.07099707918166637,-0.007997930965364339,-0.20886154100741341,0.1372562017428361,-0.1672792264495662,0.10197325862042161,-5.0069203136098634,-0.1291918769597708,0.11438371848631233],[-0.14597045002062697,-0.283433735821348,-0.07822662663766872,-0.04966948283062183,0.07398546379536536,0.04000399663715361,-2.205889282158474,0.20650927563510404,-1.0529466490813548,0.17230178813391583,-0.1893659518277875,-0.5726337909350079,-0.20947054658052275,-1.2320430855899787,-1.6854015576471184,-0.015872631530140225,0.1892877477040988,-0.21640862495892296,-0.41162240016657864,-0.16777505221302438,0.13891748529121203,-1.0448973816451017,-0.2540083766500336,-0.5270245555647337,-1.3985961101687054,-0.07483160366151063,-0.9970291988271149,-0.1787730338003195,-1.177223052224337,-1.9923362055598681,-0.06267711727871121,0.14262621864645203,0.07158961785940325,0.049386457822509784,-0.15521985238217836,-2.4516210597577057,-0.10906830705027118,-0.9181137542667657,-0.05118637649265115,0.13659435418143412,-0.16873579581839176,-0.01729224953575917,-0.005749398931828811,0.03406386197732131,-1.3414696179959282,-0.45753898686309075,-0.18131220696552097,-1.051481252384796,-0.188386472303513,-0.0787438674828006,-0.794400748823163,0.13830337926076733,0.022012333853861896,-0.08509975068050804,-0.6372844974673507,-0.11037726078785359,0.21537469656516564,0.16747135087186166,0.10179816360648192,-0.4061293602386771,0.15866482089636372,-0.7390219286170188,-0.1713654524246589,-1.2043259918886307],[0.18146321879274357,0.004093186483682912,-0.07215654835738845,-0.13392221552006384,-0.005641631599150181,0.15010688645282,0.12149525265852218,-0.1784360501053593,-0.05781134256112859,-0.1344690398069121,0.06562060620029928,0.1503666495690311,-0.14232178762597317,-0.09900650978392299,-0.20379026556336666,-0.07454331210472248,0.13715336587352742,-0.2151823306751386,-0.06310355963212061,0.1092105550770269,-0.10595663363951671,0.11038126049983915,0.06178072570774953,-0.19037489352238482,0.07314720174421095,-0.1500699192225292,-0.052208275841422805,0.05378319040881538,0.030197769932491236,0.014743126734571354,-0.045144546175424426,-0.005172481284210564,0.009757288365400999,-0.14995956135970362,0.1355477573901507,0.036373936629829906,0.13159933424219214,-0.15414487877838864,-0.13078791889703167,0.13052231716032475,0.09282107731973803,0.08346326676064009,-0.19893990643642537,0.16779492349563396,-0.049919020572549176,-0.21978516664171735,0.17588704362958474,-0.21980420837981487,0.19351582511076956,0.06426878561369494,0.032123844757834176,-0.08569825256055282,0.18419762836160664,0.04813545010560107,0.03703335745731243,-0.05955945948649103,0.11215936187416156,0.0030733596462166977,0.1279955304485635,0.18304651548019082,-0.07340722760647077,-0.08989516120107058,0.041315980133639574,0.04489993802012521],[0.02437611429327414,-0.16620284214589665,-0.06322564335488666,0.1570494151529726,-0.1856823693175438,0.05545186913351834,-0.2078318761196163,0.048703307167233784,-0.09291400373449742,0.10663080501157635,-0.08640868672824535,0.059411107283845827,0.19797818509122017,-0.2678335878121786,-0.22836886951792462,-0.02004474674141675,0.1947083578003041,0.05560260975356948,0.03353957386765555,0.15741209679673726,-0.12179069458487474,-0.052327166179246064,0.044890958247937866,0.1764129102869913,-0.09829061573137031,0.15228544909500571,0.08884948577851395,-0.05781384365193566,-0.18944952762741363,-0.198318398526107,-0.08001323694604999,0.15195556349089043,0.15826830319023344,-0.1480762090510414,0.00694256611789545,-0.1663799735400956,-0.054613264795622465,0.11331486558718329,-0.2741266345294103,0.13305801933574296,-0.07491460345039445,0.1259803401297985,-0.16281597019490665,-0.20846855318441762,0.05826794446801532,0.008726845363356932,0.12162445664330035,-0.15866473069471657,-0.02151913982428286,-0.1078243755711267,-0.04161032962869875,-0.10703704272284238,-0.1362847972595417,-0.11431207287709472,0.13908186642407755,-0.2090001393512121,-0.09320252276545518,-0.19051204088014106,0.15419205869334732,-0.05279880173746834,-0.009141653986816453,-0.23565928660124127,-0.002790348531083439,-0.08987685031900763],[-0.024773133030762454,-0.02101688965665762,-0.08427078929988852,-0.07133542038059414,0.14527012432429134,-0.04063529014667715,0.057998584413633765,-0.19000553358364614,-0.12169537867081003,-0.06888743964467353,0.018289432593535982,-0.19084674529870796,-0.17749028299570124,0.01563996066547914,-0.031890519287572326,-0.2049082621873902,-0.030287113684354234,-0.0580610255455859,0.033105582479135934,0.13984228982316582,0.1827743332539937,0.09592500485889516,0.19071960535246005,-0.01984433383969684,0.0489859309435791,0.10226657550522383,-0.15060030216845774,0.010493637971836717,-0.1449291522280062,-0.17555022750778565,0.0412862807292233,-0.03131301356708875,-0.02818366406448177,-0.018049340390736253,-0.15316868132762929,-0.011018678933910196,0.008264971052990108,-0.10638317332812029,-0.043935227627972334,0.19880465221991747,0.020350918275050187,-0.16083144309740666,0.027723699424269797,0.1762094067511132,0.009832866340959479,0.11881566812859583,0.03972122580248016,0.13724616698425376,0.16759404801072839,-0.12460584834013502,-0.08880621256723593,0.07333358983188994,-0.056560047199959884,0.19382412463673954,0.06674156507843416,0.09499459687151245,0.04388319550427588,0.17005665378011472,0.09872522908502632,0.09418610824708556,-0.11924525420565929,-0.1555470266846555,-0.14862697885607043,-0.029860350410418582],[-0.009976897528678865,-0.0992710881289533,-0.1569530071178865,-0.11833878272010563,0.18398716928889,-0.1065087574817595,-0.14880835084905397,0.06987895825731794,-0.04023197356184628,-0.12366098486456745,-0.12929003891938926,-0.07665888198026521,0.21006928383300325,0.062451676916652356,0.16245598038053818,0.17164819628133074,0.1481733981159993,-0.055744303532556286,1.7123187749336348,0.06959715414010287,0.10841721472765634,-0.10404646694261688,0.08848281110655065,0.16368145461237704,-0.027482463027534362,-0.03469554060016734,0.009240729636903755,-0.030355565804926658,0.11397131828707278,-0.1977167645065126,0.003468434249975804,0.165971989442138,-0.07819611724356641,-0.16986639228503425,-0.1464639663162179,0.08727429605233115,-0.17145717134223182,0.08112636008884135,-0.033778764425424025,-0.03051620580984511,0.06307927855940068,-0.16043552556266782,-0.20865148855224805,0.2073197241853466,-0.07506221373320587,0.03885043699879479,-0.08936581809163899,4.315931459605944,0.06020789370208728,0.18143205356704856,0.14009948512391987,-0.06950281067605978,-0.007244650867256588,-0.10791931251783543,-0.031071367502776694,0.056071966961943664,-0.16232049303444526,0.14490518865592716,0.16894034189825044,-0.08775003824562033,0.018766902542196453,8.972498037129121,0.15719159215209552,-0.120927902365039],[0.14845116530443767,0.06724073082959749,0.20264833112023112,0.10749208163980943,-0.01954612549803829,-0.013219827900547015,0.05303770253232123,0.13914349364027062,-0.17858091390343772,0.10715170763335131,-0.001790339438098679,0.14626766649232703,0.013990942420527333,0.2117337607938167,-0.10749450345932438,0.15854003974190736,-0.14942815697718143,0.2104535133253218,-3.0680287705157476,-0.09969804011547066,-0.1981635184746805,-0.024603701645737778,0.16723794103036888,-0.19521245384162886,-0.04120727252944945,0.17801828190703645,0.026987186084315547,0.05732928862406655,-0.06139425068827014,-0.15266232249591294,-0.015648019178145896,-0.10154121298391303,0.1781196158437577,-0.02543117713087242,0.08219689120074188,-0.06633056410975993,-0.07663858080089961,-0.09812318959189306,0.07410278843274419,0.10856343564658187,-0.14226742612793727,0.19781079032818247,0.089100272632887,-0.10340793644209567,-0.13343815285035313,-0.20876425720848985,0.12823340209117282,-7.318962430397463,0.06540861604690328,-0.10176572542309552,-0.005231522308947194,-0.20940654680848242,-0.1011165937171012,-0.18739150847601121,-0.13387362921179996,-0.21527754131836915,-0.0139620926964073,-0.05272037884823108,-0.03752850143591098,0.14230867226949037,0.08418313487705721,-15.38654357434333,-0.07997638968173935,-0.0807989313492197],[-0.023148953520121814,-0.2081764693422425,0.0659975731741401,-0.08741770133867079,0.000656333168656567,0.043815282800156195,0.17110951900928328,0.03151879535867325,0.04133356712606307,0.051992635557014076,-0.19231913001748738,0.09870416520669122,0.08605141291488534,-0.1781331296652632,-0.2066126127586684,-0.015138114513992046,0.06822259295490918,-0.030569919173832134,0.029007671302650084,-0.015725365436934213,-0.13107951137370047,-0.09683630535551618,0.04346214809890673,-0.12451928895157241,0.03581906427951224,-0.07435018773893522,-0.04584232759334031,-0.1689651595756776,0.1777553709732534,-0.1036448549036607,-0.04319219576675806,0.11601992749595127,-0.03937957979796299,0.20035503917244898,0.10212561966387472,-0.1558470614202962,-0.16889775923731568,-0.09767890316231213,0.1436683864746072,-0.05688670071041572,-0.09062632761174419,-0.145027029404288,0.09003162080557947,0.0883417911026033,0.0355298797441099,0.17048966391588372,0.03250160993755498,-0.13948433603686383,0.03301063253434518,-0.12347157265833965,0.019817037716633693,-0.02486525577596813,-0.097413856574598,-0.09220463942430296,0.12884817492215525,0.04512603076710638,0.07939231886238979,0.16240228019729688,0.07876124790323025,0.15395456685381584,0.11747987076016853,0.03421174514517174,0.16510515940266265,0.1825381334044577],[-0.0021174577477225225,0.05498376039814043,-0.14574652773940447,0.07835086645125416,0.13554478925934893,-0.022190325639749663,-0.6228561747385543,0.1416626549985023,-0.529560910679064,0.1892811493895194,-0.103993431010256,-0.13765592804732046,0.151556081345685,-0.2885318855274907,-0.44397559307475876,0.147494068435305,0.13735404142136964,-0.01374928676543955,-0.35376245966937825,0.1598730259026771,-0.1483420081185407,-0.23908135757260768,-0.0711253493891035,-0.3580433613823055,-0.5872950432296624,-0.10751484107040013,-0.5486757589576323,0.15169001026856874,-0.5254241723288723,-0.576792273813932,-0.0668651148928019,-0.11212727841421304,-0.034495213546203884,-0.08832971121661376,0.1540507199793224,-0.731011345218554,-0.09139531173911244,-0.28947881006872994,0.031684987198155434,-0.0003282130183372484,0.19692027120325103,-0.14158104152044187,0.06524907819735024,-0.10559364134877582,-0.4687494265939136,-0.42407467342297833,0.005298336944119524,-0.08279833145053495,-0.10213885041356752,0.20427796582296248,-0.2744726717006522,0.10953532143610079,-0.13124400128504932,0.14394497767065909,-0.34372567199185144,-0.0913212685726723,-0.16309231967622295,-0.15811098590679262,-0.05140237159279403,-0.0861764641872286,0.11402579152636434,-0.059464180969785174,-0.2604675475876544,-0.49849896122770837],[-0.1270038940200755,-0.03237367071466476,-0.154407778177435,-0.19977423557350688,-0.20993198432837956,-0.1989939029359829,0.083926980322426,0.18861675523307672,-0.010599756248825686,-0.11221131823877653,0.04975268260772679,0.03147374619605891,-0.07121190638343751,-0.1763641244262661,0.15962366850009146,0.20993083487254763,0.1684096059436249,-0.14855818959256348,0.043408399729862164,0.04098566511255501,0.12601103581336673,-0.06192821830442338,0.14439563497935537,-0.005599543038225131,-0.11127824716056142,-0.11510846641861125,-0.17036680111424932,-0.1340544583827187,-0.13171181304637708,-0.11315015160116249,0.1403867851415208,-0.08983196192731394,-0.19557115672384576,-0.1014868547273314,0.18096377473671693,-0.05351166557289858,-0.11902589209442048,0.1545440719655157,-0.1079176221954211,-0.0795141086557584,0.04078634312186584,-0.1155335706480303,-0.17707989288936027,0.12949895644985113,0.1761151321500013,0.11876145700089868,-0.15858217202278216,-0.13093681506993218,-0.11322642792389608,0.0924648912125095,-0.05219747057506823,0.21621973829574184,-0.09464209578445557,0.1655938020950918,-0.00544801516313248,-0.1623783670246093,-0.021822833454510263,0.009388098273579771,0.018718203414120237,0.13652462232784318,-0.086056615252984,-0.16009850875190806,-0.137267690403082,-0.06239249220437141],[0.014603402340893674,0.16501471099837567,-0.10886858347391272,0.16510800794064673,-0.0008780709449043455,-0.1371607854454865,0.16504231061403105,0.049203146796179466,-0.08596249176170216,0.1859885392041936,0.20649520479238395,-0.045197873711837734,-0.18138462240885486,-0.15223666880406134,-0.06389174592780297,0.02906160280400201,0.021338714637711073,-0.10367326084961673,-0.204067838187852,-0.0425258256557812,-0.10010176724994736,0.09948855400722142,0.2119998136375535,0.12176525773055893,-0.1334536988318589,0.10146943110559599,-0.1690338165670169,-0.0681440739610984,0.09254803444750628,-0.18927235772133508,-0.12484232972675446,0.02466696119850473,-0.10065889234388822,0.1493391149634598,0.06485047183396711,-0.11888578114300644,-0.007332859923136753,0.11600322345127914,-0.024201457074157662,-0.10180243204465987,-0.016147735727682147,0.17609646785705546,0.11107331642260232,0.2061316038086465,-0.15198705911752733,0.1776921511271428,-0.15079705368209803,-0.07722828045238855,-0.10939577836431473,-0.05700267038778959,0.2062599080247094,0.1851309198539209,-0.12335548555674197,-0.10502629481895821,0.00025708314384581906,0.06154175905770871,0.14763761685896218,-0.0791601269594235,0.20883541886270254,0.1527540019699994,-0.1467592072746609,-0.05585784197268838,-0.20843866160355187,-0.0766914236629289],[-0.08225379087940363,-0.2919361650823483,-0.04057025926792905,-0.025003505354067933,-0.0030177434875282554,-0.06741855726210301,-2.725831701409489,0.02342193291884421,-1.3044750687125413,0.1647769937805326,-0.03356173683510441,-0.6108759507316913,-0.1248514428701824,-1.4180785406697791,-1.969692491344532,0.01410417661382906,-0.10865936820129363,0.07891902511391245,-0.6612859198151346,0.2550334832640953,0.07510944194370103,-1.0749367712950393,-0.43674768459470636,-0.810403363379822,-1.3850972737140403,0.08480789878670555,-1.3189749539970397,-0.056767332123962136,-1.3816757588645239,-2.1693400756733463,-0.17844887012083846,-0.05195289092622235,0.11241909489552296,-0.1475849817748021,0.07290419087372554,-2.811801499431663,-0.1313080612227188,-1.127801393784054,-0.30106734017503267,0.10520174368270593,-0.08673475523203557,-0.1780978507543047,-0.11066466764945035,-0.13103398944494085,-1.6480276876325588,-0.755620312546367,0.06556441312791592,-1.2031879379251373,-0.1383939362910805,-0.15924694295469877,-1.0155146222858509,0.025640856346046167,0.11311764582741836,-0.12467936236009629,-0.6779536816189712,0.04568103587458427,-0.21127337573052563,-0.0666736035722735,-0.15448070765648975,-0.6237099395124348,-0.2025399846256433,-0.7154615405450024,-0.016818031516245557,-1.813042329998446],[-0.0003490962244532894,-0.39604292022357024,0.06695834339169317,-0.15252602530566095,-0.02316026180691931,-0.01776601979499195,-3.768339154300754,0.06176297677258873,-1.7515042584612108,0.1742851277242612,0.06854515969180305,-0.49557320388272663,0.09750156937553014,-1.9225926921730192,-2.597595218393004,0.11554612801881498,-0.05563041461215956,-0.21233820603548956,-0.9642086668116787,-0.03989146118620921,0.17527512483142674,-1.594519985387692,-0.46485321764647125,-1.1666789385518432,-2.1138304828610477,-0.08482497005042168,-1.3632931413857574,0.18284022113718615,-2.0509632632379518,-2.5809336217727536,0.09067223444103617,-0.09702500422880542,-0.012903708455356013,-0.01018813695362419,-0.1344994270850884,-3.737750870207674,-0.0757642143203304,-1.2110539645224123,-0.18122430216719104,0.11316171140317442,0.090311377578446,0.19628526269084612,0.17984666448543885,-0.1840173056847913,-2.0800788006225637,-0.901324879504209,-0.1766225459242271,-1.1606186232352027,0.18837407618465435,0.1183180926691793,-1.2539828013753236,-0.1691976563773259,0.19633887438592287,-0.2564858454938208,-0.9560652941130137,-0.1484840180491946,0.1976178945555374,-0.19282704820022373,0.1733316871605702,-0.6992453567147999,0.17208940232895736,-1.0421914632926401,-0.10535632999540938,-1.9222930857689693],[-0.10291658311138803,0.10675993053088016,-0.149518942572527,-0.0035253056113280687,-0.1564628519333413,-0.0027059443598346535,-0.20469376912746684,0.13605324988838088,-0.12791803189971557,-0.06843733360856037,0.0578557456984785,0.04423381942096143,-0.07740310864208347,0.16810988900597465,0.023097189122346675,0.1682078481357117,-0.0630194841612473,0.11562682773752866,-0.06631918792168598,0.11015523221058979,-0.07510995223219162,0.003884037475048418,0.1073112733062856,-0.07203880250305121,-0.08416491351596929,0.1465045757479531,0.011780326537879674,0.10264320153885641,0.052571858541900315,0.011264234512186716,-0.1744840554269488,-0.11571609898505791,-0.1204366146964855,-0.16399785691216615,-0.18612457228660337,0.11138118174093806,0.007434545764667887,-0.13205066842170837,-0.17349937720845235,0.0736908597064014,-0.049683833419727895,0.2042365992855676,-0.18813874483582232,0.17301890267712977,0.07554094911701405,-0.21438138348624503,-0.01896254674269399,-0.20167569852277056,-0.20910763596849113,0.15037263105278262,0.19779817983352838,-0.11515800970952605,-0.04460169887514531,0.0156260349656478,0.09497892748171055,0.0260283819496408,0.11748550002877134,0.12077495945425153,0.2099001051317531,0.05898876952350988,0.15840390740406993,0.0429816786953251,-0.12372004134524298,-0.0835895674900738],[0.20085282352117054,0.38226642073228045,-0.11950630409766538,0.01640007955698222,-0.1553835873717519,0.05975846101317274,1.500822715563803,0.04991081422604941,0.7864200790388611,0.07936490601273151,-0.07517707901336387,0.37534602743749973,-0.159709455324781,0.6882706696411623,0.9357708162996559,-0.035188446115111904,-0.16766686113525178,-0.12183571562894076,-5.394859163061157,-0.1898521339827025,-0.1689476818104962,0.40959352218675,0.11066682491186378,0.30577264016112576,0.8238066201846308,-0.16948634997964243,0.7541509430401131,0.012488152298035918,0.6435965052460728,1.1779467811845636,0.1798487573406758,-0.07274440574451801,-0.17295634392507306,-0.11350661671460668,-0.1979374612599146,1.3191615124883165,0.27970575828599087,0.5026510827395566,0.14274082578406935,0.10016237036602003,0.15249790752053358,0.014507399832456481,0.10088595458757206,0.18239682385672243,0.6672864355036567,0.3599105364449998,-0.07032402665125717,-12.955951525577689,0.18076157525446923,-0.024449293415951708,0.6193413649822104,-0.2118160155861028,0.20531206490953594,0.26008804340040864,0.4085540240285019,0.11436195114231225,0.016397787526044105,-0.10035739347486837,0.1338415628405306,0.24865983550765725,-0.18560944346998365,-27.62566021802317,-0.04189047467731768,0.7506475360780277],[0.11844892364548741,-0.14284894309381208,0.09452914889785292,-0.15145072112019717,-0.1068840415821911,-0.15603843364492345,-0.20211535969755293,-0.00043989080430997536,-0.18313618716868835,-0.16251435030798506,0.13580546643653651,-0.11647421263281035,-0.05254030561495167,-0.04355335199192926,-0.16042837581087446,0.08679405613384403,0.07938550593969339,-0.02215948637451383,-1.055524448157229,-0.06978803417615763,0.042893906353782076,-0.01855864357374196,0.05993162379079899,-0.06922867992547278,-0.1891789694138502,0.009238246164080232,0.21558174259516769,-0.12495684080951794,0.0848884512193413,-0.15745818242485357,0.19288270848655084,-0.17610509969941027,0.09261706696080238,-0.1749743122917983,0.1923490463953175,0.09863811712171434,-0.06914285991076086,0.023687899981377308,-0.06704242728570017,0.16145300445164035,0.026959124219484785,0.02649798488212042,-0.215490224977454,-0.19248629520905725,0.18081706735229458,0.0324316731718275,0.03550711354575674,-2.89118940825154,-0.02590780544593096,0.17442032767867338,-0.12542625039168082,-0.05148761578568171,-0.20094040086819384,-0.18193219493450416,-0.09631757949124008,0.1496617269245633,0.10153158635075987,0.20063874191917552,-0.19538012102955446,-0.019330082764463873,-0.020603808887265672,-6.125085368425852,0.14834825237483804,0.0322019396444624],[-0.07821863690249006,-0.03291931096718137,-0.18365747169184884,0.13523203956104296,-0.08362658643509563,-0.17881716262237438,-1.699073976729171,0.09272326307528031,-0.8023692196389324,-0.13615561745815535,-0.020877921958197175,-0.14568199977080176,0.00514044801309112,-0.9802831656265374,-1.1805903686826498,0.10594834376149598,0.17507999443715824,-0.14653442597322008,-0.2528972429155595,-0.07079695000051694,0.13140537012646786,-0.8444682404764946,-0.3101598944862723,-0.7049904809573795,-0.8775998248325234,0.11885033852193416,-0.6851548611345383,-0.11495693700914826,-0.6912884540072486,-1.0581728506741725,0.17481553216239745,-0.08948342782647105,-0.033340910521604816,-0.15903923094366137,0.16566759080799606,-1.561079771624926,-0.17388419625794865,-0.41802982354548507,-0.28981622541953767,-0.21344357989503418,-0.026531913700680986,0.12763381387135134,-0.06817289017848853,0.206541045653122,-1.0919422766629994,-0.4335544648455758,-0.041996139191474186,-0.7002392377840818,-0.14275915155599875,